tree
version=v4
num_class=1
num_tree_per_iteration=1
label_index=0
max_feature_idx=155
objective=binary sigmoid:1
feature_names=NAME_CONTRACT_TYPE CODE_GENDER FLAG_OWN_CAR FLAG_OWN_REALTY CNT_CHILDREN AMT_INCOME_TOTAL AMT_CREDIT AMT_ANNUITY AMT_GOODS_PRICE NAME_TYPE_SUITE NAME_INCOME_TYPE NAME_EDUCATION_TYPE NAME_FAMILY_STATUS NAME_HOUSING_TYPE REGION_POPULATION_RELATIVE DAYS_BIRTH DAYS_EMPLOYED DAYS_REGISTRATION DAYS_ID_PUBLISH OWN_CAR_AGE FLAG_MOBIL FLAG_EMP_PHONE FLAG_WORK_PHONE FLAG_CONT_MOBILE FLAG_PHONE FLAG_EMAIL OCCUPATION_TYPE CNT_FAM_MEMBERS REGION_RATING_CLIENT REGION_RATING_CLIENT_W_CITY WEEKDAY_APPR_PROCESS_START HOUR_APPR_PROCESS_START REG_REGION_NOT_LIVE_REGION REG_REGION_NOT_WORK_REGION LIVE_REGION_NOT_WORK_REGION REG_CITY_NOT_LIVE_CITY REG_CITY_NOT_WORK_CITY LIVE_CITY_NOT_WORK_CITY ORGANIZATION_TYPE EXT_SOURCE_1 EXT_SOURCE_2 EXT_SOURCE_3 APARTMENTS_AVG BASEMENTAREA_AVG YEARS_BEGINEXPLUATATION_AVG YEARS_BUILD_AVG COMMONAREA_AVG ELEVATORS_AVG ENTRANCES_AVG FLOORSMAX_AVG FLOORSMIN_AVG LANDAREA_AVG LIVINGAPARTMENTS_AVG LIVINGAREA_AVG NONLIVINGAPARTMENTS_AVG NONLIVINGAREA_AVG APARTMENTS_MODE BASEMENTAREA_MODE YEARS_BEGINEXPLUATATION_MODE YEARS_BUILD_MODE COMMONAREA_MODE ELEVATORS_MODE ENTRANCES_MODE FLOORSMAX_MODE FLOORSMIN_MODE LANDAREA_MODE LIVINGAPARTMENTS_MODE LIVINGAREA_MODE NONLIVINGAPARTMENTS_MODE NONLIVINGAREA_MODE APARTMENTS_MEDI BASEMENTAREA_MEDI YEARS_BEGINEXPLUATATION_MEDI YEARS_BUILD_MEDI COMMONAREA_MEDI ELEVATORS_MEDI ENTRANCES_MEDI FLOORSMAX_MEDI FLOORSMIN_MEDI LANDAREA_MEDI LIVINGAPARTMENTS_MEDI LIVINGAREA_MEDI NONLIVINGAPARTMENTS_MEDI NONLIVINGAREA_MEDI FONDKAPREMONT_MODE HOUSETYPE_MODE TOTALAREA_MODE WALLSMATERIAL_MODE EMERGENCYSTATE_MODE OBS_30_CNT_SOCIAL_CIRCLE DEF_30_CNT_SOCIAL_CIRCLE OBS_60_CNT_SOCIAL_CIRCLE DEF_60_CNT_SOCIAL_CIRCLE DAYS_LAST_PHONE_CHANGE FLAG_DOCUMENT_2 FLAG_DOCUMENT_3 FLAG_DOCUMENT_4 FLAG_DOCUMENT_5 FLAG_DOCUMENT_6 FLAG_DOCUMENT_7 FLAG_DOCUMENT_8 FLAG_DOCUMENT_9 FLAG_DOCUMENT_10 FLAG_DOCUMENT_11 FLAG_DOCUMENT_12 FLAG_DOCUMENT_13 FLAG_DOCUMENT_14 FLAG_DOCUMENT_15 FLAG_DOCUMENT_16 FLAG_DOCUMENT_17 FLAG_DOCUMENT_18 FLAG_DOCUMENT_19 FLAG_DOCUMENT_20 FLAG_DOCUMENT_21 AMT_REQ_CREDIT_BUREAU_HOUR AMT_REQ_CREDIT_BUREAU_DAY AMT_REQ_CREDIT_BUREAU_WEEK AMT_REQ_CREDIT_BUREAU_MON AMT_REQ_CREDIT_BUREAU_QRT AMT_REQ_CREDIT_BUREAU_YEAR BUREAU_DAYS_CREDIT_COUNT BUREAU_DAYS_CREDIT_MEAN BUREAU_DAYS_CREDIT_MIN BUREAU_DAYS_CREDIT_MAX BUREAU_CREDIT_DAY_OVERDUE_MEAN BUREAU_CREDIT_DAY_OVERDUE_MAX BUREAU_AMT_CREDIT_SUM_SUM BUREAU_AMT_CREDIT_SUM_MEAN BUREAU_AMT_CREDIT_SUM_MAX BUREAU_AMT_CREDIT_SUM_DEBT_SUM BUREAU_AMT_CREDIT_SUM_DEBT_MEAN BUREAU_AMT_CREDIT_SUM_OVERDUE_SUM BUREAU_AMT_CREDIT_SUM_OVERDUE_MEAN BUREAU_DAYS_CREDIT_ENDDATE_MEAN BUREAU_DAYS_CREDIT_ENDDATE_MAX BUREAU_STATUS_ACTIVE BUREAU_STATUS_BAD_DEBT BUREAU_STATUS_CLOSED BUREAU_STATUS_SOLD PREV_AMT_ANNUITY_MEAN PREV_AMT_ANNUITY_MAX PREV_AMT_APPLICATION_MEAN PREV_AMT_APPLICATION_MAX PREV_AMT_APPLICATION_SUM PREV_AMT_CREDIT_MEAN PREV_AMT_CREDIT_MAX PREV_AMT_CREDIT_SUM PREV_DAYS_DECISION_MEAN PREV_DAYS_DECISION_MIN PREV_DAYS_DECISION_MAX PREV_CNT_PAYMENT_MEAN PREV_CNT_PAYMENT_SUM PREV_STATUS_APPROVED PREV_STATUS_CANCELED PREV_STATUS_REFUSED PREV_STATUS_UNUSED_OFFER
feature_infos=-1:0:1 -1:0:1 -1:0:1 -1:1:0 [0:19] [25650:117000000] [45000:4050000] [1615.5:258025.5] [40500:4050000] -1:6:1:5:0:4:3:2 -1:7:1:3:4:6:5:0 -1:4:1:2:3 -1:1:3:0:2:5 -1:1:5:2:4:3 [0.00029:0.072508000000000003] [-25197:-7673] [-17912:365243] [-24672:0] [-7197:0] [0:91] none [0:1] [0:1] [0:1] [0:1] [0:1] -1:8:14:3:10:4:6:0:11:16:2:1:12:9:17:15:13:5:7 [1:20] [1:3] [1:3] -1:5:6:1:4:0:2:3 [0:23] [0:1] [0:1] [0:1] [0:1] [0:1] [0:1] -1:5:57:42:33:30:4:11:39:51:28:7:3:55:47:20:26:40:13:16:31:2:1:34:53:35:41:46:38:43:24:56:54:14:12:9:21:22:44:27:50:10:19:0:8:36:17:45:32:29:6:52:15:23:37:49:18:48 [0.014568132412445501:0.96269277056130598] [5.0021087621015764e-06:0.85499966640470115] [0.00052726523870980004:0.89600954949483957] [0:1] [0:1] [0:1] [0:1] [0:1] [0:1] [0:1] [0:1] [0:1] [0:1] [0:1] [0:1] [0:1] [0:1] [0:1] [0:1] [0:1] [0:1] [0:1] [0:1] [0:1] [0:1] [0:1] [0:1] [0:1] [0:1] [0:1] [0:1] [0:1] [0:1] [0:1] [0:1] [0:1] [0:1] [0:1] [0:1] [0:1] [0:1] [0:1] [0:1] [0:1] [0:1] -1:2:3:0:1 -1:0:1:2 [0:1] -1:4:5:0:6:1:2:3 -1:0:1 [0:348] [0:34] [0:344] [0:24] [-4292:0] none [0:1] [0:1] [0:1] [0:1] [0:1] [0:1] [0:1] none [0:1] none [0:1] [0:1] [0:1] [0:1] [0:1] [0:1] [0:1] [0:1] [0:1] [0:4] [0:8] [0:8] [0:24] [0:261] [0:23] [1:61] [-2922:-3] [-2922:-3] [-2922:0] [0:2776] [0:2792] [0:471622517.46000004] [0:54040833.216000006] [0:170100000] [-6981558.2100000009:334498331.20500004] [-1037487.0449999999:37904382] [0:3756681] [0:1617403.5] [-41875:31198] [-41875:31199] [0:32] [0:1] [0:52] [0:9] [0:290358] [0:418058.14500000002] [0:4050000] [0:5850000] [0:37973713.5] [0:4050000] [0:4509688.5] [0:41461128] [-2922:-2] [-2922:-2] [-2922:-1] [0:72] [0:1788] [0:27] [0:58] [0:68] [0:16]
tree_sizes=3430 3454 3498 3474 3486 3502 3500 3471 3507 3527 3546 3548 3522 3544 3510 3566 3512 3541 3537 3536 3537 3561 3515 3503 3543 3515 3556 3522 3551 3559 3575 3576 3549 3519 3576 3572 3589 3574 3549 3549 3569 3567 3613 3582 3548 3596 3596 3614 3598 3563 3595 3602 3568 3605 3634 3592 3612 3576 3603 3606 3575 3610 3564 3639 3596 3608 3592 3589 3616 3597 3613 3642 3587 3613 3572 3604 3566 3635 3617 3578 3654 3590 3607 3618 3592 3619 3579 3595 3608 3632 3559 3629 3612 3608 3599 3615 3614 3562 3591 3632 3634 3612 3592 3594 3576 3614 3636 3574 3594 3608 3584 3644 3557 3629 3647 3606 3628 3612 3602 3609 3611 3611 3636 3613 3604 3633 3598 3612 3584 3584 3584 3654 3624 3591 3574 3597 3614 3592 3596 3588 3600 3605 3596 3598 3608 3638 3588 3604 3630 3594 3603 3576 3611 3626 3555 3537 3579 3555 3535 3589 3609 3563 3561 3569 3566 3565 3564 3591 3586 3561 3548 3558 3528 3573 3589 3624 3607 3603 3552 3506 3535 3576 3531 3509 3560 3523 3586 3567 3500 3546 3536 3580 3571 3563 3573 3563 3618 3573 3560 3518 3527 3596 3568 3535 3602 3550 3522 3548 3538 3609 3580 3502 3572 3555 3509 3505 3515 3493 3555 3476 3557 3491 3536 3555 3539 3531 3568 3526 3581 3514 3494 3495 3564 3564 3523 3544 3556 3527 3554 3549 3552 3591 3494 3500 3524 3477 3490 3486 3537 3493 3556 3476

Tree=0
num_leaves=31
num_cat=5
split_feature=41 40 40 41 41 40 40 40 39 39 39 26 26 39 15 39 15 16 40 11 26 40 26 39 41 39 122 148 40 40
split_gain=82523.9 41336.4 22047.5 16631.5 7013.99 6498.27 5205.96 5032.22 4091.83 3636.75 3003.16 2589.19 2442.38 2191.76 2127.06 1960.65 1765.1 1454.97 1366.9 1361.8 1357.67 1245.98 1220.05 1199.87 1106.66 1089.43 1087.19 1086.76 1066.02 971.57
threshold=0.46955788558464323 0.46195490015523105 0.4954234862845211 0.26716287204475503 0.28151900404279145 0.67324903798518321 0.15968216777734864 0.25274955010386396 0.53619245594163834 0.41330251922577094 0.42424700167962676 0 1 0.26938691457558972 -19503.499999999996 0.45333820138930098 -18053.499999999996 -3298.4999999999995 0.66040490271725927 2 3 0.66040490271725927 4 0.39411788288992294 0.67778009598813893 0.38596896952105325 -1749.4999999999998 -1250.4999999999998 0.20796809516401146 0.60582684821521815
decision_type=10 8 10 8 8 10 10 8 10 8 10 9 9 8 2 10 2 2 10 9 9 10 9 10 10 10 8 10 10 8
left_child=1 4 7 15 28 8 25 16 13 -4 14 17 18 -5 -8 21 -2 -9 -11 24 27 -3 -7 -18 -14 -6 -13 -15 -1 -22
right_child=2 3 9 5 6 22 10 11 -10 12 -12 26 19 20 -16 -17 23 -19 -20 -21 29 -23 -24 -25 -26 -27 -28 -29 -30 -31
leaf_value=-1.9136506969746621 -2.1702987259194022 -2.0082978869808006 -2.2153134613463354 -2.0571675096208191 -1.9528506035593234 -2.2147082417665676 -2.1295799572959382 -2.2614706521632488 -2.2611424651483838 -2.2453805267110378 -2.163622873869389 -2.2806347140863954 -2.2923968503162957 -2.1597719860299658 -2.0338642922783534 -2.1300931505036633 -2.046134797989529 -2.1278900668002616 -2.321189345885172 -2.3782291061388587 -2.165836595013749 -2.0928574349725158 -2.2977310485076456 -2.1757418320350497 -2.3569725016667737 -2.0789492542835046 -2.2057070252519329 -2.0886366967206547 -1.9732177921797285 -2.235489810562429
leaf_weight=1272.3547136336565 647.4502095207572 1716.713115029037 1081.8402862101793 621.41681083291769 1546.9983602240682 847.59678629040718 709.1132864356041 245.0137131139636 895.39599541574717 1574.8910385146737 701.00963370501995 1043.5153157040477 1747.7678674682975 1060.0225105211139 3198.6190497502685 617.57656956464052 1032.1605381816626 1213.2989714294672 955.29877138882875 1457.0722646340728 1365.5764510855079 583.77924208343029 1338.4110743030906 215.93243332207203 1069.4241119623184 192.61092805862427 903.13119239360094 1087.9890415742993 1833.3508415967226 790.43679737299681
leaf_count=3839 4985 8144 9218 3502 5774 7173 4933 2294 8378 14283 5312 10135 17350 7958 16666 4302 5609 8403 9985 16736 10403 3670 13392 1684 11876 1162 7537 6756 7524 7026
internal_value=-2.15 -2.08694 -2.24746 -2.15318 -2.01039 -2.19042 -2.04051 -2.1686 -2.16282 -2.30047 -2.06833 -2.20495 -2.31401 -2.14495 -2.05123 -2.05099 -2.10331 -2.15225 -2.27463 -2.33791 -2.15762 -2.02976 -2.26393 -2.06856 -2.31732 -1.96681 -2.24683 -2.12517 -1.94881 -2.19249
internal_weight=33565.8 20379 13186.8 10924.9 9454.06 8006.85 6348.35 5300.5 5820.84 7886.29 4608.74 3404.96 6804.45 4925.44 3907.73 2918.07 1895.54 1458.31 2530.19 4274.26 4304.02 2300.49 2186.01 1248.09 2817.19 1739.61 1946.65 2148.01 3105.71 2156.01
internal_count=246009 125914 120095 80704 45210 64588 33847 40647 44023 79448 26911 28369 70230 35645 21599 16116 12278 10697 24268 45962 32143 11814 20565 7293 29226 6936 17672 14714 11363 17429
cat_boundaries=0 1 2 3 4 5
cat_threshold=82704 213782 20 217878 82706
is_linear=0
shrinkage=1


Tree=1
num_leaves=31
num_cat=4
split_feature=41 40 40 41 40 41 40 11 38 39 39 40 39 1 1 130 16 154 41 39 16 39 15 41 40 39 150 39 6 39
split_gain=37504.4 16930.8 9971.29 6108.53 3796.77 3287.98 3220.11 2294.14 1882.68 1759 1668.58 1574.41 1485.2 1340.39 1285.99 1199.45 1140.34 1094.61 1084.62 1053.6 879.787 837.498 837.424 738.929 732.103 696.932 692.493 690.042 686.789 677.821
threshold=0.50558277949122454 0.55260845908844103 0.57867559874081553 0.33365234483727518 0.26620569353424045 0.3178136513186039 0.3222939279162243 0 1 0.68254371739238506 0.3003764914979512 0.71917403523426282 0.63558665321543717 2 3 60615.472500000011 -1912.4999999999998 1.0000000180025095e-35 0.13053784794202253 0.34942247273246541 1.0000000180025095e-35 0.3382847277478872 -14347.499999999998 0.15240038910234457 0.68918813171567395 0.23689657684188067 24.050000000000004 0.26938691457558972 296392.50000000006 0.64638041983324446
decision_type=10 8 10 8 10 8 8 9 9 10 8 10 10 9 9 8 2 10 10 8 2 8 2 10 10 8 10 10 2 10
left_child=1 4 6 12 20 23 13 11 16 15 -4 14 18 22 19 -7 -8 24 -3 -5 27 -10 28 -6 -12 -20 29 -1 -2 -21
right_child=2 3 10 7 5 9 8 -9 21 -11 17 -13 -14 -15 -16 -17 -18 -19 25 26 -22 -23 -24 -25 -26 -27 -28 -29 -30 -31
leaf_value=0.31524669805268202 0.10676768193014374 0.30392757325895703 0.18932022822477912 0.26088703726852081 0.31971288825013422 0.20430027095167633 0.14299751675053479 0.11475390739539225 0.21822493274167043 0.11623883865335563 0.089094149166991904 0.11292626272027476 0.1480304592830228 0.26077346645727545 0.22840306148265724 0.25179754161853823 0.20986000083954015 0.12124393415623679 0.30772967482720037 0.15959320174065661 0.25383590206373036 0.10550520739511159 0.23655951122705693 0.27420502983800293 0.044565468827188343 0.22869662200545005 0.22551339399984435 0.27542147078161222 0.19129169957193823 0.068155006584479205
leaf_weight=5064.7383509203792 332.90515668690205 808.90692794322968 423.33837139606476 294.68321541696787 1342.7784272432327 1880.521785415709 1073.6510797068477 1867.491125844419 180.94099612534046 311.67948364466429 2414.2255607694387 687.42416287958622 371.69083321839571 1196.8330368176103 1683.2931236177683 4533.5854593589902 1570.4547231048346 1592.7816182300448 315.85199248045683 1662.1239915043116 896.65282765775919 1845.8354267925024 702.32446733117104 2657.1777417138219 1494.4676408618689 2386.9484851285815 344.51040487736464 1385.1387648656964 864.20623378455639 230.82024770975113
leaf_count=12927 2646 2690 2882 1402 3515 10615 8484 15641 1117 2536 22936 5949 2679 5556 9635 21248 10005 14242 1055 12091 3618 16297 3538 9762 15796 12367 2141 4979 5464 2196
internal_value=0.21062 0.243079 0.142521 0.193084 0.272551 0.253584 0.179788 0.16441 0.153576 0.232235 0.0936665 0.182717 0.243074 0.219329 0.194532 0.237872 0.182022 0.086306 0.253134 0.172015 0.300243 0.115001 0.193216 0.289482 0.0720688 0.237933 0.16031 0.306694 0.167786 0.148443
internal_weight=42418 28726 13692 10653.7 18072.3 10725.7 7767.15 6770.35 4670.88 6725.79 5924.81 4902.86 3883.4 3096.27 4215.43 6414.11 2644.11 5501.47 3511.71 2532.14 7346.53 2026.78 1899.44 3999.96 3908.69 2702.8 2237.45 6449.88 1197.11 1892.94
internal_count=246009 137046 108963 67846 69200 47676 53107 49055 35903 34399 55856 33414 18791 17204 27465 31863 18489 52974 16112 17830 21524 17414 11648 13277 38732 13422 16428 17906 8110 14287
cat_boundaries=0 1 3 4 5
cat_threshold=24 1091593402 14681408 1 1
is_linear=0
shrinkage=0.05


Tree=2
num_leaves=31
num_cat=3
split_feature=41 40 40 40 41 41 39 40 39 39 38 39 38 154 39 41 39 95 137 1 39 40 19 39 139 150 130 150 146 16
split_gain=21391 10585.7 5384.66 3927.55 2823.09 2619.08 1694.82 1653.15 1452.92 1415.08 1317.86 1170.03 1019.49 973.798 938.81 914.277 884.565 847.025 725.643 664.625 655.149 612.588 607.981 619.619 585.105 532.058 528.948 521.164 551.073 505.789
threshold=0.55583709744822496 0.61848882125824722 0.46195490015523105 0.37774491641636904 0.31314102321966769 0.25877592938357447 0.47503319679924144 0.70884653007443699 0.70193403137120647 0.57113036230008996 0 0.54426100915824371 1 1.0000000180025095e-35 0.41330251922577094 0.34496990492100627 0.40519252634033659 1.0000000180025095e-35 1.5000000000000002 2 0.54426100915824371 0.14532375897661612 12.500000000000002 0.2755573165604715 14125.863750000002 18.80740740740741 37691.395000000011 17.861904761904764 65229.750000000007 -2050.4999999999995
decision_type=10 10 10 8 8 8 10 10 10 10 9 10 9 10 8 8 10 2 10 9 10 8 8 10 8 10 8 8 10 2
left_child=1 3 10 11 20 -5 13 8 14 12 16 15 22 24 -4 -1 21 -16 -19 -17 -3 -2 -7 29 -6 -20 -21 28 -14 -24
right_child=2 4 7 5 6 9 -8 -9 -10 -11 -12 -13 27 -15 17 19 -18 18 25 26 -22 -23 23 -25 -26 -27 -28 -29 -30 -31
leaf_value=0.24171052217575051 0.24102064456359235 0.19476035067797415 0.15010830137332398 0.22071051915479717 0.13793663932277819 0.15949254195624521 0.074721106847234084 0.037573211083032181 0.02434489392313265 0.12014614501697862 0.11955108873036378 0.17140061722942598 0.19384785014053807 0.16745455329381545 0.062061877410342428 0.23114081253176277 0.12092610782165657 0.14528481391335266 0.081861444020048663 0.17223804806440249 0.12635032057281162 0.17785572622190915 0.17849353125641432 0.16571409567661044 0.093178473229632575 0.13664929316947508 0.21207131975925614 0.17611652437578298 0.11419116177898332 0.21672572086213868
leaf_weight=5341.6998983100057 485.48356854915619 2198.6020676270127 986.80105335265398 3702.3253058567643 1787.1997220590711 1375.229734249413 1456.4354210048914 1379.9710236117244 606.34395936131477 1177.7300647571683 1895.7815900444984 1071.9557952955365 265.26844494044781 1645.3704730942845 1297.138451308012 3543.1342707052827 557.32813008129597 1002.640641964972 1875.4771373867989 1111.3918060511351 416.23468079417944 1833.4787630587816 1211.4579400718212 1248.4249411523342 1234.5771767124534 580.22138284891844 3332.0934519469738 956.80945527553558 1196.2719487249851 3025.4822114780545
leaf_count=10562 1434 8499 6058 10147 11640 6854 12146 13762 5968 8146 12246 4612 1200 9735 11671 9396 3491 7253 15943 4540 2515 8912 5639 6237 9275 4327 10407 4763 7302 11329
internal_value=0.169564 0.188536 0.112959 0.20327 0.14038 0.184571 0.121809 0.0871731 0.0979544 0.171775 0.154721 0.221656 0.178328 0.136503 0.105727 0.225698 0.176871 0.0965176 0.109441 0.214988 0.183871 0.19108 0.188944 0.196672 0.11965 0.0948065 0.202108 0.146822 0.128649 0.205794
internal_weight=49798.4 37297.7 12500.7 28559.3 8738.42 14159 6123.58 7728.59 6348.62 10456.7 4772.07 14400.3 9278.94 4667.15 5742.28 13328.3 2876.29 4755.48 3458.34 7986.62 2614.84 2318.96 6860.59 5485.37 3021.78 2455.7 4443.49 2418.35 1461.54 4236.94
internal_count=246009 154944 91065 101134 53810 61617 42796 64982 51220 51470 26083 39517 43324 30650 45252 34905 13837 39194 27523 24343 11014 10346 30059 23205 20915 20270 14947 13265 8502 16968
cat_boundaries=0 2 4 5
cat_threshold=1076904120 13124866 87124154 15242570 2
is_linear=0
shrinkage=0.05


Tree=3
num_leaves=31
num_cat=7
split_feature=41 40 40 40 39 41 41 39 40 38 39 39 38 38 19 11 26 121 16 40 126 40 150 41 41 41 38 139 150 1
split_gain=14257 6122.36 4620.12 2089.46 1767.12 1714.2 1528.11 1255.25 1198.17 1149.27 1025.02 985.958 973.06 914.294 774.617 725.704 703.669 651.486 593.315 574.42 557.6 554.602 534.967 479.468 448.001 440.126 437.859 426.074 412.724 409.356
threshold=0.50558277949122454 0.61541658135588906 0.57867559874081553 0.37774491641636904 0.60856496752986622 0.23208206388391875 0.35481316242154587 0.62215197354985896 0.14532375897661612 0 0.45596275436860362 0.24329086439133613 1 2 13.500000000000002 3 4 -868.3205128205127 -1912.4999999999998 0.10653574344594266 90002.250000000015 0.72473553291461945 27.211111111111112 0.15240038910234457 0.34496990492100627 0.67935325526409696 5 9592.5612500000025 24.348484848484851 6
decision_type=10 10 10 8 10 8 8 10 8 9 10 8 9 9 8 9 9 8 2 10 10 10 10 10 8 10 9 8 10 9
left_child=1 3 4 16 8 -3 23 11 -2 18 12 -7 21 14 -13 17 -1 -8 28 -18 -11 25 27 -5 -21 -4 -9 -15 -10 -19
right_child=2 5 10 6 -6 7 15 26 9 20 -12 13 -14 22 -16 -17 19 29 -20 24 -22 -23 -24 -25 -26 -27 -28 -29 -30 -31
leaf_value=0.1932215527071805 0.17837341712458918 0.16449691980594783 0.12436488552888803 0.19519220100670143 0.063433607784439627 0.18461592487771075 0.12533892926626145 0.075341496049220136 0.1097993775610145 0.16605009432210072 0.04060081536613451 0.08962500719434946 0.051294100395924469 0.10715164861293727 0.14198335149759278 0.11016819108775003 0.19285936225939421 0.14755210890912437 0.15659837370879259 0.17724436107692831 0.094826344627105569 0.053921796389031662 0.15171765231823786 0.16535882370039648 0.14755120893728366 0.083694938236286792 -0.0065552248759777904 0.054784573712052177 0.18815439942156498 0.17792338784636055
leaf_weight=8653.7946607246995 1237.479745015502 1918.850991666317 1737.5939176976681 1908.7157007604837 1026.323248013854 528.53323733061552 1867.1996396705508 694.33451119065285 1458.0739777013659 303.21051365882158 1862.4726765006781 951.36129008233547 1635.4875175505877 608.94521421194077 2743.5719329491258 1777.08715390414 1794.4758253693581 2618.4481985867023 2818.0284785330296 2194.8351785987616 2932.5549343153834 550.51165404170752 253.11372465640306 4574.5162556543946 3015.6702894046903 1077.8900838941336 218.48598006367683 1072.6099311932921 189.95506290346384 1925.1982472240925
leaf_count=17248 3953 6221 11461 3768 7451 1858 8880 5245 8315 1500 17121 5864 14115 3651 14131 9185 3251 10942 12113 4809 18953 4935 1297 14401 10285 8224 1995 7657 822 6358
internal_value=0.142341 0.158824 0.10383 0.169566 0.125572 0.122584 0.156007 0.111211 0.132706 0.125369 0.0722639 0.119321 0.0840547 0.113191 0.128155 0.141648 0.182268 0.149969 0.142343 0.168221 0.101188 0.0995245 0.0835174 0.174142 0.160059 0.108795 0.0564929 0.0737484 0.118831 0.160421
internal_weight=56149.3 39319.7 16829.6 30329.9 9965.63 8989.81 14671.2 7070.96 8939.3 7701.82 6863.96 6158.14 5001.48 5629.6 3694.93 8187.93 15658.8 6410.85 4466.06 7004.98 3235.77 3366 1934.67 6483.23 5210.51 2815.48 912.82 1681.56 1648.03 4543.65
internal_count=246009 137046 108963 89127 53107 47919 53534 41698 45656 41703 55856 34458 38735 32600 19995 35365 35593 26180 21250 18345 20453 24620 12605 18169 15094 19685 7240 11308 9137 17300
cat_boundaries=0 2 4 6 7 8 10 11
cat_threshold=19932858 15205696 1091659962 29920578 271646898 13147402 24 213782 406861231 41976922 1
is_linear=0
shrinkage=0.05


Tree=4
num_leaves=31
num_cat=6
split_feature=41 40 40 41 11 26 38 1 133 39 39 39 39 40 150 95 7 16 19 41 38 15 150 38 41 95 148 140 150 41
split_gain=10529.7 5313.81 2671.8 2480.89 1310.15 1299.89 1208.11 919.163 777.144 766.227 751.032 638.533 616.178 551.711 528.593 501.372 496.932 537.646 473.895 462.883 461.084 453.229 516.45 444.611 444.402 442.87 431.162 391.246 379.401 378.781
threshold=0.57179952324457861 0.51802116220843819 0.64780945534997247 0.3714916490179011 0 1 2 3 -420.93749999999994 0.4428357040395835 0.41874540240276542 0.70193403137120647 0.70193403137120647 0.33167745404186355 17.348484848484851 1.0000000180025095e-35 16157.250000000002 -4390.4999999999991 12.500000000000002 0.23208206388391875 4 -17157.499999999996 27.211111111111112 5 0.71730152806526426 1.0000000180025095e-35 -1085.4999999999998 13464.832500000002 16.683333333333337 0.43030774107075148
decision_type=10 10 10 8 9 9 9 9 8 10 10 10 10 8 10 2 10 2 8 10 9 2 10 9 10 2 10 8 10 8
left_child=1 6 5 9 23 13 10 12 -8 20 15 16 21 -2 27 -1 -7 -18 -9 -11 -3 22 -6 -5 -15 -4 -17 -10 -12 -29
right_child=2 3 25 4 7 11 8 18 14 19 28 -13 -14 24 -16 26 17 -19 -20 -21 -22 -23 -24 -25 -26 -27 -28 29 -30 -31
leaf_value=0.14133164709343252 0.13881422487447259 0.15530949074641873 0.017596420835542068 0.082146154607020544 0.072202316604235151 0.056970788369013793 0.096333066638191495 0.099526097738656283 0.14141204709303754 0.13187444117734187 0.11684970599515941 0.026191975243132815 0.038266403081365759 0.11636651641560572 0.15573419014307474 0.15420639030888933 0.043492346958885868 0.10111177502370682 0.13933253489293693 0.080017326988407467 0.12320948529686758 0.1132776053583132 0.13981242130566585 0.037064467097378914 0.075919956053930163 0.057304145314553773 0.17189826767972105 0.13192251288306439 0.15629390716659378 0.089531667191766043
leaf_weight=3287.4975265786052 1729.6692482158542 3912.1609450727701 989.93747531622648 1765.0066118910909 1783.2602200731635 1196.0504729896784 1367.9138386696577 1046.4594220370054 2286.4149548858404 854.3189062923193 1764.5191744342446 508.73012265563011 431.4672838523984 2164.4194088280201 2538.9412268176675 6878.9753648117185 461.89723961800337 3278.2123331427574 2618.7021871730685 867.0657477080822 2461.9170211404562 2925.0500147938728 335.60948864370584 877.31519854813814 989.65290720015764 2415.9646717831492 6896.0649284049869 1097.0785965546966 931.45367359369993 1014.0555711761117
leaf_count=8040 5780 10494 9092 11010 10917 8052 5389 5350 6263 2914 6306 4242 3400 11077 6340 15391 3281 18882 10560 4903 8398 14262 1488 6547 5927 19631 12350 2828 2636 4259
internal_value=0.122765 0.133823 0.0841664 0.114044 0.0994027 0.0968301 0.147833 0.108469 0.130619 0.135354 0.154923 0.0793819 0.0956154 0.115883 0.137569 0.158876 0.0850246 0.0939959 0.127967 0.105754 0.143348 0.100521 0.0829111 0.0673741 0.103676 0.045763 0.163063 0.127081 0.130478 0.111561
internal_weight=61675.8 47941.2 13734.5 19878.3 11782.9 10328.6 28062.9 9140.55 8304.4 8095.46 19758.5 5444.89 5475.39 4883.74 6936.49 17062.5 4936.16 3740.11 3665.16 1721.38 6374.08 5043.92 2118.87 2642.32 3154.07 3405.9 13775 4397.55 2695.97 2111.13
internal_count=246009 160045 85964 90243 63534 57241 69802 45977 25079 26709 44723 34457 30067 22784 19690 35781 30215 22163 15910 7817 18892 26667 12405 17557 17004 28723 27741 13350 8942 7087
cat_boundaries=0 1 2 4 5 7 9
cat_threshold=2 82710 20013242 15238474 1 269492386 6849546 1343307956 8952858
is_linear=0
shrinkage=0.05


Tree=5
num_leaves=31
num_cat=5
split_feature=41 40 41 40 39 26 40 41 19 39 39 1 121 40 150 38 150 6 18 38 16 150 7 39 40 146 19 139 38 6
split_gain=7971.47 4319.42 2356.63 2067.83 1512.69 965.318 851.158 720.672 678.264 667.488 650.264 608.833 561.591 548.669 467.09 464.268 453.167 441.181 419.393 417.415 411.856 386.547 385.707 379.753 377.867 371.435 359.165 353.779 353.073 350.506
threshold=0.57179952324457861 0.41434400404117216 0.32726918529310883 0.48740062353135005 0.5068176603642961 0 0.70884653007443699 0.24252398348273921 16.500000000000004 0.70193403137120647 0.54154971965085807 1 -750.29166666666663 0.69959154657856371 13.026315789473687 2 28.348484848484851 273672.00000000006 -4368.4999999999991 3 -3948.4999999999995 17.861904761904764 16499.250000000004 0.7949901889599359 0.12697789451685937 2427093.0000000005 11.500000000000002 9907.4587500000016 4 273672.00000000006
decision_type=10 8 8 10 10 9 10 8 8 10 10 9 10 8 10 9 10 2 2 9 2 10 10 10 10 10 8 8 9 2
left_child=1 7 12 11 5 8 9 -1 -4 14 15 17 21 16 19 -9 18 -2 -7 27 -10 -3 -22 25 -17 -6 -13 -5 -8 -26
right_child=3 2 4 6 23 13 28 10 20 -11 -12 26 -14 -15 -16 24 -18 -19 -20 -21 22 -23 -24 -25 29 -27 -28 -29 -30 -31
leaf_value=0.14893238212646676 0.055713453863870444 0.10114683318888414 0.088743993573362948 0.090750864157754227 0.062868475258504017 0.062473744530118391 0.046462081857863845 0.13804509804805171 0.080573687007621408 0.015561221287769843 0.094447055159059878 0.081779684742048234 0.13531707417229896 0.057263345501078755 0.087466704694361685 0.13957517661408558 0.13299202190581472 0.094310330868448478 0.095536314793081181 0.032928018368469245 0.10247396239087288 0.13011682701547797 0.13410160006941707 0.021623291093062619 0.08633788411327481 0.11706554061171975 0.12654212239314175 0.053523250168263758 -0.0030622416899718607 0.11909136278059936
leaf_weight=5598.9829534292221 1002.2082847133279 3141.7904587313533 2071.4043876379728 1202.1439163759351 2415.389888830483 1197.094423301518 778.05280212312937 10327.712141357362 541.17727913707495 595.65802229195833 1311.9119409620762 586.39234919846058 5168.4741298109293 1260.1901052966714 2537.6675190553069 1473.9354020953178 647.26879026740789 2833.9329034015536 4825.5282134339213 1110.2540232464671 1274.6052845641971 1817.5905408710241 3955.3819461613894 475.87783230096102 1128.5912207514048 363.74124777317047 1900.6412009596825 1360.3349602743983 668.09717444330454 2956.6834572926164
leaf_count=7418 5493 9769 8822 7039 14880 6297 6593 19870 2474 5388 4879 2538 11932 8109 15567 2578 2304 12890 21364 8562 4728 4650 12575 3633 3763 1885 6399 9071 6424 8115
internal_value=0.107881 0.117048 0.104299 0.0752044 0.0939282 0.100333 0.058719 0.133352 0.113143 0.066121 0.128279 0.0967191 0.123784 0.0874102 0.0709704 0.131073 0.0932372 0.0842267 0.0889646 0.0595722 0.122097 0.111764 0.126394 0.0628949 0.117661 0.069962 0.115988 0.070712 0.0238828 0.110043
internal_weight=66528.7 51953.3 29155.5 14575.4 19027.7 15772.7 8252.21 22797.8 7842.57 6806.06 17198.8 6323.17 10127.9 7930.08 6210.4 15886.9 6669.89 3836.14 6022.62 3672.73 5771.16 4959.38 5229.99 3255.01 5559.21 2779.13 2487.03 2562.48 1446.15 4085.27
internal_count=246009 160045 113422 85964 87071 66673 58644 46623 28599 45627 39205 27320 26351 38074 40239 34326 29965 18383 27661 24672 19777 14419 17303 20398 14456 16765 8937 16110 13017 11878
cat_boundaries=0 1 2 4 6 8
cat_threshold=221972 1 1138874 15238464 19999163 13109202 275335353 2890816
is_linear=0
shrinkage=0.05


Tree=6
num_leaves=31
num_cat=9
split_feature=41 40 40 41 39 40 154 26 11 39 15 1 150 39 16 39 150 41 38 38 15 134 40 38 8 11 16 7 38 38
split_gain=6400.98 3052.16 2350.11 1267.96 1115.86 1006.03 881.755 844.378 793.034 679.845 589.384 625.81 670.754 578.119 553.433 526.217 525.611 473 453.984 435.628 418.909 416.081 414.057 395.939 326.078 379.151 312.184 327.044 305.203 300.254
threshold=0.50197671872363325 0.61541658135588906 0.39835413809424031 0.22698015538608193 0.61928115591535515 0.20796809516401146 1.0000000180025095e-35 0 1 0.6545997555291142 -17031.499999999996 2 17.861904761904764 0.41330251922577094 -2022.4999999999998 0.31230767666326587 15.788888888888891 0.43384745792380691 3 4 -17662.499999999996 1045.5000000000002 0.72103399651713362 5 222750.00000000003 6 -2468.4999999999995 25319.250000000004 7 8
decision_type=10 10 10 8 10 8 10 9 9 10 2 9 10 10 2 10 10 8 9 9 2 8 10 9 10 9 2 10 9 9
left_child=1 3 13 -1 7 -5 9 14 10 17 11 -7 -13 20 -4 -12 18 -3 -9 -10 -2 28 26 -6 -20 -26 -19 -28 -8 -18
right_child=2 6 4 5 23 8 21 16 19 -11 15 12 -14 -15 -16 -17 29 22 24 -21 -22 -23 -24 -25 25 -27 27 -29 -30 -31
leaf_value=0.12849811144701154 0.0845119397461912 0.090415012644230922 0.061523909950801495 0.12300733744225156 0.036881630992460598 0.11622763195374347 0.092955242133922256 0.087269309746975429 0.089997100381481551 0.023057709473489656 0.11936238921227749 0.062974249860870871 0.10572520613377666 0.064388150391152393 0.093861453916300255 0.093968893447638979 -0.0037986478561251504 0.038737166001131335 -0.002080448077919838 0.04802915745213903 0.11270927131971309 0.10985898172402664 0.026193547465646918 -0.019006578599817889 0.054747949322331117 0.017274355491179744 0.059439491414526369 0.10204134744033529 0.039001505754310821 0.078030678867432243
leaf_weight=9359.743161380291 2020.3222803473473 3050.074001044035 2185.9131632745266 7627.8632711917162 1525.4204541742802 2038.7487691640854 939.53186510503292 513.2385311499238 3697.4124386534095 658.13442622125149 8893.7609945088625 2087.1102735102177 1637.2674592807889 1171.3798748776317 3352.002570874989 2647.4338589757681 126.63622996211052 542.41929590702057 470.55636958777905 845.73218515515327 3784.5872326120734 3160.6557816788554 624.17700147628784 395.86672319471836 2096.6929513290524 1039.7365503534675 851.20624053478241 956.9561514928937 433.16638050973415 2050.4104465097189
leaf_count=13636 8409 11043 12704 12282 11928 5169 3419 2839 12280 4582 19747 8395 4858 5606 15708 8583 957 3010 3669 3566 10717 10925 4047 3521 13789 7928 4265 4025 2205 12197
internal_value=0.0961527 0.10583 0.0727909 0.112465 0.060803 0.107374 0.0828549 0.0665406 0.101916 0.0713086 0.106955 0.0939583 0.0817679 0.0964298 0.0809511 0.113537 0.053654 0.0765794 0.043239 0.0823072 0.102896 0.0998763 0.0623935 0.0254593 0.0366304 0.042555 0.0720061 0.0819862 0.076891 0.0736117
internal_weight=70784.2 50051.4 20732.8 38835.1 13756.5 29475.3 11216.3 11835.2 21847.5 6682.97 17304.3 5763.13 3724.38 6976.29 5537.92 11541.2 6297.27 6024.83 4120.22 4543.14 5804.91 4533.35 2974.76 1921.29 3606.99 3136.43 2350.58 1808.16 1372.7 2177.05
internal_count=246009 136037 109972 88516 85240 74880 47521 69791 62598 30972 46752 18422 13253 24732 28412 28330 41379 26390 28225 15846 19126 16549 15347 15449 25386 21717 11300 8290 5624 13154
cat_boundaries=0 1 2 3 5 7 9 10 12 14
cat_threshold=246550 24 2 536870915 8392000 420571564 46700306 2164814139 56657822 20 269549752 8936450 2952795648 546820
is_linear=0
shrinkage=0.05


Tree=7
num_leaves=31
num_cat=7
split_feature=41 40 41 11 40 1 15 40 7 8 41 40 1 150 39 150 39 92 38 39 26 16 39 0 16 38 150 16 126 154
split_gain=5397.34 3338.88 1811.71 1446.54 1168.98 866.991 902.736 624.755 581.852 596.606 532.9 517.894 513 497.444 671.921 489.012 460.757 475.786 455.234 420.008 415.52 419.307 377.825 361.989 328.973 325.228 327.422 324.305 318.464 315.887
threshold=0.60841648376416824 0.41434400404117216 0.22195798551490056 0 0.49025837504982289 1 -16728.499999999996 0.12697789451685937 15198.750000000002 675191.25000000012 0.34496990492100627 0.66464386790980601 2 15.350877192982457 0.3003764914979512 23.730303030303034 0.3003764914979512 1.0000000180025095e-35 3 0.38596896952105325 4 -1026.4999999999998 0.54678458441065703 5 -3255.4999999999995 6 18.80740740740741 -3822.4999999999995 135002.65500000003 1.5000000000000002
decision_type=10 8 8 9 10 9 2 10 10 8 8 10 9 10 10 10 8 10 9 8 9 2 10 1 2 9 10 2 10 10
left_child=1 7 -3 11 18 8 15 -1 -5 -10 -9 23 -12 14 24 -7 -6 20 28 -13 21 -18 -14 25 -8 -4 -27 -20 -2 -22
right_child=4 2 3 5 16 6 13 10 9 -11 12 19 22 -15 -16 -17 17 -19 27 -21 29 -23 -24 -25 -26 26 -28 -29 -30 -31
leaf_value=0.11891307833937644 0.11456681560664239 0.10641389443017585 0.079127039046486325 0.065936804065286389 0.087743827965545085 0.051377658252048035 0.04846049894929317 0.11237157486734238 0.109372309773663 0.077372539269202623 0.10715080847418715 0.090163666045671442 0.090662921514835557 0.10480226122961869 0.053308113330677545 0.085197359657429819 0.040358381776432084 0.085625312579406046 0.005179017583979267 0.024182801482881888 0.021999827793799165 0.08786661052811455 0.054243580838080667 0.022529453162691615 0.09759324569583433 0.026811207261515136 0.0924988041796653 0.063066228986848036 0.07820493882636298 0.062827811944274767
leaf_weight=7068.7370582818985 764.69361741840839 6500.2551364898682 2772.7096983268857 1421.1258598566055 568.40718200802803 4218.2422342151403 389.31725346297026 7228.2436182051897 5467.517496317625 1985.5391180664301 5258.4146617352962 282.6742265149951 6352.8656162172556 2469.5918270349503 1833.1728522777557 1431.6121215596795 1514.4934871271253 546.80957837402821 275.59363398700953 1643.5189462825656 3552.5945502966642 669.87224914133549 802.05023828148842 444.59793443232775 2727.5339792594314 717.21930057555437 257.92819693684578 1982.0299580916762 2832.9553152322769 546.65737285465002
leaf_count=9304 2038 12434 11114 5246 2454 21029 1712 10606 15525 7395 10563 1200 16221 7868 8584 5516 9696 3246 1590 10745 26916 3438 3288 2299 8255 3845 998 9201 10201 3482
internal_value=0.0866311 0.0928892 0.0826286 0.0771191 0.0577002 0.0831577 0.0750061 0.106166 0.0952567 0.100847 0.101579 0.0552362 0.0952942 0.0864731 0.0773286 0.0599472 0.0444906 0.0408912 0.0743921 0.0338657 0.0369984 0.0546773 0.0865804 0.0651866 0.0914562 0.0702468 0.0437372 0.0557528 0.0856956 0.0273777
internal_weight=74527 61272.9 34562.6 28062.3 13254.1 21943.7 13069.5 26710.3 8874.18 7453.06 19641.6 6118.65 12413.3 7419.62 4950.02 5649.85 7398.83 6830.43 5855.27 1926.19 6283.62 2184.37 7154.92 4192.46 3116.85 3747.86 975.147 2257.62 3597.65 4099.25
internal_count=246009 173747 123765 111331 72262 81130 52964 49982 28166 22920 40678 30201 30072 26419 18551 26545 49232 46778 23030 11945 43532 13134 19509 18256 9967 15957 4843 10791 12239 30398
cat_boundaries=0 1 2 3 5 6 7 9
cat_threshold=2 2 2 3223340216 13149443 232214 1 285302968 44080666
is_linear=0
shrinkage=0.05


Tree=8
num_leaves=31
num_cat=5
split_feature=41 40 40 154 39 39 134 41 142 38 38 1 152 16 40 16 39 150 1 40 7 38 40 130 148 29 8 19 130 93
split_gain=4635.3 2074.6 1985.45 1011.78 803.729 782.046 678.066 636.58 635.192 590.015 541.713 537.91 478.715 468.08 447.182 436.469 428.395 354.92 328.551 310.168 309.116 305.538 303.487 291.604 281.087 279.389 277.443 277.061 273.074 272.823
threshold=0.43030774107075148 0.55058020528305118 0.63754049701692439 1.0000000180025095e-35 0.56574935227642265 0.48816450498155856 1069.5000000000002 0.19238191506527844 50404.500000000007 0 1 2 3.5000000000000004 -3054.4999999999995 0.70555918892824343 -1136.4999999999998 0.24992219375047617 18.80740740740741 3 0.13629055444578361 17075.250000000004 4 0.18300198749314553 19267.875000000004 -427.49999999999994 2.5000000000000004 675191.25000000012 16.500000000000004 19849.665000000005 -1877.4999999999998
decision_type=10 10 10 10 10 10 10 8 8 9 9 9 10 2 10 2 8 10 9 10 10 9 10 8 8 2 8 8 8 2
left_child=2 4 3 7 9 10 14 -1 -9 13 15 16 -5 -2 21 24 -10 -12 19 -11 -17 -4 -15 -14 -3 -16 -8 -13 -18 -24
right_child=1 5 6 12 -6 -7 26 8 11 18 17 27 23 22 25 20 28 -19 -20 -21 -22 -23 29 -25 -26 -27 -28 -29 -30 -31
leaf_value=0.10404853661385044 0.063402976827018578 0.057350076218991998 0.012411852279752215 0.10888166722134381 0.042916384632213866 0.024995126225869167 0.091079387171970907 0.10251656793538838 0.10321827593399541 0.089715575285977844 0.026837113888773093 0.074124643546332677 0.065600391963738888 0.10745372003061998 0.02843443446754175 0.046939638924878915 0.046667047237792088 0.06382411757887356 0.082822198063796246 0.04705563197688075 0.089458941121553559 0.070029523072839411 0.053046415498925026 0.095888543962641973 0.013535306071171344 0.10834823008038069 0.060130440512615513 0.095819397672537721 0.070768858156867717 0.088467732249138842
leaf_weight=4061.4529569894075 1975.8449354544282 3709.2548915371299 270.24265941232443 10352.791721500456 1787.0177450478077 2907.7710637450218 2665.2692247480154 3208.7736243978143 883.35944460332394 507.76659592986107 2286.5705746859312 2173.5621260181069 926.08153082430363 1999.4766625016928 1618.6766254529357 553.79030991345644 1423.7608183994889 905.41896121948957 1427.9245010763407 2648.709529645741 1873.7358626574278 2907.9393744543195 600.51119826734066 5600.3307580426335 406.12847734242678 117.29763438552618 994.2794483974576 4557.217557311058 6732.3826245442033 5737.6852052360773
leaf_count=5493 7355 19555 1347 16780 9137 21138 7850 6138 1502 1397 15390 5485 2431 3540 8418 2782 4796 4970 4783 12350 8041 11000 2244 10970 2625 434 3808 8821 18822 16607
internal_value=0.0787174 0.063026 0.0882072 0.0928959 0.0746019 0.0477488 0.0663765 0.0860827 0.0822381 0.0784026 0.0545453 0.078112 0.102196 0.0852016 0.0542423 0.0628485 0.0701437 0.037212 0.0627841 0.0539181 0.079759 0.0653897 0.0904696 0.0915907 0.0530262 0.0338341 0.0826707 0.0888135 0.0665616 0.0851117
internal_weight=77821 29327.6 48493.4 39919.7 16684.9 12642.7 8573.7 23040.5 18979.1 14897.9 9734.9 15770.3 16879.2 10313.5 4914.16 6542.91 9039.5 3191.99 4584.4 3156.48 2427.53 3178.18 8337.67 6526.41 4115.38 1735.97 3659.55 6730.78 8156.14 6338.2
internal_count=246009 131914 114095 81238 57413 74501 32857 51057 45564 48276 53363 39426 30181 29746 21199 33003 25120 20360 18530 13747 10823 12347 22391 13401 22180 8852 11658 14306 23618 18851
cat_boundaries=0 2 4 5 6 8
cat_threshold=1630561978 15207754 291097016 14191946 1 1 3444711945 68
is_linear=0
shrinkage=0.05


Tree=9
num_leaves=31
num_cat=6
split_feature=41 40 41 11 40 40 130 39 11 15 7 8 40 39 38 38 41 121 47 15 39 18 38 150 121 19 6 38 133 95
split_gain=4043.24 2731.13 1473.56 1138.39 877.301 633.638 589.247 556.031 559.098 496.744 451.138 482.072 447.186 446.258 433.028 414.268 411.034 341.178 327.053 326.189 311.806 303.612 289.156 282.603 272.546 269.925 250.395 250.292 249.294 249.207
threshold=0.60841648376416824 0.37382089036115501 0.3178136513186039 0 0.33167745404186355 0.7155472677529201 63163.80000000001 0.24992219375047617 1 -17466.499999999996 16499.250000000004 450117.00000000006 0.10653574344594266 0.39695195997671101 2 3 0.13053784794202253 -704.93749999999989 0.020800000000000003 -17982.499999999996 0.24992219375047617 -4219.4999999999991 4 17.606451612903232 -247.6333333333333 15.500000000000002 296392.50000000006 5 -404.18333333333328 1.0000000180025095e-35
decision_type=10 8 8 9 10 10 8 8 9 2 10 10 10 10 9 9 10 8 10 2 10 2 9 10 8 8 2 9 8 2
left_child=1 12 16 5 27 6 19 -6 9 -9 -8 26 -1 25 18 -14 -3 23 -5 -4 -21 -10 -13 -18 -7 -11 -12 -2 -17 -20
right_child=4 2 3 14 7 24 10 8 21 13 11 22 15 -15 -16 28 17 -19 29 20 -22 -23 -24 -25 -26 -27 -28 -29 -30 -31
leaf_value=0.10124045306434888 0.080342498735757675 0.098138103096472099 0.043074404061216987 0.060416587839872062 0.087144469141863218 0.051369992877394105 0.05988659081202722 0.030797760087603539 -0.011749491085205425 0.041806321240384275 0.074398822844051138 0.085740558684310436 0.090926237948042013 0.029273806482899636 0.024188246519873419 0.050476387437774412 0.059612788544499112 0.087631392533510544 -0.0024151232961325524 0.075974958136068832 0.048972229875483553 0.027692832722094624 0.061190186161376239 0.083992639221820514 0.0065450753905565724 0.076031993382008653 0.10271556490558079 0.052272096769642562 0.078595272072146713 0.045982874252398984
leaf_weight=6547.012773424387 2133.8509499207139 3344.3879386037588 2138.5456829816103 3545.4065280929208 602.45216602087021 1308.5829658508301 2807.0874447226524 3555.0151528567076 682.24268939346075 791.37997987866402 1044.5217119082808 2580.5721829161048 13757.453479588032 1095.1514217406511 1945.6943762525916 959.76647093892097 3144.1902404874563 4615.7804699838161 392.50984939187765 3083.7028153538704 1636.3938600495458 1712.81379840523 2922.2768871113658 1911.1595319211483 457.72710008174181 2117.4341921359301 3090.8067703321576 1581.6118981167674 4410.4364990144968 825.08405368030071
leaf_count=7807 5613 4890 9683 14620 2059 6746 9610 22210 5159 4045 3072 7424 22591 6661 10733 2931 8527 9037 2247 9252 6652 11155 10506 4103 2660 9253 7317 6107 9490 3849
internal_value=0.0720012 0.0771859 0.0691454 0.0626407 0.0478547 0.068386 0.0710413 0.0405002 0.0376772 0.0443419 0.0775263 0.0826638 0.0899614 0.0564782 0.044428 0.0861009 0.0830283 0.0778032 0.0526279 0.0592739 0.0666135 0.0163891 0.0729701 0.0688295 0.0397539 0.0667205 0.0955632 0.0687503 0.0734331 0.030381
internal_weight=80741.1 66469.1 40794.4 27778.9 14272 21070.2 19303.9 10556.5 9954.04 7558.98 12445.3 9638.18 25674.7 4003.97 6708.69 19127.7 13015.5 9671.13 4763 6858.64 4720.1 2395.06 5502.85 5055.35 1766.31 2908.81 4135.33 3715.46 5370.2 1217.59
internal_count=246009 173747 130928 104371 72262 72922 63516 60542 58483 42169 37929 28319 42819 19959 31449 35012 26557 21667 20716 25587 15904 16314 17930 12630 9406 13298 10389 11720 12421 6096
cat_boundaries=0 1 2 4 6 8 10
cat_threshold=24 24 1368482232 13147162 17922298 15238418 3250 15208912 3223388336 13141376
is_linear=0
shrinkage=0.05


Tree=10
num_leaves=31
num_cat=7
split_feature=40 41 41 1 154 39 40 40 15 135 19 39 121 39 150 38 39 38 6 8 11 41 38 93 41 38 38 120 148 134
split_gain=3643.23 2129.01 1328.17 938.186 729.161 690.813 638.286 625.567 583.593 531.536 508.141 417.315 401.734 364.42 360.607 343.148 340.517 325.858 325.005 328.069 303.464 292.637 280.375 279.589 277.315 262.147 261.922 259.297 250.948 247.939
threshold=0.61993768904902435 0.41272265809433367 0.43384745792380691 0 1.5000000000000002 0.63558665321543717 0.71917403523426282 0.27564280494115273 -17466.499999999996 3.5000000000000004 15.500000000000002 0.6545997555291142 -724.22499999999991 0.24992219375047617 24.348484848484851 1 0.19176405406249683 2 292531.50000000006 450117.00000000006 3 0.67778009598813893 4 -2020.4999999999998 0.73027703019461621 5 6 9.5000000000000018 -1217.4999999999998 -503.49999999999994
decision_type=10 10 8 9 10 10 10 8 2 8 8 10 10 8 10 9 8 9 2 8 9 8 9 2 10 9 9 10 10 10
left_child=1 4 11 10 7 8 9 -1 24 13 -3 17 16 -4 26 -15 -9 -2 -18 -20 -10 27 -13 -22 29 -21 -11 -17 -6 -5
right_child=2 3 6 5 28 -7 -8 12 20 14 -12 22 -14 15 -16 21 18 -19 19 25 23 -23 -24 -25 -26 -27 -28 -29 -30 -31
leaf_value=0.084941770881459266 0.075871139710523977 0.057223353140889777 0.080692672270869237 0.088035971164150809 0.083387795617067398 0.020657666370920789 0.017981682498581984 0.095054632084235952 0.043659700555128265 0.066724833583659202 0.081496187846860968 0.047216230951917952 0.079644365003719908 -0.0020259680841440047 0.10214314863128626 0.050964946856353027 0.048241301706621074 0.050384793912426819 0.079814673739297542 0.064765743508353665 0.034657175102062607 0.023125795127007538 -0.023195981097823545 0.072435909474586377 0.015482185859804407 0.03394727964021569 0.033903057415837524 -0.0046904666731244458 0.098983849844067121 0.043781237672092306
leaf_weight=10494.218206048012 4633.2548822239041 3397.3774296939373 422.99135515093803 346.71581330150366 5588.954173065722 1544.6075243726373 3072.2995089069009 839.69777728617191 1600.2673383057117 1645.2148654088378 5901.7679753154516 472.14604354649782 6596.6047620624304 644.66977417469025 453.33775420486927 2851.9609166905284 3096.1483687311411 1989.8287704735994 3185.2484629228711 4156.603478744626 533.91613013297319 2239.9678699597716 195.77105832844973 5918.9083169624209 806.3832889944315 925.39591334015131 1092.0656241700053 225.85037592053413 4789.6128119677305 3630.8770085275173
leaf_count=14610 11989 11339 1331 1245 9659 8812 20463 1292 6344 6253 15553 2083 12363 4329 1423 14658 8770 6599 6686 10632 2112 13576 1172 17239 4361 2976 5521 1437 6182 15000
internal_value=0.0662489 0.0721154 0.0476092 0.0602517 0.079197 0.0522491 0.0378117 0.0751622 0.0560503 0.0441737 0.0726283 0.064606 0.0697032 0.0358468 0.0608386 0.0326653 0.0643293 0.0684047 0.0620588 0.0672336 0.0642672 0.0368055 0.0269376 0.0692028 0.0422185 0.0593482 0.0539979 0.0468809 0.0905852 0.0476388
internal_weight=83292.7 63353.3 19939.4 23680.8 39672.5 14381.7 12648.4 29293.9 12837.1 9576.06 9299.15 7291 18799.7 6385.44 3190.62 5962.45 12203.1 6623.08 11363.4 8267.25 8053.09 5317.78 667.917 6452.82 4783.98 5082 2737.28 3077.81 10378.6 3977.59
internal_count=246009 155175 90834 82005 73170 55113 68991 57329 46301 48528 26892 21843 42719 35331 13197 34000 30356 18588 29064 20294 25695 29671 3255 19351 20606 13608 11774 16095 15841 16245
cat_boundaries=0 1 3 5 6 8 10 12
cat_threshold=2 2099302468 20213765 1343304867 13147150 2 1210056875 50366224 1076907190 44619080 423641518 27829504
is_linear=0
shrinkage=0.05


Tree=11
num_leaves=31
num_cat=5
split_feature=40 41 40 128 41 39 38 39 16 38 41 7 130 39 154 26 40 6 38 11 140 128 19 150 133 126 14 129 39 150
split_gain=3312.08 2207.04 1107.64 915.178 899.3 623.956 523.956 521.552 504.555 411.165 382.996 381.253 344.606 327.203 321.367 319.115 295.507 292.956 280.084 286.302 276.871 276.742 267.943 258.326 255.478 252.297 250.103 246.086 241.41 238.909
threshold=0.41434400404117216 0.41272265809433367 0.70112428968566809 47799.000000000007 0.62376832935934801 0.73569734588620417 0 0.4428357040395835 -2468.4999999999995 1 0.30850602613156303 16035.750000000002 28976.782500000005 0.24651928264814443 1.5000000000000002 2 0.14532375897661612 298620.00000000006 3 4 14232.870000000001 4861800.0000000009 8.5000000000000018 23.348484848484851 -318.0714285714285 140824.80000000002 0.034176500000000005 234145.39500000005 0.38846701540573964 21.607692307692314
decision_type=8 8 10 10 10 10 9 10 2 9 8 10 8 8 10 9 10 2 9 9 8 10 8 10 10 10 2 10 10 10
left_child=4 7 3 14 6 8 28 9 15 22 -8 -10 13 -13 20 29 -6 -12 19 26 -3 -14 -2 -22 -9 -18 -4 -20 -1 -5
right_child=1 2 18 5 16 -7 10 24 11 -11 17 12 21 -15 -16 -17 25 -19 27 -21 23 -23 -24 -25 -26 -27 -28 -29 -30 -31
leaf_value=0.083174336171009444 0.058356508707507762 0.069149800341082687 0.052489959866028085 0.0013615361678173982 0.075400872623247767 0.0045958883903422969 0.080600235069744175 0.026104574711595375 0.034167994813629469 0.057666642214704994 0.045634257664310215 0.088282127792523049 0.065320116393387792 0.040127413575330173 0.085354409284890104 0.039623246212720058 0.071066617962499024 0.067057029462249923 -0.0084211927722019544 0.009019158175299944 0.042424397002146834 0.0067052049526407816 0.080506243393960064 0.078782443634504207 0.057249979520369955 0.038742626187983055 0.012480278197411297 0.030675587884021291 0.067617230591038843 0.051049801756333238
leaf_weight=17223.937682315707 1629.3328803926706 3195.1754179596901 1557.4996630251408 1151.0316829755902 1081.0363895446062 1006.8240643888712 3407.3105419278145 853.50898362696171 2831.9626197442412 4407.7528983205557 2323.0426856651902 387.14638924598694 5410.1196628138423 3971.7087693586946 1346.96265424788 3692.9296973794699 766.28353926539421 5097.9367588609457 1062.5138938128948 968.39912640303373 2835.7094316035509 209.15690590441227 8427.2813097834587 590.23727288842201 2880.6518597155809 2844.7513077780604 521.34090033918619 647.90907431393862 2915.8163648545742 306.28977575153112
leaf_count=23511 3814 8989 7906 6876 2506 7079 4369 3269 12841 11093 6129 943 19762 17805 3114 16486 2113 11298 7711 6515 10016 1035 15374 1564 8526 10596 3063 4180 6145 1381
internal_value=0.0612297 0.0529124 0.0449435 0.0488719 0.0728664 0.0428983 0.0759571 0.0667903 0.0450455 0.0710911 0.0666611 0.0503593 0.0549546 0.0444044 0.0630915 0.0318286 0.0524675 0.0603509 0.0227026 0.0317554 0.0585625 0.0631384 0.0768412 0.0486883 0.0501311 0.045602 0.0422529 0.00635155 0.0808818 0.0117242
internal_weight=85551.6 49891.4 31692.9 26935.3 35660.1 18967.2 30968 18198.5 17960.3 14464.4 10828.3 12810.1 9978.13 4358.86 7968.08 5150.25 4692.07 7420.98 4757.66 3047.24 6621.12 5619.28 10056.6 3425.95 3734.16 3611.03 2078.84 1710.42 20139.8 1457.32
internal_count=246009 179342 137266 107891 66667 84208 51452 42076 77129 30281 21796 52386 39545 18748 23683 24743 15215 17427 29375 17484 20569 20797 19188 11580 11795 12709 10969 11891 29656 8257
cat_boundaries=0 2 4 5 7 8
cat_threshold=556884218 15246656 288379058 15242315 38121 2432387504 4754770 24
is_linear=0
shrinkage=0.05


Tree=12
num_leaves=31
num_cat=7
split_feature=40 41 11 1 41 15 39 19 39 41 15 19 150 0 6 7 40 56 16 38 38 123 19 121 38 133 119 6 38 122
split_gain=2986.66 2039.52 1011.53 823.631 802.547 725.668 604.502 505.341 501.75 496.666 484.599 476.228 465.099 414.936 348.714 337.199 330.265 319.622 305.024 295.124 275.429 274.115 273.372 256.361 249.377 235.645 231.352 230.115 225.914 223.262
threshold=0.39435170104491357 0.40227454521685124 0 1 0.34496990492100627 -16307.499999999998 0.40786365931274121 18.500000000000004 0.45596275436860362 0.13053784794202253 -19384.499999999996 7.5000000000000009 23.348484848484851 2 540180.00000000012 14046.750000000002 0.16937225018891797 0.031000000000000003 -2022.4999999999998 3 4 -162.49999999999997 11.500000000000002 -663.69047619047603 5 245.04166666666671 1.0000000180025095e-35 157707.00000000003 6 -2547.4999999999995
decision_type=8 8 9 9 8 2 10 8 10 10 2 8 10 1 2 10 10 10 2 9 9 8 8 8 9 8 10 2 9 10
left_child=4 9 13 5 -1 12 10 15 22 -2 -6 -11 14 18 23 -5 -12 25 28 27 -20 26 -7 -4 -19 -13 -17 -8 -3 -22
right_child=1 2 3 7 6 8 19 -9 -10 11 16 17 -14 -15 -16 21 -18 24 20 -21 29 -23 -24 -25 -26 -27 -28 -29 -30 -31
leaf_value=0.079476313195515402 0.07972637658426264 0.024056355671775404 0.00079487765637088726 0.0066022897588647713 0.051270490918297287 0.026311042834710294 -0.012744119973240054 0.066318070672411397 0.026907935532646594 0.036725236256708704 0.079597175320859651 0.059673281580481907 0.051072568059994043 -0.008486245370133854 0.034631500461815096 0.0097798461085169368 0.064719083031974808 0.059758587563099257 0.016854359808989326 0.015820007781022022 0.061887939724584562 0.065438408750967722 0.060453977222022386 0.029766443121534265 0.034578964741124159 0.076675317170890017 0.047014625055583514 0.055294329860450686 -0.012038776556952221 0.033831266326820514
leaf_weight=10959.292357504368 3463.8819929361343 1692.547367028892 2092.2816961482167 520.56126123666763 4209.4208383411169 654.93635767698288 131.04098430275917 6351.0251017063856 1799.3321902453899 2113.382142342627 6004.8891972452402 3962.5693349465728 1868.6356857717037 807.08761464059353 3151.9315019473433 536.34497974067926 9845.8309663683176 3575.502171702683 1167.7406063824892 785.61607401072979 1276.320636048913 1598.0029358789325 5591.149817712605 1202.3654667437077 1514.6754304692149 4195.9654461294413 1877.50482827425 2406.1279259622097 577.69324558228254 1595.3661806359887
leaf_count=12692 4743 9425 12541 2363 11404 2680 546 18810 8850 6203 7893 9372 7558 4971 15504 2553 19576 8347 6796 2892 4946 4601 17468 5222 4711 7989 7397 6748 3764 7444
internal_value=0.0568175 0.0493958 0.0421485 0.0465403 0.0683116 0.0394668 0.0630788 0.0572164 0.0501721 0.0626236 0.0663507 0.0587672 0.0291087 0.0252352 0.0227422 0.0444627 0.0703555 0.0622832 0.0295886 0.0433257 0.0378302 0.0493753 0.0568739 0.0113679 0.0524513 0.0684175 0.0387412 0.051577 0.0149244 0.0461404
internal_weight=87529 53186.8 34360.8 27244.1 34342.2 16360.6 23382.9 10883.4 8045.42 18826 20060.1 15362.1 8315.21 7116.76 6446.58 4532.41 15850.7 13248.7 6309.67 3322.78 4039.43 4011.85 6246.09 3294.65 5090.18 8158.53 2413.85 2537.17 2270.24 2871.69
internal_count=246009 184258 142893 105547 61751 69823 49059 35724 28998 41365 38873 36622 40825 37346 33267 16914 27469 30419 32375 10186 19186 14551 20148 17763 13058 17361 9950 7294 13189 12390
cat_boundaries=0 1 2 3 5 7 9 11
cat_threshold=2 1 1 2166382762 48768342 2491102980 53760129 286353595 13141317 808021412 17079986
is_linear=0
shrinkage=0.05


Tree=13
num_leaves=31
num_cat=9
split_feature=40 41 41 41 40 26 121 39 39 152 40 6 95 126 16 150 14 38 38 38 151 154 139 16 26 38 38 0 8 38
split_gain=2766.7 1362.21 1277.9 828.699 646.064 625.61 537.262 415.31 415.135 366.954 355.527 391.921 341.624 330.364 321.577 303.953 298.061 299.691 274.058 268.472 263.948 261.102 307.809 253.544 234.706 238.849 219.972 219.729 221.008 218.448
threshold=0.55058020528305118 0.6220741691655115 0.43030774107075148 0.23208206388391875 0.71917403523426282 0 -724.22499999999991 0.64079234878342473 0.40236543764871952 3.5000000000000004 0.10653574344594266 247518.00000000003 1.0000000180025095e-35 135002.65500000003 -1343.4999999999998 21.514705882352946 0.059364000000000007 1 2 3 166.50000000000003 1.0000000180025095e-35 6745.0725000000011 -1966.4999999999998 4 5 6 7 675191.25000000012 8
decision_type=10 10 8 8 10 9 8 10 8 8 8 2 2 10 2 10 2 9 9 9 10 10 8 2 9 9 9 1 10 9
left_child=1 3 7 -1 6 9 8 16 -4 23 -7 -12 18 -3 -14 -11 17 27 20 -15 -10 22 -13 -5 -8 -26 -24 28 -2 -16
right_child=2 13 4 5 -6 10 24 -9 12 15 11 21 14 19 29 -17 -18 -19 -20 -21 -22 -23 26 -25 25 -27 -28 -29 -30 -31
leaf_value=0.075821955843804065 0.07071475958528059 0.061562326550543195 0.053497327141935551 0.058142190026759799 0.013646853012631478 0.070515133454755921 0.060119253484626982 0.025421810281948426 0.012240610477997172 0.049457362663199465 0.032657182768936747 0.065830588891170397 0.022142698731416163 0.045886604009922394 0.056036493938727339 0.078905495483332769 0.0084560435438412445 0.044614236872591286 -0.025764862490734775 0.025001660478050382 0.079357338463740851 0.062871175191191495 0.046947966707272276 0.073697755701095755 0.00066932182520922534 0.044212993953426517 0.021559629950897777 0.035525157788751559 0.050571493402403779 0.027122188923850377
leaf_weight=9955.2869987040758 5742.7601342201233 1511.2726268991828 1656.2715769708157 3442.3400594219565 3259.6300643980503 2359.2118098884821 2717.9331105053425 1147.248381242156 1694.1432623416185 4643.9633016437292 2771.09194265306 1802.6214810758829 3620.6263833791018 3183.8265491351485 1704.5608245283365 1080.0445553511381 308.49545179307461 3189.3596427515149 435.42308832705021 3182.3948905691504 160.3513008505106 4611.2946968898177 4674.4372340589762 10958.954640462995 349.96388500928879 4375.2606908455491 1116.5790205970407 644.75116018950939 1784.9759626090527 1173.9401606693864
leaf_count=11189 11106 4203 5606 6953 20569 3246 7703 4685 9843 9954 7986 3967 19030 10056 6932 1717 1104 8759 2967 13555 627 10104 12433 16749 1704 16950 3534 1761 4573 6444
internal_value=0.0529015 0.0598008 0.0416699 0.0629996 0.0341195 0.059592 0.03785 0.0541274 0.0305354 0.0656904 0.0524441 0.0496323 0.0262083 0.0405467 0.0320596 0.0550138 0.0569493 0.0582659 0.00960128 0.0355578 0.0179472 0.0534865 0.0477875 0.0699795 0.048115 0.0409962 0.0421711 0.0634614 0.0659384 0.0445333
internal_weight=89259 55293.3 33965.7 47415.8 21148.1 37460.5 17888.5 12817.6 10445.3 20125.3 17335.2 14976 8789.05 7877.49 6499.13 5724.01 11670.3 11361.8 2289.92 6366.22 1854.49 12204.9 7593.64 14401.3 7443.16 4725.22 5791.02 8172.49 7527.74 2878.5
internal_count=246009 115646 130363 87832 98375 76643 77806 31988 51449 35373 41270 38024 45843 27814 32406 11671 27303 26199 13437 23611 10470 30038 19934 23702 26357 18654 15967 17440 15679 13376
cat_boundaries=0 1 3 5 7 8 10 12 13 15
cat_threshold=221974 269564075 15242254 671338678 63475288 1613759656 14714112 201620 2302820352 17056258 823217842 42505936 1 17909949 31458758
is_linear=0
shrinkage=0.05


Tree=14
num_leaves=31
num_cat=8
split_feature=40 41 11 15 39 41 11 16 1 38 39 154 38 40 130 38 40 19 40 152 39 144 39 38 150 87 154 150 150 7
split_gain=2592.56 1744.56 912.914 819.954 679.622 654.468 467.362 423 415.99 340.324 331.134 319.332 318.304 310.723 308.893 295.442 283.092 272.575 269.015 256.23 251.7 243.911 240.679 237.796 233.276 220.918 220.072 218.501 217.559 216.827
threshold=0.35694811406790966 0.41272265809433367 0 -17785.499999999996 0.41330251922577094 0.37486590641619366 1 -1484.4999999999998 2 3 0.70193403137120647 1.5000000000000002 4 0.14532375897661612 115320.91125000002 5 0.68328387434367877 11.500000000000002 0.077656211176704668 2.5000000000000004 0.54426100915824371 47276.55000000001 0.6545997555291142 6 17.348484848484851 7 1.0000000180025095e-35 14.408333333333335 15.316666666666668 12327.750000000002
decision_type=8 8 9 2 10 10 9 2 9 9 8 10 9 10 10 9 10 8 10 8 10 8 10 9 10 9 10 8 10 10
left_child=5 6 3 8 7 18 14 11 9 -3 -11 17 16 -7 22 -8 21 23 -1 29 25 -4 -2 -5 -6 -15 -20 -21 -18 -9
right_child=1 2 12 4 24 13 15 19 -10 10 -12 -13 -14 20 -16 -17 28 -19 26 27 -22 -23 -24 -25 -26 -27 -28 -29 -30 -31
leaf_value=0.07834980936479119 0.05531372882079813 -0.027726478108463494 0.067610505408028473 0.045919205653416659 0.020451181543257549 0.064076152187559382 0.016719046345765473 0.039828785137014683 0.044611654145155832 0.054104420365214081 0.021122333916569612 0.06605960766696066 0.010980426474234632 0.031052372501159383 0.067727953664840704 0.047274837429953469 -0.00536915554706588 0.042936386150646766 0.058596260435446502 0.038023043112219483 0.021512054768296276 0.031870570030781739 0.019652844577125739 -0.0044841328006220522 0.048502441672024034 0.053768838082076414 0.070875167263657543 0.063169799248991021 0.042067819305436571 0.071683768320280117
leaf_weight=4012.7184528261423 8964.5383245199919 310.49638292193413 554.1107799783349 359.0875166207552 2681.0330418720841 3771.110211789608 981.98128289729357 615.62663758546114 3242.7818987965584 873.16658692061901 5924.2868295758963 1205.2682025060058 3593.5827427357435 1416.6650801002979 6289.0440815091133 5053.8725399523973 812.83060625195503 4423.0961219593883 8658.6525427401066 1887.0943944826722 878.53244794905186 3447.3542194887996 499.50918147712946 640.84896758943796 1024.3104178532958 6369.29438765347 6307.2121309936047 1593.0788440257311 343.99339316785336 4038.5180256515741
leaf_count=3727 17765 1811 1748 1275 12430 6475 3060 1760 11433 3571 28823 3231 19850 3939 11065 12088 5301 14723 13281 5694 3312 13713 1792 2915 3912 14665 7684 4129 1845 8992
internal_value=0.0493962 0.0432491 0.0367213 0.0410228 0.047351 0.0610116 0.0545048 0.0521564 0.0297715 0.0230011 0.0253218 0.0427803 0.0224848 0.0520961 0.0591015 0.0423396 0.0304626 0.0376065 0.0668535 0.0597965 0.0468819 0.0368197 0.0534316 0.0140306 0.0282057 0.0497445 0.0637711 0.0495342 0.00873671 0.0674702
internal_weight=90773.7 59359.5 37570.6 28818.7 18468 31414.2 21788.9 14762.6 10350.7 7107.95 6797.45 6628.3 8751.87 12435.6 15753.1 6035.85 5158.29 5423.03 18978.6 8134.32 8664.49 4001.46 9464.05 999.936 3705.34 7785.96 14965.9 3480.17 1156.82 4654.14
internal_count=246009 192926 147156 104699 59061 53083 45770 42719 45638 34205 32394 22144 42457 28391 30622 15148 22607 18913 24692 20575 21916 15461 19557 4190 16342 18604 20965 9823 7146 10752
cat_boundaries=0 1 2 3 5 7 9 11 12
cat_threshold=24 24 1 291516934 54016 1636385208 13745968 2756396820 20212352 543188368 15205190 25
is_linear=0
shrinkage=0.05


Tree=15
num_leaves=31
num_cat=8
split_feature=40 41 39 41 41 0 8 7 38 147 38 41 16 6 70 40 38 38 121 6 38 133 38 146 140 39 128 134 38 39
split_gain=2376.6 1587.31 904.3 738.112 632.682 551.437 509.769 781.454 471.8 461.953 385.938 358.343 353.579 309.641 297.064 296.012 292.959 260.111 248.846 230.23 229.067 223.735 221.178 218.53 226.105 213.019 211.837 210.729 328.849 199.047
threshold=0.35694811406790966 0.34496990492100627 0.63558665321543717 0.67778009598813893 0.29035430932983458 0 675191.25000000012 26214.750000000004 1 -758.95454545454538 2 0.13053784794202253 -2435.4999999999995 823950.00000000012 0.061650000000000003 0.66040490271725927 3 4 -926.81666666666649 225085.50000000003 5 -256.95454545454544 6 2617035.7500000005 48337.245000000003 0.67691513737626552 3554169.7500000005 1373.5000000000002 7 0.54426100915824371
decision_type=8 8 10 10 8 1 10 10 9 10 9 10 2 2 10 10 9 9 8 2 9 8 9 10 8 10 10 8 9 10
left_child=4 11 3 5 -1 6 7 9 12 22 -4 -2 29 20 -7 21 -9 -5 19 -10 -8 -13 -3 24 -12 -14 -24 28 -15 -6
right_child=1 2 10 17 8 14 13 16 18 -11 23 15 25 27 -16 -17 -18 -19 -20 -21 -22 -23 26 -25 -26 -27 -28 -29 -30 -31
leaf_value=0.069496785228519736 0.066708721232512799 0.047280702953466758 -0.025263013801891374 0.0072109903939358219 0.047881028540572503 0.031197243593032165 0.017011910991632042 0.034927975673104066 -0.0034098372801036054 0.048506868619789978 0.019730106937898922 0.039426056870934804 0.062591972244355309 0.031685003162658529 -0.0034034956814633318 0.034971050535665828 0.062655626338004797 0.029064267829067104 0.049758476217369917 0.036564920726346616 -0.043493670624462022 0.057099590544229695 0.026900665391416625 0.050843393357875681 -0.019687598468625857 0.016599170986010516 -0.044760226766047406 0.043266958489780891 -0.017827966800713253 0.0076799183627988465
leaf_weight=7963.8936512172222 3847.239997908473 1527.3430025652051 549.58263197541237 2046.0739328712225 3368.1863657683134 1803.8679173514247 736.54129099100828 1212.339600853622 424.93408358097076 6901.8462894931436 2892.3166543394327 2290.7006610631943 12872.308260187507 2615.6180899739265 945.45330233871937 2810.411014162004 7055.6667329967022 4203.5082253962755 4180.3693595379591 2363.9912472963333 188.05944447219372 8204.3169361948967 5421.8281848952174 480.91331952065229 416.14942905306816 256.77740524709225 105.12778261303902 3701.1066121384501 381.35771635919809 338.88648112118244
leaf_count=8136 5025 4611 3633 12043 6597 6234 2812 4402 1620 20057 16118 5092 19390 9841 4195 7691 17885 19046 8590 6713 988 14279 19586 2150 2732 836 565 12045 1896 1201
internal_value=0.0462289 0.040401 0.03529 0.0377081 0.0572975 0.040726 0.0426998 0.0465267 0.0532163 0.0393102 0.0136409 0.0532689 0.0578079 0.0315423 0.0192985 0.0493828 0.0587079 0.0219677 0.0419812 0.0304742 0.00441895 0.0532421 0.0303123 0.0192989 0.014772 0.0616924 0.0254915 0.0352864 0.0254308 0.044206
internal_weight=92106.7 60337.4 43184.7 38845.7 31769.3 32596.2 29846.8 22224.2 23805.5 13956.1 4338.96 17152.7 16836.2 7622.68 2749.32 13305.4 8268.01 6249.58 6969.29 2788.93 924.601 10495 7054.3 3789.38 3308.47 13129.1 5526.96 6698.08 2996.98 3707.07
internal_count=246009 192926 160839 136206 53083 105117 94688 67106 44947 44819 24633 32087 28024 27582 10429 27062 22287 31089 16923 8333 3800 19371 24762 21000 18850 20226 20151 23782 11737 7798
cat_boundaries=0 1 3 5 7 9 11 13 15
cat_threshold=1 556885242 15246802 1697841744 22833153 2218988357 35678280 3024826628 33837582 1208025272 39867994 2164326800 13117450 1415131824 46929094
is_linear=0
shrinkage=0.05


Tree=16
num_leaves=31
num_cat=7
split_feature=40 41 121 154 6 8 39 6 40 16 11 95 39 41 16 134 38 38 44 11 41 152 154 26 139 139 1 38 80 7
split_gain=2244.6 1432.93 1008.91 754.843 601.996 661.375 482.542 401.749 372.058 351.405 338.609 329.572 326.998 321.285 305.23 299.435 287.321 279.765 257.962 235.831 232.029 224.459 261.198 215.938 197.667 195.901 202.425 220.955 195.413 194.939
threshold=0.61848882125824722 0.35481316242154587 -663.69047619047603 1.0000000180025095e-35 273672.00000000006 450117.00000000006 0.41058623956568857 405265.50000000006 0.17458000079909902 -2022.4999999999998 0 1.0000000180025095e-35 0.81261629124186474 0.15240038910234457 -4553.4999999999991 835.50000000000011 1 2 0.98585000000000012 3 0.70545576647499264 3.5000000000000004 1.0000000180025095e-35 4 36346.118035714295 6683.0681250000007 5 6 0.046400000000000004 23951.250000000004
decision_type=10 8 8 10 2 8 8 2 8 2 9 2 10 10 2 8 9 9 10 9 8 10 10 9 8 10 9 9 10 10
left_child=1 13 4 6 16 7 -2 -6 -4 18 -10 -11 15 -1 -7 17 -3 -5 -8 -15 29 22 25 -13 -22 -12 27 -27 -17 -16
right_child=3 2 8 12 5 14 9 -9 10 11 21 23 -14 19 20 28 -18 -19 -20 -21 24 -23 -24 -25 -26 26 -28 -29 -30 -31
leaf_value=0.067586214991737503 0.042598466635924481 0.0060726878224497578 0.06299712396125709 0.039057378261340953 0.03968590231383444 0.011857235366006559 0.012731658973318093 0.06278233721419578 0.029798827241666756 0.010221406846406321 0.059188395573711056 0.04383860344915684 -0.021828366813567243 0.05784385679640585 0.023102933283332475 0.05456077901857001 0.029730919747655644 0.0015267370361460976 -0.020015724639480346 0.042548122886944012 0.027876231276146086 0.038819312707082033 0.065807789692958751 0.022759218879585864 -0.021397206868831189 -0.0030999467355354035 0.053666061057308347 0.039404656183001069 0.033409997085106141 0.044276373616093843
leaf_weight=6557.131031692028 2546.7534864768386 1897.3103751912713 4826.1243695020676 1757.4790491983294 3530.8397217392921 1475.8955815657973 3647.7762187719345 4033.8228309825063 2494.3815058395267 2482.3627616986632 3021.0820031389594 2301.4535650908947 198.35487842559814 12074.71103978157 1309.269860163331 4386.7034232467413 4082.9495356157422 702.87660839408636 720.08284337073565 3588.2691844701767 2740.5127742663026 3362.2508873566985 3141.5104240849614 2770.3913071453571 219.86938199400902 352.819450058043 2558.5747739002109 2619.5146938413382 1454.0147057175636 6405.217261441052
leaf_count=6821 7616 8160 6067 6117 10129 5872 18082 8927 7475 12511 5959 7854 1244 17399 4303 12495 12111 3547 4264 6687 9311 8117 5289 13180 975 1171 4794 6591 4886 18055
internal_value=0.0433595 0.0477936 0.0429401 0.0297895 0.0361806 0.0403956 0.0228423 0.052002 0.0507023 0.018622 0.0473213 0.0251494 0.041616 0.0582939 0.0331698 0.043132 0.0222849 0.0285005 0.00733294 0.0544038 0.0361164 0.0501713 0.0534782 0.0324557 0.0242167 0.0489491 0.0433562 0.0344815 0.0492954 0.0406829
internal_weight=93260.3 70292.1 48071.9 22968.2 25695.7 19715.4 14468.8 7564.66 22376.3 11922.1 17550.1 7554.21 8499.43 22220.1 12150.8 8301.07 5980.26 2460.36 4367.86 15663 10674.9 15055.8 11693.5 5071.84 2960.38 8551.99 5530.91 2972.33 5840.72 7714.49
internal_count=246009 154213 123306 91796 77843 57572 63507 19056 45463 55891 39396 33545 28289 30907 38516 27045 20271 9664 22346 24086 32644 31921 23804 21034 10286 18515 12556 7762 17381 22358
cat_boundaries=0 1 3 5 6 7 8 10
cat_threshold=2 2487949828 52710144 269707952 25713738 24 86934 1 2483052556 4196942
is_linear=0
shrinkage=0.05


Tree=17
num_leaves=31
num_cat=7
split_feature=40 41 11 121 15 41 39 148 38 38 0 150 41 16 18 7 39 40 150 16 39 121 39 38 38 41 150 143 150 38
split_gain=2130.37 1428.08 892.023 705.909 535.073 525.189 457.865 406.773 351.994 348.639 320.947 320.194 283.102 273.322 266.709 264.586 258.897 257.323 254.366 252.326 249.538 246.697 235.439 223.983 219.575 218.776 216.769 210.366 202.094 197.976
threshold=0.33605685147475811 0.32726918529310883 0 -1009.4642857142857 -15596.499999999998 0.29035430932983458 0.42147921693290735 -1052.4999999999998 1 2 3 25.519230769230774 0.13053784794202253 -2050.4999999999995 -4240.4999999999991 16499.250000000004 0.68254371739238506 0.6718428108716985 22.806250000000002 -3211.4999999999995 0.26298309378222479 -599.63333333333321 0.24651928264814443 4 5 0.79638790735610632 17.861904761904764 170956.12500000003 17.258333333333336 6
decision_type=8 8 9 8 2 8 10 10 9 9 1 10 10 2 2 10 10 10 10 2 8 10 10 9 9 8 10 8 10 9
left_child=5 10 3 4 18 -1 9 11 17 19 12 15 -2 24 23 -5 27 -4 -3 -7 -14 26 25 -9 -6 -15 -22 -17 -8 -29
right_child=1 2 8 7 13 6 28 14 -10 -11 -12 -13 20 22 -16 16 -18 -19 -20 -21 21 -23 -24 -25 -26 -27 -28 29 -30 -31
leaf_value=0.063288555572075203 0.061957153336445928 0.013671766377706014 0.033157786793342046 0.017243880755110335 0.033595501139539782 0.038142287080333639 0.019956896412768321 0.046315929804229959 0.0092443253801261678 0.038319798561623875 0.024206142474467673 0.057859885463838759 0.064205115598467241 0.062005519232926298 0.05229767544394566 0.052434064573798338 -0.002539538663216016 0.008937923991983605 0.034590183280012121 0.05707901937073652 0.029961663646158782 0.053364462768566191 0.029780253420892158 0.0095814908178493332 0.00055077174999062096 0.021948852047858954 0.049072560798670013 0.056948067306450294 0.048012019721901243 0.029487747348525231
leaf_weight=7430.3041622638702 3805.8919961601496 6559.2125542536378 4432.4417055174708 2437.9012151435018 1883.9716091006994 2036.5423216819763 1917.535205617547 968.74467988312244 5233.3009409382939 4630.1892658919096 1295.9153527021408 1314.4408659934998 1664.6488502174616 2030.52558401227 7901.0209816545248 1919.2139726653695 413.214504532516 1457.2065456733108 1866.8780848532915 12912.77656210959 3898.2180655300617 3803.8043129742146 1438.8341597393155 752.70441245287657 695.27500361949205 409.63726899027824 2395.6738843768835 783.82889819145203 964.90724059939384 5026.3410696238279
leaf_count=7472 4703 30272 14795 8667 6651 4149 5539 2513 26086 10540 2928 3243 2154 4958 18977 5007 2215 7915 6937 18362 9104 6318 5019 2957 3147 1203 4430 1812 2208 15728
internal_value=0.0407346 0.0356135 0.0311778 0.0349681 0.026606 0.0517655 0.0479537 0.0407687 0.0187251 0.0506927 0.0481137 0.0345855 0.0501038 0.0374345 0.0484121 0.0316941 0.0360205 0.0271193 0.0183064 0.0544628 0.0462685 0.0433116 0.0458221 0.0305785 0.0248202 0.0552811 0.0372359 0.0380819 0.0293484 0.0333411
internal_weight=94281.1 64388.8 47524.7 36401.7 14884.3 29892.3 22462 21517.4 11122.9 19579.5 16864.2 11894.9 15568.2 6458.24 9622.47 10580.5 8142.6 5889.65 8426.09 14949.3 11762.3 10097.7 3879 1721.45 2579.25 2440.16 6293.89 7729.38 2882.44 5810.17
internal_count=246009 197739 168102 119306 58187 48270 40798 61119 48796 33051 29637 36672 26709 20978 24447 33429 24762 22710 37209 22511 22006 19852 11180 5470 9798 6161 13534 22547 7747 17540
cat_boundaries=0 1 3 5 6 8 10 12
cat_threshold=24 562119080 13745464 1613851898 32015810 1 3355457696 17316874 202615978 15471618 152174721 4985156
is_linear=0
shrinkage=0.05


Tree=18
num_leaves=31
num_cat=8
split_feature=40 41 41 11 1 19 148 40 38 150 39 154 6 150 39 15 6 139 38 38 39 38 39 77 18 41 0 39 154 38
split_gain=1998.43 1536.02 756.258 580.271 473.79 477.588 411.817 370.643 346.709 319.854 324.003 312.984 311.755 304.479 357.079 268.997 276.792 265.958 257.619 234.534 225.658 222.235 211.564 209.58 208.029 206.942 205.391 204.867 204.368 196.373
threshold=0.26205745036427591 0.50197671872363325 0.22195798551490056 0 1 15.500000000000002 -1187.4999999999998 0.067665994433858415 2 14.618037135278517 0.6033062741930747 1.0000000180025095e-35 263765.25000000006 23.154761904761909 0.64638041983324446 -14552.499999999998 310585.50000000006 8410.0650000000005 3 4 0.2755573165604715 5 0.80900958138886903 0.34375000000000006 -4230.4999999999991 0.64715337901823411 6 0.3382847277478872 2.5000000000000004 7
decision_type=8 10 8 9 9 8 10 10 9 10 8 10 2 10 10 2 2 8 9 9 8 9 10 10 2 10 1 10 10 9
left_child=7 2 26 6 9 19 13 -1 -9 12 -11 24 -3 14 15 16 -4 -14 20 -6 -5 -12 -23 29 -8 -10 -2 -17 -20 -7
right_child=1 4 3 18 5 23 11 8 25 10 21 -13 17 -15 -16 27 -18 -19 28 -21 -22 22 -24 -25 -26 -27 -28 -29 -30 -31
leaf_value=0.063149117999984988 0.05300999802404114 -0.0060674388153493406 0.0085663729479853665 0.052088849335043069 0.026738114142258948 0.072648197896643146 0.02475485831270452 0.034285637306349405 0.054176562712651359 0.048656129371094127 -0.037987702895783564 0.056198983154744732 0.03064461873394396 0.049073188192584188 -1.2148666409408013e-05 0.045727078611105615 0.032075321045038095 0.0099389594250613236 0.0012376943614140414 -0.0019327025697154839 0.02591116866102804 0.025319531743284954 -0.029053445959022445 -0.0037267866968846383 0.043984833445044773 0.033384370544447949 0.025783272175847645 0.022594287468394016 0.04842020967466034 0.040752628849624155
leaf_weight=5292.1678206473589 9929.739909991622 1850.8629026338458 1662.0877506136894 943.38724873960018 2540.1714254841208 581.85491979122162 1726.0066974014044 3790.1717389374971 11370.148152798414 1362.3926499858499 148.43333968520164 4744.8724842816591 2362.0754806622863 2795.0334999784827 871.61874964088202 4626.8681253939867 5075.4700931459665 4515.8258058801293 1564.1458565667272 996.70315837860107 6464.2061891406775 3960.0778794884682 187.36671816557646 233.80859746783972 7594.9359234124422 1337.4752116203308 744.61864878237247 1206.7121601551771 268.96986693143845 4392.3706090822816
leaf_count=5848 13901 9754 5349 1858 9753 1547 4835 8215 15069 4502 889 8409 9794 5947 3823 9053 13497 22403 6221 4994 20631 17466 1361 1092 16549 3158 1463 3447 716 14465
internal_value=0.0383399 0.0343902 0.0393009 0.036113 0.0237294 0.0329077 0.0394697 0.0516354 0.047942 0.0181505 0.0274101 0.0457454 0.0121481 0.0340578 0.0309358 0.0330816 0.0262759 0.0170499 0.0250353 0.0187287 0.0292056 0.0206722 0.0228082 0.042537 0.0404239 0.0519473 0.0511107 0.0409419 0.00811643 0.0447116
internal_weight=95140.6 73350.6 50218.7 39544.3 23131.9 8744.91 30303.6 21790 16497.8 14387 5658.27 14065.8 8728.76 16237.8 13442.8 12571.1 6737.56 6877.9 9240.71 3536.87 7407.59 4295.88 4147.44 5208.03 9320.94 12707.6 10674.4 5833.58 1833.12 4974.23
internal_count=246009 213719 115699 100335 98020 31851 70909 32290 26442 66169 24218 29793 41951 41116 35169 31346 18846 32197 29426 14747 22489 19716 18827 17104 21384 18227 15364 12500 6937 16012
cat_boundaries=0 1 2 4 6 8 10 11 13
cat_threshold=24 1 2819297541 52710061 413165992 48799007 274787762 14159312 2686984258 8419348 1 2703753345 23068760
is_linear=0
shrinkage=0.05


Tree=19
num_leaves=31
num_cat=8
split_feature=40 41 41 40 16 1 40 140 150 16 39 39 19 15 38 39 92 135 38 26 8 134 128 0 38 39 38 38 41 41
split_gain=1896.79 1014.52 751.331 667.392 561.489 512.785 452.028 410.68 441.71 359.672 311.071 304.321 296.269 296.252 252.222 247.949 263.814 243.627 246.282 238.228 237.445 219.292 208.647 205.848 198.968 177.402 175.958 174.113 174.069 173.512
threshold=0.55058020528305118 0.31314102321966769 0.43030774107075148 0.13629055444578361 -4553.4999999999991 0 0.70112428968566809 7189.7850000000008 16.976190476190478 -2468.4999999999995 0.44549594680330201 0.2661010844507205 19.500000000000004 -19503.499999999996 1 0.24651928264814443 1.0000000180025095e-35 1.5000000000000002 2 3 675191.25000000012 811.50000000000011 261801.72000000003 4 5 0.19176405406249683 6 7 0.14509547980217227 0.55227298028689586
decision_type=10 8 8 8 2 9 10 8 10 2 10 8 8 2 9 8 10 8 9 9 8 8 10 1 9 10 9 9 10 10
left_child=1 28 10 -3 -5 7 9 -6 11 19 13 -9 -7 -2 -13 -11 17 18 22 -4 23 27 -17 -15 -8 -14 -10 -19 -1 -28
right_child=2 3 6 4 5 12 24 8 26 15 -12 14 25 20 -16 16 -18 21 -20 -21 -22 -23 -24 -25 -26 -27 29 -29 -30 -31
leaf_value=0.060297428833557709 0.022318372643601092 0.051830581430427083 -0.0010509093748629907 0.013345656951995653 0.048292662114630111 0.034992076883659504 -0.015479498819951766 0.048821543123035056 0.047281247781911229 0.052312878912011966 0.022428597284884676 0.0068680985826580151 0.053996786277647216 0.051207973333127536 0.024817203855068071 0.064287734669229643 0.050757481664889775 0.028631137041675216 0.010824452842613668 0.022012771234712653 0.028437037563098479 0.03530169537258275 0.0088220096017793577 0.022358184714056976 0.012760809301313068 0.036625386231612371 0.037870228031310856 -0.014562558354921446 0.049006103625371333 0.0099656372065464582
leaf_weight=5052.366502776742 1860.2269933074713 7065.7371965199709 1709.6199518889189 2758.1490022167563 3107.737063601613 5315.4554804265499 715.40121398121119 982.79326525330544 3271.26000315696 1129.6319940090179 3061.2941480278969 2791.5265997797251 6507.7399534583092 6412.8862199932337 6753.8957092314959 449.13715678453445 1133.3383017703891 499.74170650541782 3625.9444662854075 3261.1144655421376 1878.9115971624851 5551.493814393878 272.37590932846069 684.27754519879818 4542.3410767242312 1898.4420255422592 1855.5731465667486 423.10437003523111 10521.22489669919 796.07933750748634
leaf_count=4949 4923 9800 9021 8963 6733 12056 4533 1709 6641 2420 9512 10251 10785 11290 17902 1394 3640 1867 16333 12933 4549 18572 1194 1714 24141 4214 4220 2327 14122 3301
internal_value=0.0361314 0.0417315 0.0273006 0.0377796 0.0350248 0.0368215 0.0218151 0.0316231 0.028474 0.0255721 0.0365026 0.0223289 0.0442314 0.0404786 0.0196012 0.0299217 0.027806 0.0254023 0.0162472 0.0141225 0.0442421 0.0315499 0.0427565 0.0484264 0.00891309 0.0500737 0.0393973 0.00898024 0.0526692 0.0293819
internal_weight=95888.8 58678 37210.8 43104.4 36038.7 33280.5 23313.2 19558.9 16451.1 18055.5 13897.6 10528.2 13721.6 10836.3 9545.42 13084.8 11955.1 10821.8 4347.46 4970.73 8976.08 6474.34 721.513 7097.16 5257.74 8406.18 5922.91 922.846 15573.6 2651.65
internal_count=246009 115646 130363 96575 86775 77812 98375 50757 44024 69701 31988 29862 27055 22476 28153 47747 45327 41687 18921 21954 17553 22766 2588 13004 28674 14999 14162 4194 19071 7521
cat_boundaries=0 1 3 5 6 7 9 11 13
cat_threshold=1 2219008773 56646285 1091674259 24127696 40169 1 1627394638 28582025 1160781994 15207640 536887732 5278922
is_linear=0
shrinkage=0.05


Tree=20
num_leaves=31
num_cat=8
split_feature=40 41 19 41 1 150 139 40 39 6 39 15 6 8 154 38 38 38 39 150 16 38 0 93 38 126 6 8 120 38
split_gain=1789.16 997.405 734.055 687.352 672.085 470.056 445.153 342.189 341.761 336.747 332.814 305.577 299.887 357.307 299.798 286.843 284.894 250.255 237.353 220.996 219.936 247.862 213.734 212.573 204.228 193.594 191.955 252.84 188.685 183.048
threshold=0.41434400404117216 0.22195798551490056 11.500000000000002 0.5145945707321371 0 17.348484848484851 8720.3700000000026 0.13629055444578361 0.13313968524152392 179932.50000000003 0.3003764914979512 -17662.499999999996 327136.50000000006 450117.00000000006 1.5000000000000002 1 2 3 0.72124364263950824 25.354166666666668 -2731.4999999999995 4 5 -1269.4999999999998 6 324003.55500000005 170820.00000000003 675191.25000000012 20.500000000000004 7
decision_type=8 8 8 10 9 10 8 10 8 2 8 2 2 8 10 9 9 9 8 10 2 9 1 2 9 10 2 10 10 9
left_child=3 -2 8 7 17 6 9 -1 -3 -6 -8 18 25 -14 15 -10 -9 -4 -7 -18 -12 -22 26 24 -11 -5 -19 -28 -20 -27
right_child=1 2 4 12 5 11 10 16 14 23 20 -13 13 -15 -16 -17 19 22 28 -21 21 -23 -24 -25 -26 29 27 -29 -30 -31
leaf_value=0.054921708163945905 0.044669562426090333 0.073228989736981262 0.0050002212137532469 0.032839592997724064 -0.0030567659434529164 0.051010088074381892 0.04200229737981212 0.047037457381033501 -0.031087648481125815 -0.038541656204776287 -0.0025219648048803063 0.042664378239249491 0.053047135423816394 0.028590260152122716 0.029507434254384693 0.0098292193200667441 0.030620719257461723 0.016361434179623033 0.016684052317939149 0.054697406039195144 0.028984024695733853 0.0089233737813998477 0.016509167308977522 0.040100358785177148 0.024382569974412453 0.026051845442387651 0.047140308616659216 0.029888659164087408 0.095663115181649813 -0.0055713053825144597
leaf_weight=8121.6988684237003 8166.0457216799259 232.73759010434151 571.2216484695673 1338.2276828587055 709.4200194850564 670.35353017598391 918.11501042544842 14019.644314840436 447.01531482487917 130.47432816028595 2434.2760545760393 4525.6228373944759 2273.4303857535124 4352.6894473135471 1918.9693228676915 6980.8480204120278 5948.6562211364508 733.40841475874186 3341.2035278603435 1134.91960683465 2172.343749858439 5346.4964111372828 950.49550648778677 3986.9945746138692 1936.6790075227618 785.73219503462315 8372.6142548173666 2845.7178557887673 77.373986005783081 1073.8006614595652
leaf_count=8696 12434 365 2203 3283 3000 2085 2035 19737 2325 688 11668 12354 4399 11454 5885 27896 11548 2321 12963 1642 7281 22872 3230 11859 7275 1983 19677 8779 147 3925
internal_value=0.0340959 0.0284843 0.0258035 0.0423544 0.0287996 0.0241401 0.0194636 0.0462005 0.0133799 0.029535 0.0131977 0.0337132 0.0309127 0.0369814 0.0118897 0.00733819 0.0428441 0.0378774 0.0238061 0.0344296 0.0105406 0.0147697 0.0392987 0.0333541 0.0203424 0.0183375 0.041144 0.0427641 0.0184716 0.00790097
internal_weight=96517.2 57468.4 49302.4 39048.8 39722.8 26249.4 17634.8 29224.9 9579.57 6763.57 10871.2 8614.55 9823.88 6626.12 9346.83 7427.86 21103.2 13473.5 4088.93 7083.58 9953.12 7518.84 12902.2 6054.15 2067.15 3197.76 11951.7 11218.3 3418.58 1859.53
internal_count=246009 179342 166908 66667 130437 94227 66678 41623 36471 22822 43856 27549 25044 15853 36106 30221 32927 36210 15195 13190 41821 30153 34007 19822 7963 9191 30777 28456 13110 5908
cat_boundaries=0 1 3 5 7 9 10 12 14
cat_threshold=2 622367304 16801824 538011898 15238416 2281837572 1329668 419502355 1344596 1 17379604 17056000 18965674 4731654
is_linear=0
shrinkage=0.05


Tree=21
num_leaves=31
num_cat=9
split_feature=40 41 39 15 19 150 154 41 11 38 16 150 137 152 41 15 145 38 0 150 38 18 142 38 151 38 38 38 139 71
split_gain=1667.75 1256.04 733.394 666.692 551.629 416.281 368.165 344.65 320.246 298.069 290.184 285.732 274.272 273.007 253.77 235.193 249.759 228.44 227.294 221.192 218.295 214.735 213.866 211.987 211.557 205.072 197.152 190.65 180.906 176.564
threshold=0.26205745036427591 0.56649360908440927 0.41058623956568857 -19920.499999999996 12.500000000000002 17.861904761904764 1.0000000180025095e-35 0.29035430932983458 0 1 -2050.4999999999995 23.154761904761909 2.5000000000000004 3.5000000000000004 0.29483287154921745 -15545.499999999998 116871.75000000001 2 3 16.683333333333337 4 -4557.4999999999991 47254.500000000007 5 4.5000000000000009 6 7 8 3602.3175000000006 0.043750000000000004
decision_type=8 10 10 2 8 10 10 8 9 9 2 8 10 10 8 2 10 9 1 10 9 2 8 9 8 9 9 9 10 10
left_child=7 2 3 11 14 18 10 -1 25 -9 -6 28 23 -8 -5 16 20 -17 21 -15 24 -4 -12 -10 -14 -3 -16 -23 -2 -7
right_child=1 8 5 4 6 29 13 9 12 -11 22 -13 15 19 26 17 -18 -19 -20 -21 -22 27 -24 -25 -26 -27 -28 -29 -30 -31
leaf_value=0.05518464921493943 0.058049170256383842 -0.037303766778855142 -0.0039281689935211448 0.038982276164462523 0.026081011486207659 0.041556085742838797 0.053718341870174574 0.04542936366886393 0.047332090002646605 0.030700376234107585 0.055243261392615477 0.035113735418868718 0.10690093740718601 0.02756462479168539 -0.028598174695928409 -0.017029874562337434 0.013004266025689368 0.02857973281635642 -0.011980078109520002 0.049893584473785807 -0.050808601495680852 0.024700049514186584 0.037644165104089286 0.023635025976476948 -0.0071226128589707898 0.0073801185249205859 0.02149601434139738 0.0016254318570837146 0.01243601153590806 0.019331133368653247
leaf_weight=5497.4817388951778 228.01382886618376 267.61958320438862 1003.4016779586673 2505.9761318415403 4826.8049415573478 2819.1079127341509 7498.7448300197721 11083.462487220764 1144.9066617190838 5292.1965909898281 2055.3166810199618 2586.8330297917128 43.210638262331486 2353.6652092933655 197.97631721198559 301.23768404126167 3134.2521886155009 2791.6486288607121 710.17342379689217 2097.4990341812372 295.55492293089628 5453.5449810698628 10781.630195826292 6072.1462373510003 694.56151141226292 3438.4557259902358 4845.7569707110524 1084.0938295051455 4659.5481427833438 1308.3873525038362
leaf_count=5320 470 1740 3850 3970 12129 7036 11557 15886 3546 11084 3212 6170 132 5152 787 1356 14631 9771 2976 3543 1670 16870 21802 23668 3708 17965 13343 4040 14655 3970
internal_value=0.0322006 0.0286661 0.0323153 0.0353015 0.0380419 0.0215469 0.0411177 0.0443523 0.0172235 0.0407158 0.0365322 0.0216761 0.0205758 0.0478957 0.0259772 0.0137286 0.00597613 0.0241748 0.0150619 0.0380866 -0.0153414 0.0176085 0.0404619 0.0274926 -0.000438416 0.00406175 0.0195156 0.020914 0.0145639 0.0345109
internal_weight=97073.2 75200.1 57016.5 44637.8 37163.4 12378.7 29613.7 21873.1 18183.6 16375.7 17663.8 7474.4 14477.5 11949.9 7549.71 7260.47 4167.58 3092.89 8251.21 4451.16 1033.33 7541.04 12836.9 7217.05 737.772 3706.08 5043.73 6537.64 4887.56 4127.5
internal_count=246009 213719 135532 96790 75495 38742 57395 32290 78187 26970 37143 21295 58482 20252 18100 31268 20141 11127 27736 8695 5510 24760 25014 27214 3840 19705 14130 20910 15125 11006
cat_boundaries=0 1 3 5 6 8 10 12 14 16
cat_threshold=2 561014010 15246674 73531412 542720 1 3557819539 52694210 20007056 22020176 340996096 2408449 2299597312 16781376 2023319993 37788946
is_linear=0
shrinkage=0.05


Tree=22
num_leaves=31
num_cat=8
split_feature=40 41 121 7 8 0 41 92 7 154 142 41 11 16 8 8 6 38 11 8 6 8 40 38 38 16 148 38 150 38
split_gain=1607.76 1246.3 773.496 521.955 420.517 403.818 394.9 342.666 329.934 322.393 325.657 297.683 255.6 254.343 244.501 331.884 239.512 227.716 225.416 221.82 240.88 214.903 214.764 213.887 213.26 200.658 191.193 189.396 183.94 180.539
threshold=0.64330125650113212 0.35481316242154587 -663.69047619047603 16499.250000000004 675191.25000000012 0 0.56649360908440927 1.0000000180025095e-35 29756.250000000004 1.5000000000000002 96970.477500000023 0.14509547980217227 1 -2349.4999999999995 450117.00000000006 298919.25000000006 301482.00000000006 2 3 450117.00000000006 273672.00000000006 222750.00000000003 0.73639053453819525 4 5 -4553.4999999999991 -740.49999999999989 6 14.34848484848485 7
decision_type=10 8 8 10 8 1 8 10 10 10 8 10 9 2 10 10 2 9 9 10 2 10 10 9 9 2 8 9 8 9
left_child=1 11 3 24 8 6 14 16 13 10 -4 -1 26 -5 15 -2 -8 -16 -13 20 -15 27 29 -14 28 -6 -12 -7 -3 -18
right_child=5 2 9 4 25 21 7 -9 -10 -11 12 18 23 19 17 -17 22 -19 -20 -21 -22 -23 -24 -25 -26 -27 -28 -29 -30 -31
leaf_value=0.052417159932923556 0.021757201194787659 -0.016577848752818841 0.0418693285084029 0.015093502780248369 -0.0042162081520510375 0.048407155084327649 -0.0082999365144058417 0.044664682658690141 0.043181125884110397 0.04816931121303196 0.02645570162767907 0.04296902214720752 0.025393483688402524 0.020372031846697641 0.026845202914588858 0.049427141115710976 0.028574584682633342 0.0044744656278616086 0.029230176677892919 0.020478569854482431 0.044629315230079361 -0.019462284970991291 -0.0056872462761658289 -0.0048100470483901318 0.017955021946287494 0.020770095730187201 0.040124007921573827 -0.012405768839994932 0.012351577503907342 0.0090431745573682342
leaf_weight=6359.437008112669 2192.7609521374106 1022.9635607376695 7165.2533981576562 3035.8603236153722 921.79339534044266 263.23825118690729 1634.3235143646598 723.92518746852875 4745.7044240236282 4446.4543293267488 6276.753959454596 13420.171772971749 1546.6139391511679 1397.7199940606952 3366.6393820643425 2142.6240309551358 2188.7731835246086 1739.388444878161 4110.5106877684593 2699.2194373458624 3821.7361750975251 1067.0119236186147 1195.2868419438601 941.27381131052971 4485.2578334957361 6262.0060686394572 4318.946283236146 238.55690852552652 1187.0641619712114 2632.0433180332184
leaf_count=6739 6623 4663 13160 9763 3795 835 8468 2718 11338 7319 14098 19396 3881 4159 10037 4871 8856 6630 7625 8170 8390 5550 7136 3243 13233 19275 8059 1088 4376 12515
internal_value=0.0304376 0.0336342 0.0294454 0.0239914 0.0275841 0.0175478 0.0196892 0.0117851 0.0321688 0.035978 0.033301 0.0431504 0.0286085 0.0273981 0.0267001 0.0354322 0.00867387 0.0192859 0.0397888 0.0321155 0.0381334 -0.00677161 0.0132849 0.0139927 0.0117121 0.017564 0.0319969 0.0202137 -0.00103441 0.017989
internal_weight=97549.3 78164.7 54274.6 29579.3 22884 19384.6 17815.8 8374.35 15700.2 24695.3 20248.8 23890.1 13083.6 10954.5 9441.41 4335.38 7650.43 5106.03 17530.7 7918.68 5219.46 1568.81 6016.1 2487.89 6695.29 7183.8 10595.7 501.795 2210.03 4820.82
internal_count=246009 170682 136922 87162 64890 75327 67854 39693 41820 49760 42441 33760 29281 30482 28161 11494 36975 16667 27021 20719 12549 7473 28507 7124 22272 23070 22157 1923 9039 21371
cat_boundaries=0 1 2 4 5 7 9 11 13
cat_threshold=1 24 2620409005 14730518 24 1611885857 29891664 2487884292 50620736 404816258 42501443 539625886 4757462
is_linear=0
shrinkage=0.05


Tree=23
num_leaves=31
num_cat=11
split_feature=40 41 39 19 41 1 1 150 121 139 128 6 6 38 38 38 152 56 123 0 93 154 139 15 38 38 87 11 154 38
split_gain=1539.85 838.236 638.322 621.748 605.544 521.99 446.063 405.921 400.056 369.585 283.148 266.632 257.07 239.431 236.699 235.587 227.004 215.85 233.905 204.802 194.282 191.268 217.971 183.424 188.693 181.54 167.599 165.779 163.555 163.377
threshold=0.41434400404117216 0.22195798551490056 0.24992219375047617 11.500000000000002 0.34496990492100627 0 1 17.258333333333336 -855.94999999999993 8720.3700000000026 5405625.0000000009 267212.25000000006 152910.00000000003 2 3 4 3.5000000000000004 0.053050000000000007 -189.49999999999997 5 -1256.4999999999998 1.0000000180025095e-35 10913.683500000001 -11299.499999999998 6 7 8 9 2.5000000000000004 10
decision_type=8 8 8 8 8 9 9 10 8 8 10 2 2 9 9 9 8 10 8 1 2 10 8 2 9 9 9 9 10 9
left_child=4 27 23 14 -1 10 16 9 11 12 15 -8 -7 -9 -4 -5 -6 -17 -19 28 -14 22 -10 -3 -25 -11 -13 -2 -16 -29
right_child=1 2 3 5 6 7 8 13 21 25 -12 26 20 -15 19 17 -18 18 -20 -21 -22 -23 -24 24 -26 -27 -28 29 -30 -31
leaf_value=0.045944807132933148 0.04311495346365421 0.050216256564798147 -0.017952071507791288 -0.0097006164271672256 0.044255144388763677 -0.010022583127223483 -0.001733920680296752 0.03454554372001762 0.036431770715720332 0.017617730632461789 -0.030214706782917263 0.0047219446608389301 0.013890885957463031 0.017532221031755158 0.0098160509303624466 0.037939131157462121 0.028265967074439954 0.010845174406138018 0.036131900011581945 -0.01613110144894558 0.032897944966195899 0.0435220052230176 0.017001057044212394 0.047026133712851401 0.016221189996995067 0.0035143471573733662 0.027134280016936227 0.035356699708651844 0.031878796276441981 0.0061043727829331665
leaf_weight=11793.577221155167 5824.3068337738514 2128.7488328665495 809.09782131016254 331.17292505502701 8309.2852715700865 531.68831443786621 1387.2977377325296 4861.9223116114736 3525.6042281389236 3363.5185502544045 185.76768992096186 1052.6615293174982 2063.9563848972321 3740.0276907905936 6462.7890227586031 7760.1655070111156 3029.0577719062567 1870.4204971715808 1789.4547157734632 672.48252420127392 3856.6009674072266 3269.716742053628 2443.7358686327934 875.44567261636257 1221.7378093898296 7103.1156298369169 4360.6477420181036 1676.4240469485521 965.50504292547703 689.115782558918
leaf_count=13647 8178 3937 3868 1371 12510 2300 4472 13644 6197 11999 830 3080 7989 13552 24778 19235 5782 6628 4440 3187 11530 5165 5425 1558 2919 30477 10389 2723 2666 1533
internal_value=0.0287934 0.0236759 0.0212737 0.0195782 0.0364729 0.022402 0.0323928 0.0183653 0.0270268 0.013869 0.0310324 0.0178229 0.0232811 0.0272089 0.00770671 0.0320006 0.0399836 0.0331893 0.0232088 0.010279 0.0262719 0.0338016 0.0284772 0.0398769 0.0293819 0.00806675 0.0228349 0.038516 0.0126837 0.0268966
internal_weight=97955 58783.5 50593.6 46367.7 39171.6 37457.8 27378 25520.8 16039.7 16918.9 11937 6800.61 6452.25 8601.95 8909.87 11751.2 11338.3 11420 3659.88 8100.78 5920.56 9239.06 5969.34 4225.93 2097.18 10466.6 5413.31 8189.85 7428.29 2365.54
internal_count=246009 179342 166908 158494 66667 123995 53020 91491 34728 64295 32504 17941 21819 27196 34499 31674 18292 30303 11068 30631 19519 16787 11622 8414 4477 42476 13469 12434 27444 4256
cat_boundaries=0 1 2 4 6 8 9 11 13 14 15 17
cat_threshold=2 2 1276717228 32016216 2904101448 18883168 134354180 1335812 1 1344305674 8425104 1023482131 18134096 21 24 940705961 558537
is_linear=0
shrinkage=0.05


Tree=24
num_leaves=31
num_cat=9
split_feature=40 41 16 95 8 7 154 40 135 38 11 0 6 6 93 8 6 26 38 129 118 38 41 40 38 40 38 129 150 38
split_gain=1473.34 1035.73 680.562 524.52 373.949 549.822 357.253 332.008 310.996 298.265 294.917 265.048 260.693 253.847 249.385 248.551 373.055 241.736 237.639 246.049 226.347 213.639 211.486 207.192 210.69 192.646 227.493 186.129 179.933 170.734
threshold=0.26205745036427591 0.34496990492100627 -2468.4999999999995 1.0000000180025095e-35 675191.25000000012 25404.750000000004 1.5000000000000002 0.067665994433858415 3.5000000000000004 0 1 2 792254.25000000012 323424.00000000006 -848.49999999999989 450117.00000000006 539165.25000000012 3 4 571685.9175000001 1.0000000180025095e-35 5 0.13053784794202253 0.64632626196829157 6 0.66464386790980601 7 379059.63750000007 22.516666666666669 8
decision_type=8 8 2 2 10 10 10 10 8 9 9 1 2 2 2 8 2 9 9 8 10 9 10 10 9 10 9 10 10 9
left_child=7 10 6 8 5 14 11 -1 23 -9 -2 20 -6 -7 21 -15 27 -16 -14 -20 25 -5 -12 24 -4 26 -3 -17 -23 -24
right_child=1 2 3 4 12 13 -8 9 -10 -11 22 -13 18 15 17 16 -18 -19 19 -21 -22 28 29 -25 -26 -27 -28 -29 -30 -31
leaf_value=0.049761210578369658 0.022397983363403762 0.021439085832426017 -0.015813869942331655 0.045599960674611986 -0.014273204899904999 0.011359803869658886 0.027601389113899963 0.040212186539015829 0.025870063145273015 0.02590320267600273 0.047526214403575913 -0.019188208449861965 0.046717674354336478 0.051910254923931601 0.040661757955268107 -0.018521098812378036 0.040332891239871126 0.022631311616832801 0.0069969271026316454 0.028012136346673273 -0.0081825525236980442 0.0076598676678741292 0.0371883123363735 -0.0049064857101702502 0.016873801802115056 -0.00035638462597557271 0.00014201162359096659 0.043252226152232426 0.031552953117062958 0.02366763114759677
leaf_weight=5199.6055623739958 4818.1053207069635 5367.101424947381 539.99674881249666 534.04006274789572 603.34521828591824 708.70235480368137 2653.3894621133804 10813.917886152864 4103.5848801210523 5759.143495708704 3533.6685041934252 875.080093331635 737.69864164292812 3799.6908216699958 3097.2897204086185 447.18466971069574 3762.1031975001097 4966.2270558401942 3066.5511565431952 2551.8655487596989 1562.4799053072929 3927.2993346452713 9365.9577682167292 2024.7511013224721 5093.1813592836261 2245.007636770606 1645.5933319628239 167.6611742824316 985.7404755577445 3322.9937712699175
leaf_count=5848 10019 17056 2122 1411 2390 2105 7864 15032 11454 11410 4116 4297 1902 7476 6219 1719 9461 14657 11462 7365 6779 13691 15110 10640 16674 11535 6296 467 2697 6735
internal_value=0.0272623 0.0239964 0.0204133 0.0236851 0.0272597 0.0304055 0.0110377 0.0387381 0.0147632 0.0352797 0.0334419 0.00727977 0.0171362 0.0400659 0.0240522 0.042554 0.0344317 0.0296355 0.0201177 0.0165126 0.00942037 0.0157871 0.0366855 0.00881153 0.0137422 0.0123913 0.0164723 -0.00167625 0.0124284 0.0336955
internal_weight=98279 76506.3 55465.6 41116.9 29355.4 22395.9 14348.7 21772.7 11761.5 16573.1 21040.7 11695.3 6959.46 8885.34 13510.6 8176.64 4376.95 8063.52 6356.12 5618.42 10820.2 5447.08 16222.6 7657.93 5633.18 9257.7 7012.69 614.846 4913.04 12689
internal_count=246009 213719 177739 123912 83022 59903 53827 32290 40890 26442 35980 45963 23119 21228 38675 19123 11647 20876 20729 18827 41666 17799 25961 29436 18796 34887 23352 2186 16388 21845
cat_boundaries=0 2 3 4 5 7 9 11 13 15
cat_threshold=3409146 13145426 2 1 131862 2433745025 7489600 29360897 8561356 1879050756 19188612 1629519290 27270360 290548923 23626834
is_linear=0
shrinkage=0.05


Tree=25
num_leaves=31
num_cat=9
split_feature=40 41 39 11 41 148 41 0 150 16 39 38 154 6 7 139 38 139 18 38 38 0 93 26 38 6 19 143 16 133
split_gain=1364.92 963.608 679.701 637.445 436.215 345.4 322.071 317.702 288.231 284.372 271.146 263.866 263.177 248.852 248.523 246.76 207.881 204.896 198.454 196.863 194.59 188.243 192.01 184.727 178.927 177.751 170.201 168.07 166.6 163.663
threshold=0.26205745036427591 0.60669678243265945 0.19176405406249683 0 0.23208206388391875 -1342.4999999999998 0.29035430932983458 1 23.154761904761909 -4468.4999999999991 0.64079234878342473 2 1.0000000180025095e-35 273672.00000000006 23951.250000000004 36346.118035714295 3 13667.934375000003 -4580.4999999999991 4 5 6 -2153.4999999999995 7 8 305293.50000000006 7.5000000000000009 47552.242500000008 -1723.4999999999998 -439.56349206349199
decision_type=8 10 8 9 8 10 8 1 10 2 10 9 10 2 10 8 9 10 2 9 9 1 2 9 9 2 8 10 2 8
left_child=6 2 -2 4 29 8 -1 20 10 24 14 28 18 23 -6 21 -9 -16 -7 -14 26 22 -15 -11 -3 -22 -5 -20 -8 -4
right_child=1 9 3 7 5 12 11 16 -10 13 -12 -13 19 15 17 -17 -18 -19 27 -21 25 -23 -24 -25 -26 -27 -28 -29 -30 -31
leaf_value=0.047585267522799714 0.045648497930933833 0.032875756989929721 0.020367677240651642 0.0077340186459466838 0.012092678313583887 0.006036044037480366 0.029131995949036663 0.035287895630775973 0.033761434879817656 0.034641422094802664 -0.0055155890614652283 0.024531382889490964 0.045079932417022517 0.0012034260214746793 0.031219456917182406 -0.0076893617396644152 -0.015839586237694943 0.014181555950463881 0.044522524272315518 0.02466014544317852 -0.012246354921559533 -0.019699934742922295 0.024151039412244529 -0.0023256879157706159 -0.012273674208464043 0.013628586008691816 0.025232905784310752 0.025347872861716404 0.042436431404623359 0.04112998331187033
leaf_weight=5319.1397116631269 3918.0111239701509 242.6660872399807 1113.7190051525831 1745.3175383359194 6589.8649346083403 1167.1501088142395 3486.2260012328625 228.55272161215544 3221.4092239886522 372.86548974364996 1198.722260184586 5676.329411432147 3910.6712345331907 1028.5760429948568 5070.5228294208646 861.51898939907551 1199.0188880041242 2706.4417459517717 1309.9017342999578 1829.1428489014506 835.72731899470091 285.43634988367558 8013.1747652813792 2874.3379995003343 1682.4569493830204 3225.0904691070318 6817.4404821768403 8959.3516356945038 7238.7635863125324 6423.7196490466595
leaf_count=5320 5683 1070 1982 5507 18691 3565 5898 655 7235 1129 5282 11588 6616 4676 11936 4366 4809 7557 2488 4371 3199 1522 30114 13481 9090 10864 17523 21778 9484 8530
internal_value=0.0258271 0.0226984 0.0254976 0.0241258 0.0271192 0.0248332 0.036894 0.0148287 0.0201479 0.011497 0.0173304 0.0334267 0.0299579 0.0140721 0.0192366 0.0179136 -0.0075179 0.0252901 0.0255732 0.0386941 0.0173676 0.0202785 0.0215406 0.00201864 -0.00647547 0.00828306 0.0216409 0.0277937 0.0380762 0.0380622
internal_weight=98551.3 76830.8 61469.8 57551.8 43500.6 35963.2 21720.5 14051.1 18787 15361 15565.6 16401.3 17176.2 13435.9 14366.8 10188.7 1427.57 7776.96 11436.4 5739.81 12623.6 9327.19 9041.75 3247.2 1925.12 4060.82 8562.76 10269.3 10725 7537.44
internal_count=246009 213719 148271 142588 100031 89519 32290 42557 50701 65448 43466 26970 38818 55288 38184 40678 5464 19493 27831 10987 37093 36312 34790 14610 10160 14063 23030 24266 15382 10512
cat_boundaries=0 1 2 4 6 8 10 11 12 14
cat_threshold=24 1 567567602 15246674 1214386560 4757529 1685663994 12618764 967926184 13147483 1 562 4872 11016257
is_linear=0
shrinkage=0.05


Tree=26
num_leaves=31
num_cat=9
split_feature=40 41 130 40 154 127 38 16 39 150 140 38 152 154 129 19 126 38 38 0 152 38 15 38 26 49 30 128 130 7
split_gain=1298.3 743.597 548.301 483.616 424.549 398.601 390.541 342.34 275.036 267.689 259.654 231.546 228.942 287.918 213.225 206.592 198.353 197.428 194.467 187.488 178.41 168.209 158.387 233.885 157.472 157.354 156.063 191.257 155.956 155.641
threshold=0.53190428207251383 0.6220741691655115 37047.712500000009 0.13629055444578361 1.0000000180025095e-35 37374.750000000007 0 -2468.4999999999995 0.68523148876554463 15.67543859649123 13464.832500000002 1 3.5000000000000004 1.0000000180025095e-35 517302.00000000006 9.5000000000000018 140824.80000000002 2 3 4 5.5000000000000009 5 -15438.499999999998 6 7 0.18105000000000002 8 6527970.0000000009 113863.19100000002 25013.250000000004
decision_type=10 10 8 8 10 10 9 2 10 10 10 9 8 10 10 8 10 9 9 1 8 9 2 9 9 10 1 10 10 10
left_child=1 3 5 -1 7 -2 8 19 12 10 -8 -7 13 -5 -14 -9 -3 -17 -6 21 22 24 23 -18 -4 29 27 -19 -23 -13
right_child=2 16 4 6 18 11 9 15 -10 -11 -12 25 14 -15 -16 17 20 26 -20 -21 -22 28 -24 -25 -26 -27 -28 -29 -30 -31
leaf_value=0.042529737985259622 0.034930649326074752 0.031165207665027186 -0.012048371918240977 0.032375734775406249 0.033437124958866769 0.027915213118991762 0.024226948760419406 0.0072035712489662909 0.003000720189455494 0.031239800381575672 0.005973358903458733 0.0012086284189144129 0.020539287936200631 0.04577325101084545 0.0388572361998848 0.011781863078634753 -0.031088404069822686 0.035879453793696052 0.01795146761954184 -0.03037682518229495 -0.0078235929546900378 -0.020896601059648849 0.024045304689033778 0.012427858620077519 0.021002465270906986 -0.0064839016642932908 0.020388398578999462 -0.060143469657750782 0.010399576820318914 0.014205510724001991
leaf_weight=8776.7709636986256 1431.6159913763404 1712.6843915134668 424.11013099551201 11052.990925058722 8281.6654369458556 1202.2524213045835 4821.9699782058597 2161.6030546873808 730.69230288267136 5384.0373363494873 3268.9854894652963 4473.0581842213869 4790.8545172512531 6293.5033524334431 2376.773857280612 2513.5211782380939 337.99645950645208 4223.6052281484008 2802.4704979360104 339.14308173954487 961.83204640448093 768.52934359759092 2792.4315301030874 2778.5265316665173 2281.2340780124068 2394.4869007617235 3753.4229802191257 52.501730158925056 825.8120035380125 4749.1601301208138
