tree
version=v4
num_class=1
num_tree_per_iteration=1
label_index=0
max_feature_idx=183
objective=binary sigmoid:1
feature_names=NAME_CONTRACT_TYPE CODE_GENDER FLAG_OWN_CAR FLAG_OWN_REALTY CNT_CHILDREN AMT_INCOME_TOTAL AMT_CREDIT AMT_ANNUITY AMT_GOODS_PRICE NAME_TYPE_SUITE NAME_INCOME_TYPE NAME_EDUCATION_TYPE NAME_FAMILY_STATUS NAME_HOUSING_TYPE REGION_POPULATION_RELATIVE DAYS_BIRTH DAYS_EMPLOYED DAYS_REGISTRATION DAYS_ID_PUBLISH OWN_CAR_AGE FLAG_MOBIL FLAG_EMP_PHONE FLAG_WORK_PHONE FLAG_CONT_MOBILE FLAG_PHONE FLAG_EMAIL OCCUPATION_TYPE CNT_FAM_MEMBERS REGION_RATING_CLIENT REGION_RATING_CLIENT_W_CITY WEEKDAY_APPR_PROCESS_START HOUR_APPR_PROCESS_START REG_REGION_NOT_LIVE_REGION REG_REGION_NOT_WORK_REGION LIVE_REGION_NOT_WORK_REGION REG_CITY_NOT_LIVE_CITY REG_CITY_NOT_WORK_CITY LIVE_CITY_NOT_WORK_CITY ORGANIZATION_TYPE EXT_SOURCE_1 EXT_SOURCE_2 EXT_SOURCE_3 APARTMENTS_AVG BASEMENTAREA_AVG YEARS_BEGINEXPLUATATION_AVG YEARS_BUILD_AVG COMMONAREA_AVG ELEVATORS_AVG ENTRANCES_AVG FLOORSMAX_AVG FLOORSMIN_AVG LANDAREA_AVG LIVINGAPARTMENTS_AVG LIVINGAREA_AVG NONLIVINGAPARTMENTS_AVG NONLIVINGAREA_AVG APARTMENTS_MODE BASEMENTAREA_MODE YEARS_BEGINEXPLUATATION_MODE YEARS_BUILD_MODE COMMONAREA_MODE ELEVATORS_MODE ENTRANCES_MODE FLOORSMAX_MODE FLOORSMIN_MODE LANDAREA_MODE LIVINGAPARTMENTS_MODE LIVINGAREA_MODE NONLIVINGAPARTMENTS_MODE NONLIVINGAREA_MODE APARTMENTS_MEDI BASEMENTAREA_MEDI YEARS_BEGINEXPLUATATION_MEDI YEARS_BUILD_MEDI COMMONAREA_MEDI ELEVATORS_MEDI ENTRANCES_MEDI FLOORSMAX_MEDI FLOORSMIN_MEDI LANDAREA_MEDI LIVINGAPARTMENTS_MEDI LIVINGAREA_MEDI NONLIVINGAPARTMENTS_MEDI NONLIVINGAREA_MEDI FONDKAPREMONT_MODE HOUSETYPE_MODE TOTALAREA_MODE WALLSMATERIAL_MODE EMERGENCYSTATE_MODE OBS_30_CNT_SOCIAL_CIRCLE DEF_30_CNT_SOCIAL_CIRCLE OBS_60_CNT_SOCIAL_CIRCLE DEF_60_CNT_SOCIAL_CIRCLE DAYS_LAST_PHONE_CHANGE FLAG_DOCUMENT_2 FLAG_DOCUMENT_3 FLAG_DOCUMENT_4 FLAG_DOCUMENT_5 FLAG_DOCUMENT_6 FLAG_DOCUMENT_7 FLAG_DOCUMENT_8 FLAG_DOCUMENT_9 FLAG_DOCUMENT_10 FLAG_DOCUMENT_11 FLAG_DOCUMENT_12 FLAG_DOCUMENT_13 FLAG_DOCUMENT_14 FLAG_DOCUMENT_15 FLAG_DOCUMENT_16 FLAG_DOCUMENT_17 FLAG_DOCUMENT_18 FLAG_DOCUMENT_19 FLAG_DOCUMENT_20 FLAG_DOCUMENT_21 AMT_REQ_CREDIT_BUREAU_HOUR AMT_REQ_CREDIT_BUREAU_DAY AMT_REQ_CREDIT_BUREAU_WEEK AMT_REQ_CREDIT_BUREAU_MON AMT_REQ_CREDIT_BUREAU_QRT AMT_REQ_CREDIT_BUREAU_YEAR BUREAU_DAYS_CREDIT_COUNT BUREAU_DAYS_CREDIT_MEAN BUREAU_DAYS_CREDIT_MIN BUREAU_DAYS_CREDIT_MAX BUREAU_CREDIT_DAY_OVERDUE_MEAN BUREAU_CREDIT_DAY_OVERDUE_MAX BUREAU_AMT_CREDIT_SUM_SUM BUREAU_AMT_CREDIT_SUM_MEAN BUREAU_AMT_CREDIT_SUM_MAX BUREAU_AMT_CREDIT_SUM_DEBT_SUM BUREAU_AMT_CREDIT_SUM_DEBT_MEAN BUREAU_AMT_CREDIT_SUM_OVERDUE_SUM BUREAU_AMT_CREDIT_SUM_OVERDUE_MEAN BUREAU_DAYS_CREDIT_ENDDATE_MEAN BUREAU_DAYS_CREDIT_ENDDATE_MAX BUREAU_STATUS_ACTIVE BUREAU_STATUS_BAD_DEBT BUREAU_STATUS_CLOSED BUREAU_STATUS_SOLD PREV_AMT_ANNUITY_MEAN PREV_AMT_ANNUITY_MAX PREV_AMT_APPLICATION_MEAN PREV_AMT_APPLICATION_MAX PREV_AMT_APPLICATION_SUM PREV_AMT_CREDIT_MEAN PREV_AMT_CREDIT_MAX PREV_AMT_CREDIT_SUM PREV_DAYS_DECISION_MEAN PREV_DAYS_DECISION_MIN PREV_DAYS_DECISION_MAX PREV_CNT_PAYMENT_MEAN PREV_CNT_PAYMENT_SUM PREV_STATUS_APPROVED PREV_STATUS_CANCELED PREV_STATUS_REFUSED PREV_STATUS_UNUSED_OFFER INSTAL_DAYS_LATE_MEAN INSTAL_DAYS_LATE_MAX INSTAL_DAYS_LATE_SUM INSTAL_PAYMENT_DIFF_MEAN INSTAL_PAYMENT_DIFF_SUM INSTAL_PAYMENT_DIFF_MAX INSTAL_AMT_INSTALMENT_MEAN INSTAL_AMT_INSTALMENT_SUM INSTAL_AMT_PAYMENT_MEAN INSTAL_AMT_PAYMENT_SUM POS_SK_DPD_MEAN POS_SK_DPD_MAX POS_SK_DPD_DEF_MEAN POS_SK_DPD_DEF_MAX POS_CNT_INSTALMENT_FUTURE_MEAN POS_CNT_INSTALMENT_FUTURE_MIN CC_AMT_BALANCE_MEAN CC_AMT_BALANCE_MAX CC_AMT_CREDIT_LIMIT_ACTUAL_MEAN CC_AMT_CREDIT_LIMIT_ACTUAL_MAX CC_SK_DPD_MEAN CC_SK_DPD_MAX CC_CNT_DRAWINGS_CURRENT_MEAN CC_CNT_DRAWINGS_CURRENT_SUM RATIO_CREDIT_INCOME RATIO_ANNUITY_INCOME RATIO_CREDIT_ANNUITY RATIO_EMPLOYED_BIRTH
feature_infos=-1:0:1 -1:0:1 -1:0:1 -1:1:0 [0:19] [25650:117000000] [45000:4050000] [1615.5:225000] [40500:4050000] -1:6:1:5:0:4:3:2 -1:7:1:3:4:6:5:0 -1:4:1:2:3 -1:1:3:0:2:5 -1:1:5:2:4:3 [0.00029:0.072508000000000003] [-25201:-7489] [-17583:365243] [-23416:0] [-7197:0] [0:91] none [0:1] [0:1] [0:1] [0:1] [0:1] -1:8:14:3:10:4:6:0:11:16:2:1:12:9:17:15:13:5:7 [1:20] [1:3] [1:3] -1:5:6:1:0:4:2:3 [0:23] [0:1] [0:1] [0:1] [0:1] [0:1] [0:1] -1:5:57:42:33:30:4:11:39:51:28:7:3:55:47:26:20:40:13:16:31:2:1:34:53:35:41:46:38:43:56:24:54:14:12:9:21:50:22:44:27:10:19:0:36:17:8:45:29:32:6:52:15:23:37:18:48:49 [0.0146914824034173:0.9516239622079844] [8.1736165188843972e-08:0.85499966640470115] [0.00052726523870980004:0.89397607460428663] [0:1] [0:1] [0:1] [0:1] [0:1] [0:1] [0:1] [0:1] [0:1] [0:1] [0:1] [0:1] [0:1] [0:1] [0:1] [0:1] [0:1] [0:1] [0:1] [0:1] [0:1] [0:1] [0:1] [0:1] [0:1] [0:1] [0:1] [0:1] [0:1] [0:1] [0:1] [0:1] [0:1] [0:1] [0:1] [0:1] [0:1] [0:1] [0:1] [0:1] [0:1] [0:1] -1:2:3:0:1 -1:0:1:2 [0:1] -1:4:5:0:6:1:2:3 -1:0:1 [0:348] [0:34] [0:344] [0:24] [-4292:0] none [0:1] none [0:1] [0:1] [0:1] [0:1] [0:1] none [0:1] none [0:1] [0:1] [0:1] [0:1] [0:1] [0:1] [0:1] [0:1] [0:1] [0:4] [0:9] [0:8] [0:27] [0:19] [0:25] [1:116] [-2922:-2] [-2922:-2] [-2922:0] [0:2776] [0:2776] [0:270204166.08000004] [0:54040833.216000006] [0:135000000] [-6981558.2100000009:74487294] [-1037487.0449999999:43650000] [0:3756681] [0:1617403.5] [-41875:31198] [-41875:31199] [0:32] [0:1] [0:108] [0:9] [0:290358] [0:418058.14500000002] [0:4050000] [0:5850000] [0:36791914.5] [0:4050000] [0:4509688.5] [0:41461128] [-2922:-2] [-2922:-2] [-2922:-1] [0:72] [0:1680] [0:24] [0:58] [0:68] [0:10] [-295:1884.2045454545455] [-156:2884] [-10529:82905] [-337496.80499999999:146145.89999999999] [-4417384.2300000004:2618669.7450000001] [-7319.0699999999997:2424726.4050000003] [0:1297518.8400000001] [0:23274726.93] [0.189:1297518.8400000001] [0:25537053.780000001] [0:2429.6700000000001] [0:4050] [0:1671.3980582524273] [0:3373] [0:60] [0:60] [-1331.7823255813953:908610.06000000006] [0:1329264.6299999999] [0:1350000] [0:1350000] [0:1342.2631578947369] [0:2770] [0:118.25] [0:1457] [0.004807615384615385:49.227200000000003] [0.00022388461538461538:1.5706] [8.0366744975202291:45.298281092012132] [-47.48966324275127:0.72280860888925536]
tree_sizes=1008 1017 1008 1044 1007 1051 1025 1031 1021 1052 1022 1050 1023 1051 1020 1060 1035 1017 1036 1039 1019 1021 1063 1018 1061 1042 1062 1024 1023 1051 1047 1041 1017 1059 1066 1058 1030 1052 1061 1065 1018 1038 1038 1041 1042 1064 1064 1027 1069 1026 1051 1029 1028 1048 1071 1064 1046 1067 1055 1038 1030 1045 1071 1040 1032 1015 1054 1035 1052 1077 1031 1047 1051 1031 1038 1030 1049 1051 1014 1034 1039 1059 1034 1072 1059 1036 1027 1031 1037 1062 1076 1051 1043 1028 1059 1027 1075 1065 1061 1054 1069 1052 1064 1049 1073 1073 1042 1077 1055 1056 1080 1054 1046 1071 1031 1038 1055 1055 1067 1036 1039 1028 1036 1052 1069 1053 1056 1075 1069 1061 1072 1068 1073 1059 1067 1062 1080 1055 1032 1065 1050 1058 1060 1066 1068 1079 1046 1083 1038 1048 1072 1066 1057 1064 1041 1083 1066 1071 1068 1048 1044 1048 1061 1067 1063 1042 1073 1065 1066 1059 1038 924 1032 1037 1040 1044 1081 1060 1065 1071 1068 1065 1028 1074 1066 1087 1058 1074 1048 1079 1040 1064 1046 1089 1077 1040 1044 1070 1046 1056 1081 1065 1066 1057 1060 1056 1077 1064 1074 1045 1063 1057 1054 1045 1059 1036 1075 1062 1044 1047 1088 1061 1073 1066 1067 1063 1029 1073 1058 1047 1063 1060 1045 1074 1044 1085 1069 1058 1024 1048 1065 1072 1077 1071 1055 1037 1062 1057 898 1057 1073 1079 899 1082 1063 1063 1080 1061 1059 1049 1068 1032 917 1071 1074 1060 1057 1088 1078 1074 1072 1071 1070 1072 1061 1085 1062 1064 1041 1060 1088 1064 1077 1076 1074 1078 1063 1043 1050 1061 1071 1067 1082 1042 1069 1028 1061 1073 1052 1051 1051 1062 1063 1040 1056 1087 1072 1034 1076 1078 1062 1066 1088 1078 1084 1029 1050 1037 884 1070 1072 1035 1014 1032 1069 1073 1055 1068 909 1034 1036 1071 1059 1043 1035 1072 1062 1037 1047 917 1081 1063 1069 1081 1048 1078 1075 1068 1031 1070 1070 1076 1064 1039 1076 1064 1060 1048 930 1073 1068 1067 1084 1059 1076 1025 1059 1059 1066 1051 1036 1070 1074 1031 1073 1041 1081 1065 1028 1067 1061 1070 1067 1068 1038 1047 1061 1035 947 1032 1056 1079 1076 1079 1073 1064 1044 1065 1036 1074 1077 1085 1059 1060 1052 1073 1054 1045 1049 1037 1043 1061 1086 1065 1020 1050 1087 1034 1025 1073 1076 1057 1078 1059 1035 1063 1073 1071 1071 1070 1060 1058 1066 1026 1077 1076 1043 1067 1028 1080 1049 1041 1076 1030 1043 1062 1056 1052 1012 1041 1068 1074 1068 1069 1025 1064 1082 1051 1067 1071 1064 1072 1037 1061 1056 1084 1024 1038 1064 1067 1070 1076 1087 1069 1083 1075 1060 1069 1078 949 1077 1074 1054 1083 1072 1061 1076 1066 1066 1081 1084 1031 1029 1086 1082 1050 1067 1046 1079 1067 1081 1083 1065 1055 1071 1065 1035 1033 1012 1047 1082 1033 1052 1066 1037 1072 1029 1059 1034 1061 1062 1085 1066 1061 1073 1049 1039 1057 1047 1048 1041 1079 1070 1082 1077 1073 1039 1060 1053 1044 1071 1075 1074 1050 1070 1067 1065 1063 1067 1083 1086 1040 929 1069 1052 1063 1061 1028 1046 1047 1051 1079 1056 1072 916 1073 1050 1072 954 1061 1016 1076 1060 1062 1076 1084 1068 1033 1060 1042 1068 1038 1065 964 1072 1076 1035 1064 1068 833 1048 1061 1040 1030 1066 1084 1044 1068 1030 917 1044 1071 1088 1078 1052 1062 1056 1058 1065 1071 1079 1050 1067 1088 1073 1072 1041 1063 1092 1068 1064 1072 1085 1075 1047 1062 1064 1079 1034 1050 930 1046 1040 1046 1067 1044 1067 959 1079 1047 1075 1068 1070 1051 1062 1066 1085 1073 1056 956 1076 1073 1053 1053 1049 1028 1067 1035 1064 1023 1068 1081 1055 1028 1027 1086 1075 1084 1059 1065 1082 1023 1019 1072 921 1054 1046 1063 1080 1064 1054 1035 1084 1064 1072 1071 1032 1030 1085 1050 1071 1075 1045 1062 844 1062 1070 1055 937 1057 1029 896 1046 1075 1065 1043 1077 919 1075 1053 1069 1061 1069 1048 1078 1008 1031 1073 1065 1083 1063 1047 789 1057 1064 1066 1077 1078 1084 1074 1078 1060 1071 1023 1042 1073 1056 1054 1047 1076 1046 1071 1045 1065 1054 1085 1063 1066 1077 1033 1058 1081 838 1010 1056 817 1055 1060 1076 1064 1083 1054 1060 1034 1045 1048 1035 1046 1065 1023 1076 1068 1034 1063 1063 1060 1081 1057 1044 898 1069 1031 1050 1080 1071 1081 1078 1044 1059 1088 1075 1050 1082 1071 1045 1059 1071 1073 1076 1080 1063 1069 1093 1072 1085 1070 1071 1080 914 1049 1076 1074 1079 1029 1068 1053 1082 1075 1075 1060 1079 1040 1072 1070 1067 1023 1066 1077 1053 1069 1080 1070 1076 1074 1061 1077 1078 1071 1072 1048 1072 1036 1066 1071 1055 1075 1032 1045 1078 903 1057 1045 1080 1065 1049 1059 1071 1047 1057 1049 1017 1074 1069 1084 912 1061 1077 1050 1053 1083 1034 1042 1074 1053 1066 1048 1065 1057 1037 1073 1065 1061 1025 1036 1005 1071 1051 1075 1071 1071 1069 1062 1052 1079 1074 1078 1068 953 1074 1047 1063 1071 1047 1061 1062 1067 954 1083 1075 1077 1061 1077 1036 1082 897 1002 1068 1076 1061 1057 1063 1077 1083 1072 1056 1048 917 1071 1078 1057 1046 1078 1066 1070 1085 848 947 1045 798 1019 1046 1049 1081 922 1071 1061 1056 1065 1083 1029 1073 1083 1056 1018 1051 1071 1065 1075 1079 1040 1077 1080 1068 1029 1070 1017 1057 1072 1075 1064 1072 1057 1044 1085 1071 1076 1074 1045 1073 1046 1027 1081 1054 1077 1063 1045 1075 1048 1063 1001 1040 1070 1065 1070 1058 1076 1058 1077 926 1074 1053 1085 1074 1079 1054 835 1060 1081 1062 1045 1028 1056 1073 1051 935 1053 1029 1062 1034 1036 1058 1081 1049 1070 1064 1074 1045 1036 1038 1057 1064 1089 1069 1052 1086 1052 1086 1074 1083 1067 1080 1067 1059 1055 1065 1060 1067 857 1037 1054 1060 1023 1057 1077 1083 1073 1049 1063 1041 1060 1081 1062 1077 1068 1025 1088 920 1025 1056 1053 1041 1078 1058 1055 1075 1086 1081

Tree=0
num_leaves=8
num_cat=2
split_feature=41 41 26 26 41 159 41
split_gain=76390.1 20002 10485.3 8962.97 3524.11 3467.19 1639.45
threshold=0.43384745792380691 0.26155244256291216 0 1 0.56294776606265007 4.1853857655502411 0.14599244001433323
decision_type=10 8 9 9 10 10 10
left_child=1 6 4 -3 -2 -4 -1
right_child=2 3 5 -5 -6 -7 -8
leaf_value=-2.0097029144992331 -2.1685522581870345 -2.10952848200631 -2.3194550407704613 -2.1903804361930304 -2.2423647614434969 -2.2556222332765765 -2.067010537602445
leaf_weight=2103.1139930188656 2153.0607792586088 6126.3353730812669 4840.4771986454725 6114.4600420668721 3597.7337941229343 2709.4827133640647 3001.1849783435464
leaf_count=8126 15291 36132 49281 46141 30977 24056 15117
internal_value=-2.17998 -2.11795 -2.26095 -2.14934 -2.2149 -2.29662 -2.04302
internal_weight=30645.8 17345.1 13300.8 12240.8 5750.79 7549.96 5104.3
internal_count=225121 105516 119605 82273 46268 73337 23243
cat_boundaries=0 1 2
cat_threshold=213782 213782
is_linear=0
shrinkage=1


Tree=1
num_leaves=8
num_cat=2
split_feature=41 41 11 26 16 41 121
split_gain=37270.3 9436.08 5530.98 4926.31 2323.95 1723.77 1516.14
threshold=0.48395083181648063 0.31469441606860521 0 1 -1921.4999999999998 0.60669678243265945 -788.94999999999993
decision_type=10 8 9 9 2 10 10
left_child=1 6 -3 4 -2 -5 -1
right_child=3 2 -4 5 -6 -7 -8
leaf_value=0.24153693129392392 0.13138517678418957 0.14772122265071735 0.21947588295823514 0.13666883516115488 0.19002365180374575 0.091911049271951206 0.28095963695821402
leaf_weight=3816.6142449676991 2393.1466184854507 2908.5240271314979 12566.800117351115 2892.0254936590791 3397.7729762196541 4547.3896245956421 5201.0995117276907
leaf_count=15743 18343 20258 66228 23811 21906 41707 17005
internal_value=0.194953 0.227734 0.206281 0.134199 0.165646 0.109251 0.264416
internal_weight=37723.4 24493 15475.3 13230.3 5790.92 7439.42 9017.71
internal_count=225001 119234 86486 105767 40249 65518 32748
cat_boundaries=0 1 2
cat_threshold=2 82710
is_linear=0
shrinkage=0.0448468


Tree=2
num_leaves=8
num_cat=0
split_feature=40 41 40 40 41 39 39
split_gain=40295.1 12324.7 7031.9 4925.5 4686.41 2147.93 666.861
threshold=0.48809996604069344 0.39535748868774395 0.16014926986677194 0.64748010186514693 0.52539569308654566 0.44116898545195427 0.39508714505419368
decision_type=8 8 10 10 10 10 10
left_child=2 5 6 -3 -4 -2 -1
right_child=1 3 4 -5 -6 -7 -8
leaf_value=0.25963520948930835 0.18094005191448514 0.1193828915333154 0.20536750065130263 0.069378294045301186 0.14768883454012455 0.12292738048788532 0.20526393457596659
leaf_weight=4313.5215014368296 5727.7271327599883 9231.0450719669461 11394.660633735359 7014.4963247403502 3877.1436933353543 1731.8071793690324 652.85752310603857
leaf_count=11808 21594 59813 41765 53737 25203 8760 2619
internal_value=0.159537 0.119804 0.206034 0.0978242 0.19078 0.167569 0.252703
internal_weight=43943.3 23705.1 20238.2 16245.5 15271.8 7459.53 4966.38
internal_count=225299 143904 81395 113550 66968 30354 14427
is_linear=0
shrinkage=0.0448468


Tree=3
num_leaves=8
num_cat=1
split_feature=40 41 40 39 40 38 41
split_gain=27610.5 10668.2 4741.83 3209.78 2553.29 2118.28 1144.65
threshold=0.41422991987884367 0.50197671872363325 0.64748010186514693 0.40630829101876431 0.63569405520410549 0 0.3714916490179011
decision_type=8 10 10 10 10 9 8
left_child=3 2 -2 5 -3 -1 -5
right_child=1 4 -4 6 -6 -7 -8
leaf_value=0.15032052745870489 0.14297919279800872 0.09146407952676186 0.095560370562026403 0.17180675751784702 0.046750044806456344 0.19465599395316341 0.11205132974736086
leaf_weight=3283.2821502462029 13668.157877348363 6014.5122686699033 6241.506716735661 1056.1586682349443 4537.4333835616708 12708.386555574834 1859.3640152588487
leaf_count=13526 54029 40083 33128 2881 36659 34916 9880
internal_value=0.135272 0.108809 0.128145 0.177865 0.0722757 0.185821 0.133969
internal_weight=49368.8 30461.6 19909.7 18907.2 10551.9 15991.7 2915.52
internal_count=225102 163899 87157 61203 76742 48442 12761
cat_boundaries=0 2
cat_threshold=2379093765 51673621
is_linear=0
shrinkage=0.0448468


Tree=4
num_leaves=8
num_cat=0
split_feature=40 40 39 39 178 161 15
split_gain=18887.7 5116.65 4253.4 2875.65 2702.59 920.552 820.01
threshold=0.5504070487451439 0.2478623843915074 0.49973431934820772 0.49973431934820772 0.58380149812734095 49.882500000000007 -19704.499999999996
decision_type=10 8 10 10 10 10 2
left_child=1 6 4 -3 -2 -4 -1
right_child=2 3 5 -5 -6 -7 -8
leaf_value=0.13631156290194116 0.089095525199352127 0.13328269064582249 0.03068868340349316 0.085663979143422705 0.14233155678266962 0.070270424873600301 0.17015139555890318
leaf_weight=1905.6138875931501 15071.364894978702 17865.922448337078 2696.4607807844877 3031.6088288277388 2222.5254130586982 2140.5503992661834 9120.8507944494486
leaf_count=6597 79475 63404 18813 14990 8523 12388 20389
internal_value=0.117455 0.13954 0.0855705 0.1264 0.0959791 0.048278 0.164372
internal_weight=54054.9 31924 22130.9 20897.5 17293.9 4837.01 11026.5
internal_count=224579 105380 119199 78394 87998 31201 26986
is_linear=0
shrinkage=0.0448468


Tree=5
num_leaves=8
num_cat=1
split_feature=41 41 38 158 183 160 41
split_gain=12158.3 3268.34 2261.56 2062.21 1318.37 713.401 611.665
threshold=0.50558277949122454 0.31469441606860521 0 -267.49999999999994 0.16822965984647348 1263.9150000000002 0.17508512251332123
decision_type=10 8 9 10 2 10 10
left_child=1 6 4 -3 -2 -4 -1
right_child=2 3 5 -5 -6 -7 -8
leaf_value=0.14479978340839456 0.096127424607640566 0.092310311713714011 0.040988318857926198 0.11814166982006812 0.062110933054453601 0.071348935131884464 0.12560203728241523
leaf_weight=6293.3358620554209 7323.3330869302154 10974.275060869753 4418.6497858762741 14947.823091343045 3426.5574817806482 2460.2586024031043 8621.6130631417036
leaf_count=11207 35722 43106 29930 49366 20292 13980 21589
internal_value=0.103485 0.116932 0.0723072 0.107228 0.0852466 0.0518279 0.133751
internal_weight=58465.8 40837 17628.8 25922.1 10749.9 6878.91 14914.9
internal_count=225192 125268 99924 92472 56014 43910 32796
cat_boundaries=0 2
cat_threshold=20006075 15238482
is_linear=0
shrinkage=0.0448468


Tree=6
num_leaves=8
num_cat=1
split_feature=40 41 40 41 39 39 1
split_gain=12556.6 4400.95 3568.14 2469.38 2160.14 1086.5 635.638
threshold=0.55238138043373486 0.41272265809433367 0.25777745582296024 0.54512896910958875 0.31737307066871612 0.5315290354556762 0
decision_type=8 8 10 10 8 10 9
left_child=2 5 6 -4 -3 -2 -1
right_child=1 4 3 -5 -6 -7 -8
leaf_value=0.11931488288860949 0.1018010851551661 0.10565231978253938 0.10713629343641462 0.072929178422884613 0.049698903186462688 0.058265884696062809 0.13973695551104576
leaf_weight=7849.3035337477922 7131.1761691719294 1534.7724666073918 17965.896713629365 5650.8919986188412 15004.091564841568 1417.5583493858576 5725.431629948318
leaf_count=18416 20576 6366 49127 28085 85891 6050 10215
internal_value=0.0930278 0.0684742 0.109577 0.0989718 0.0549256 0.09463 0.12798
internal_weight=62279.1 25087.6 37191.5 23616.8 16538.9 8548.73 13574.7
internal_count=224726 118883 105843 77212 92257 26626 28631
cat_boundaries=0 1
cat_threshold=1
is_linear=0
shrinkage=0.0448468


Tree=7
num_leaves=8
num_cat=1
split_feature=40 41 41 40 157 1 39
split_gain=11240.2 3846.23 3042.34 2301.56 1471.21 1141.28 963.03
threshold=0.59156899361036952 0.57179952324457861 0.45879500081581598 0.35681762026301717 1.5000000000000002 0 0.46275373654477853
decision_type=10 10 8 8 10 9 10
left_child=1 3 6 -1 -4 -3 -2
right_child=2 5 4 -5 -6 -7 -8
leaf_value=0.114887996074063 0.086921438365988479 0.057846740604008934 0.029672292588848653 0.092142674204893638 0.06038466779838423 0.091154453123370935 0.049732327949623283
leaf_weight=18363.779331550002 6401.1223073750734 5499.4390093684196 6962.518793001771 17980.326938852668 5767.5708276107907 3401.4914103969932 1842.6879609376192
leaf_count=34313 19187 26929 42156 51439 29880 13204 7971
internal_value=0.0845781 0.0971649 0.0574052 0.103651 0.0436125 0.0706279 0.0786545
internal_weight=66218.9 45245 20973.9 36344.1 12730.1 8900.93 8243.81
internal_count=225079 125885 99194 85752 72036 40133 27158
cat_boundaries=0 1
cat_threshold=1
is_linear=0
shrinkage=0.0448468


Tree=8
num_leaves=8
num_cat=0
split_feature=40 41 39 40 41 39 95
split_gain=9235.47 4163.72 2682.98 1656.37 1405.37 524.181 134.234
threshold=0.45950454446081795 0.31469441606860521 0.61912691978803258 0.12935780608002448 0.34496990492100627 0.6353112369706263 1.0000000180025095e-35
decision_type=10 8 10 8 8 10 2
left_child=3 5 -3 6 -5 -2 -1
right_child=1 2 -4 4 -6 -7 -8
leaf_value=0.099714681665201726 0.091687765259031953 0.058330578670044347 0.017868103936178523 0.10471657759659367 0.081415833646526575 0.051715364166904754 0.11705834073261125
leaf_weight=1486.5252316147089 8022.3039754778147 24543.824498489499 3822.8052936121821 7699.0493506789207 17076.103183396161 755.8372273594141 5591.9300116449594
leaf_count=2826 17654 108959 22647 12083 50234 2659 8015
internal_value=0.0764823 0.0612645 0.0528855 0.0942132 0.0886791 0.0882874 0.113498
internal_weight=68998.4 37144.8 28366.6 31853.6 24775.2 8778.14 7078.46
internal_count=225077 151919 131606 73158 62317 20313 10841
is_linear=0
shrinkage=0.0448468


Tree=9
num_leaves=8
num_cat=1
split_feature=40 41 40 157 39 38 41
split_gain=8014.07 4510 2094.03 1342.9 1214.14 1098.7 422.408
threshold=0.39036598813464402 0.54512896910958875 0.68878045902578433 2.5000000000000004 0.41968913852444806 0 0.36812987827773896
decision_type=8 10 10 10 10 9 8
left_child=4 2 -2 -3 5 -1 -6
right_child=1 3 -4 -5 6 -7 -8
leaf_value=0.071706289177782628 0.072610062806721359 0.023082569282254033 0.041975494873322743 0.052875880933058596 0.085706564521390152 0.098116790116003938 0.054204376443892338
leaf_weight=4281.2863636314869 26761.75976459682 7239.0439218655229 5442.752841450274 5289.2950501963496 1399.5334817767143 19019.616435408592 2434.2610613703728
leaf_count=11822 77998 42706 22751 26099 2461 32850 8544
internal_value=0.0702387 0.0585554 0.0674428 0.0356846 0.0894822 0.0933568 0.0658214
internal_weight=71867.5 44732.9 32204.5 12528.3 27134.7 23300.9 3833.79
internal_count=225231 169554 100749 68805 55677 44672 11005
cat_boundaries=0 2
cat_threshold=2353922821 34877981
is_linear=0
shrinkage=0.0448468


Tree=10
num_leaves=8
num_cat=0
split_feature=40 41 41 39 157 39 39
split_gain=7456.21 3135.84 1858.41 1748.4 1457.59 1004.52 321.917
threshold=0.61669156992079699 0.41272265809433367 0.34171764924473197 0.55010657910806071 1.0000000180025095e-35 0.42259178838259598 0.26432852596062351
decision_type=10 10 8 10 10 10 8
left_child=1 5 6 -3 -4 -1 -2
right_child=2 3 4 -5 -6 -7 -8
leaf_value=0.085427375584551712 0.098617166657494856 0.064990044424042367 0.018579215172070191 0.0262461894227504 0.047000455261298091 0.064415894664928891 0.061298401347930472
leaf_weight=29038.759805336595 549.15993392467499 18098.010352253914 6979.8025517687201 2712.7674116194248 7619.3141391798854 5585.6845157295465 4237.499698355794
leaf_count=51853 938 60570 38598 13173 34568 14288 11404
internal_value=0.0653856 0.0737618 0.0414156 0.059952 0.0334302 0.0820499 0.0656926
internal_weight=74821 55435.2 19385.8 20810.8 14599.1 34624.4 4786.66
internal_count=225392 139884 85508 73743 73166 66141 12342
is_linear=0
shrinkage=0.0448468


Tree=11
num_leaves=8
num_cat=1
split_feature=40 41 39 38 157 41 182
split_gain=6112.01 2219.22 2043.77 1656.76 1543.17 590.701 376.56
threshold=0.571177940538666 0.33848021082472263 0.56594804903199203 0 3.5000000000000004 0.26575311909471833 21.450138026224987
decision_type=10 8 10 9 10 8 8
left_child=2 6 3 -1 -3 -4 -2
right_child=1 4 5 -5 -6 -7 -8
leaf_value=0.05844179100379604 0.072620757935759214 0.025045226642971971 0.073331668961686275 0.07784613544161445 0.050476513436639309 0.032909579122470986 0.049920844938299284
leaf_weight=12985.66369767487 4471.7710509598255 12072.686997428536 913.6332471370697 31855.837170749903 8017.0993078574538 3744.2916030213237 2333.1341305077076
leaf_count=35363 9687 60738 1637 63439 32840 14670 6317
internal_value=0.0599669 0.0427333 0.0693234 0.0722662 0.0352087 0.0409261 0.064893
internal_weight=76394.1 26894.7 49499.4 44841.5 20089.8 4657.92 6804.91
internal_count=224691 109582 115109 98802 93578 16307 16004
cat_boundaries=0 2
cat_threshold=3704264965 51868324
is_linear=0
shrinkage=0.0448468


Tree=12
num_leaves=8
num_cat=0
split_feature=40 41 39 39 41 178 40
split_gain=5389.22 3355.86 1896.03 990.492 890.304 553.568 350.146
threshold=0.35681762026301717 0.56649360908440927 0.6353112369706263 0.41408830859588297 0.63386858619686948 0.65669642857142863 0.13817671343907631
decision_type=10 10 10 8 10 10 10
left_child=4 2 -2 -3 5 -1 -6
right_child=1 3 -4 -5 6 -7 -8
leaf_value=0.071995869883965266 0.056969747154970156 0.057509075332234226 0.023023022167753378 0.02223593075896908 0.073685469676594187 0.091253982147389473 0.040834362543322393
leaf_weight=19673.837375968695 34949.949959523976 1876.6184441745281 3677.6128928586841 11114.907854273915 928.84627449512482 3699.4149810373783 2417.5377509891987
leaf_count=34151 95155 7437 15318 57911 2120 4608 8330
internal_value=0.0555861 0.0471083 0.0537438 0.0273582 0.0719492 0.0750659 0.050074
internal_weight=78338.7 51619.1 38627.6 12991.5 26719.6 23373.3 3346.38
internal_count=225030 175821 110473 65348 49209 38759 10450
is_linear=0
shrinkage=0.0448468


Tree=13
num_leaves=8
num_cat=1
split_feature=40 41 39 41 38 40 41
split_gain=5137.3 3051.57 1997.45 1272.7 658.333 654.958 459.442
threshold=0.44958044608202885 0.3178136513186039 0.29896936973607929 0.47674953178598795 0 0.16014926986677194 0.21824380125316653
decision_type=8 8 8 10 9 10 10
left_child=3 6 -3 5 -5 -1 -2
right_child=1 2 -4 4 -6 -7 -8
leaf_value=0.080658347472322714 0.070817219816317639 0.06777287021257293 0.031275365350250162 0.061191008074347859 0.037784889034799381 0.064965901775710114 0.051757287389018435
leaf_weight=7923.5944751352072 6013.8508183509111 3360.0782980918884 30073.51117708534 5810.3070128262043 4535.9839292764664 17994.944625124335 4672.7308012396097
leaf_count=9091 10234 9390 124512 14467 15478 31159 10874
internal_value=0.0519347 0.0416402 0.0349555 0.0644492 0.0510571 0.0697809 0.0625193
internal_weight=80385 44120.2 33433.6 36264.8 10346.3 25918.5 10686.6
internal_count=225205 155010 133902 70195 29945 40250 21108
cat_boundaries=0 2
cat_threshold=19939578 15213888
is_linear=0
shrinkage=0.0448468


Tree=14
num_leaves=8
num_cat=0
split_feature=40 41 39 157 178 40 40
split_gain=4254.84 2292.7 1579.83 1178.46 1124.05 1077.08 97.4391
threshold=0.61669156992079699 0.47674953178598795 0.24768607424338077 1.5000000000000002 0.55278637770897843 0.20261157917236691 0.71534248132157152
decision_type=10 10 8 10 10 8 10
left_child=1 5 6 -4 -3 -1 -2
right_child=2 4 3 -5 -6 -7 -8
leaf_value=0.073355282300993516 0.081828245527926696 0.038018414420308559 0.017500972424926823 0.039461882627985743 0.072819776555919008 0.056741084630617847 0.047141963489631719
leaf_weight=10621.185151726007 1240.5480525046587 16530.226035282016 9931.4577003568411 9803.0324750244617 2118.2206935733557 31716.447454810143 232.98928646743298
leaf_count=12827 2705 57871 45916 35626 5382 64217 732
internal_value=0.0491168 0.0551377 0.0317895 0.0284223 0.0419942 0.0609191 0.0765823
internal_weight=82194.1 60986.1 21208 19734.5 18648.4 42337.6 1473.54
internal_count=225276 140297 84979 81542 63253 77044 3437
is_linear=0
shrinkage=0.0448468


Tree=15
num_leaves=8
num_cat=2
split_feature=40 121 39 38 159 178 38
split_gain=4157.57 2066.22 1441.75 1296.85 1061.69 898.946 358.812
threshold=0.60089978027812341 -880.93749999999989 0.61912691978803258 0 138.11798571428574 0.68790584415584421 1
decision_type=10 8 10 9 10 10 9
left_child=1 3 4 -1 -2 -3 -4
right_child=2 5 6 -5 -6 -7 -8
leaf_value=0.050667802027562471 0.026678419447218309 0.055924595813140049 0.011477065904059945 0.029216227121499128 0.047766781027969392 0.076143657961478081 -0.021524790399730636
leaf_weight=13918.333652064204 13265.573602825403 30000.369416758418 2476.7021436467767 9869.3455635160208 7592.8079026937485 5281.4923375099897 887.44174611568451
leaf_count=33328 53009 59066 12278 31292 23515 7377 5058
internal_value=0.0456429 0.0520629 0.0299755 0.0418133 0.0343691 0.0589639 0.00269
internal_weight=83292.1 59069.5 24222.5 23787.7 20858.4 35281.9 3364.14
internal_count=224923 131063 93860 64620 76524 66443 17336
cat_boundaries=0 2 4
cat_threshold=3163322 16293232 671618991 65013530
is_linear=0
shrinkage=0.0448468


Tree=16
num_leaves=8
num_cat=1
split_feature=40 41 39 15 39 1 41
split_gain=4004.98 2863.43 2198.17 844.645 616.865 437.155 306.903
threshold=0.35681762026301717 0.26575311909471833 0.50801294078689696 -18132.499999999996 0.38704212930160747 0 0.09538156003579816
decision_type=8 8 10 2 10 9 10
left_child=3 6 -3 5 -5 -1 -2
right_child=1 2 -4 4 -6 -7 -8
leaf_value=0.058879526201835203 0.072949156467820075 0.035393791036399745 0.0099297012441882833 0.064048433407862773 0.042430813866943723 0.035093274357794524 0.052934625634701998
leaf_weight=2349.8860623836517 1983.8547938466072 37085.359527274966 8375.6254900097847 18024.345020413399 3199.5544931292534 4856.6832182258368 8454.1637193709612
leaf_count=4126 2498 120675 38017 25426 7061 11970 15117
internal_value=0.0425625 0.0355812 0.0307063 0.0562771 0.0608047 0.0428973 0.0567795
internal_weight=84329.5 55899 45461 28430.5 21223.9 7206.57 10438
internal_count=224890 176307 158692 48583 32487 16096 17615
cat_boundaries=0 1
cat_threshold=2
is_linear=0
shrinkage=0.0448468


Tree=17
num_leaves=8
num_cat=0
split_feature=40 41 39 40 159 41 182
split_gain=3801.57 2443.31 1221.36 995.598 962.542 843.16 109.859
threshold=0.41422991987884367 0.50197671872363325 0.27043815737031385 0.12935780608002448 151.00198125000003 0.34496990492100627 10.845397611218624
decision_type=10 10 8 8 10 8 10
left_child=3 2 -2 6 -3 -5 -1
right_child=1 4 -4 5 -6 -7 -8
leaf_value=0.046657839841148026 0.063009739152791067 0.011343988286528947 0.036560000919365447 0.05991328408327104 0.034103045663748333 0.042198904711245384 0.066518077413327228
leaf_weight=697.43685601651669 4001.2009791433811 11408.013518236578 30045.382625773549 7801.4769247621298 5578.3830420076847 18291.011290922761 8181.9203434288502
leaf_count=1153 6935 55245 80134 9852 21410 40829 9834
internal_value=0.0405621 0.0327451 0.0396797 0.0519601 0.018832 0.0475092 0.0649956
internal_weight=86004.8 51033 34046.6 34971.8 16986.4 26092.5 8879.36
internal_count=225392 163724 87069 61668 76655 50681 10987
is_linear=0
shrinkage=0.0448468


Tree=18
num_leaves=8
num_cat=2
split_feature=40 121 11 38 15 182 133
split_gain=3549.63 1959.91 1229.27 1080.32 809.496 543.967 357.491
threshold=0.39036598813464402 -892.59166666666658 0 1 -19704.499999999996 10.746441549945187 -370.95833333333331
decision_type=10 8 9 9 2 10 8
left_child=4 3 -3 -2 6 -6 -1
right_child=1 2 -4 -5 5 -7 -8
leaf_value=0.018553230074968508 0.029376151287019557 0.02058410711572527 0.043684736756190536 0.010394684334149442 0.030285648359310854 0.054770565628760849 0.042243879363617814
leaf_weight=1943.4146214276552 15090.168298117816 5941.2990602850914 22719.082564473152 10152.42139711231 2013.3867477178574 24855.807472839952 3947.698535233736
leaf_count=5758 50333 19626 57488 41542 4193 38115 8053
internal_value=0.0379811 0.0308946 0.0389264 0.0217655 0.0496316 0.0529455 0.0344684
internal_weight=86663.3 53903 28660.4 25242.6 32760.3 26869.2 5891.11
internal_count=225108 168989 77114 91875 56119 42308 13811
cat_boundaries=0 1 3
cat_threshold=2 3172537 15238265
is_linear=0
shrinkage=0.0448468


Tree=19
num_leaves=8
num_cat=2
split_feature=40 41 1 41 40 41 38
split_gain=3231.75 2273.53 2047.15 775.839 616.474 432.958 411.255
threshold=0.65582424677266327 0.34496990492100627 0 0.43384745792380691 0.71905256719745669 0.14599244001433323 1
decision_type=8 8 9 8 10 10 9
left_child=1 5 -3 6 -5 -1 -2
right_child=3 2 -4 4 -6 -7 -8
leaf_value=0.062804546236791811 0.040309491284473323 0.046153663103412387 0.027777411684971522 0.018855576517101576 -0.0039674538385639207 0.048490713049729371 0.013549257105156294
leaf_weight=6104.1208227276802 3610.2777613401413 20409.023488774896 30522.927306160331 6554.7824592515826 3722.356527119875 15352.284366548061 1777.7445298135281
leaf_count=6530 8685 45490 87485 28644 18723 24246 5430
internal_value=0.0363205 0.0403188 0.0351467 0.017831 0.0105797 0.0525806 0.0316202
internal_weight=88053.5 72388.4 50932 15665.2 10277.1 21456.4 5388.02
internal_count=225233 163751 132975 61482 47367 30776 14115
cat_boundaries=0 1 3
cat_threshold=2 941651115 13143319
is_linear=0
shrinkage=0.0448468


Tree=20
num_leaves=8
num_cat=0
split_feature=41 39 15 159 150 39 93
split_gain=3225.69 2113.62 1454.63 1043.99 876.881 670.945 500.88
threshold=0.57179952324457861 0.41968913852444806 -19997.499999999996 374.34426757453076 17.781746031746035 0.30216376123997951 -1251.4999999999998
decision_type=10 10 2 10 10 8 10
left_child=1 2 -1 5 -3 -2 -5
right_child=3 4 -4 6 -6 -7 -8
leaf_value=0.02579119133155288 0.043440027193664014 0.014356874455767511 0.045727006899877173 0.018141794988636849 0.038959015068547827 0.009209228683767428 0.046308036144489341
leaf_weight=8823.5140542834997 1256.7374481707811 8846.63000677526 45989.741016328335 2127.3251042813063 4366.8123707920313 13651.322272434831 3243.7775019258261
leaf_count=22713 3548 27515 84829 7996 10995 57976 9204
internal_value=0.0339563 0.038638 0.0425224 0.0182409 0.0225067 0.0121149 0.0351983
internal_weight=88305.9 68026.7 54813.3 20279.2 13213.4 14908.1 5371.1
internal_count=224776 146052 107542 78724 38510 61524 17200
is_linear=0
shrinkage=0.0448468


Tree=21
num_leaves=8
num_cat=0
split_feature=40 41 159 40 41 41 182
split_gain=3051.9 2345.11 1740.6 599.711 449.498 446.612 115.442
threshold=0.33578611240968798 0.34496990492100627 515.24984509466447 0.12935780608002448 0.13135864273369977 0.57179952324457861 10.845397611218624
decision_type=10 8 10 8 10 10 10
left_child=3 4 -3 6 -2 -5 -1
right_child=1 2 -4 5 -6 -7 -8
leaf_value=0.035139789108024511 0.054435801763816148 0.015878918542781409 0.03644013040181366 0.043302123003730264 0.036656942679916343 0.026035710716014952 0.05556475345216505
leaf_weight=664.27422350645065 3740.3683035522699 33549.537707589567 11017.777303084731 14894.279533207417 13116.686503082514 3858.6112046837807 8146.3692476451397
leaf_count=1129 4907 119374 30732 23235 25354 10552 9764
internal_value=0.0319379 0.0263661 0.0209678 0.044344 0.0406222 0.0397626 0.0540567
internal_weight=88987.9 61424.4 44567.3 27563.5 16857.1 18752.9 8810.64
internal_count=225047 180367 150106 44680 30261 33787 10893
is_linear=0
shrinkage=0.0448468


Tree=22
num_leaves=8
num_cat=2
split_feature=41 39 38 38 159 150 168
split_gain=3046.5 2131.51 1646.87 824.47 557.724 541.856 289.599
threshold=0.60669678243265945 0.5315290354556762 0 1 321.20961794670853 17.781746031746035 0.027149877149877152
decision_type=10 10 9 9 10 10 10
left_child=1 2 -1 4 -2 -3 -5
right_child=3 5 -4 6 -6 -7 -8
leaf_value=0.025646580830692593 0.015760056491855381 0.0070694237818966109 0.042061640068084848 6.6285224727103361e-05 0.040142079975467614 0.029775652683771959 0.026006169283685435
leaf_weight=17074.591338336468 6508.3691841959953 6266.0770766884089 45894.314059227705 7136.9850134402514 2677.619651183486 3203.6028283834457 982.03816290199757
leaf_count=41684 24542 21366 85547 31881 7575 8874 3393
internal_value=0.030601 0.0346407 0.0376253 0.0136795 0.0228711 0.0147737 0.00322681
internal_weight=89743.6 72438.6 62968.9 17305 9185.99 9469.68 8119.02
internal_count=224862 157471 127231 67391 32117 30240 35274
cat_boundaries=0 2 4
cat_threshold=3448413444 51858085 1631338666 14230897
is_linear=0
shrinkage=0.0448468


Tree=23
num_leaves=8
num_cat=0
split_feature=40 41 178 182 182 182 150
split_gain=3095.7 1619.99 1257.5 1036.81 934.634 598.952 218.814
threshold=0.49083219377226134 0.26575311909471833 0.70057471264367821 10.746441549945187 21.463504360703066 9.4251269031361158 19.677083333333339
decision_type=8 8 10 10 10 8 8
left_child=3 6 -3 5 -5 -1 -2
right_child=1 2 -4 4 -6 -7 -8
leaf_value=0.030523853418104253 0.03371442335283123 0.01392309669693579 0.039984054481619132 0.044307184150524093 0.030148937565119438 -0.006248707699821005 0.049684401907839147
leaf_weight=2001.5816636383533 5310.0294703245163 33094.734104312956 4201.1029673740268 27199.665696427226 14493.80950589478 1592.2728568166494 2690.2181238085032
leaf_count=3784 9607 118108 11162 43568 30096 4862 4017
internal_value=0.0291026 0.0208035 0.0168662 0.0373979 0.0393919 0.0142119 0.039124
internal_weight=90583.4 45296.1 37295.8 45287.3 41693.5 3593.85 8000.25
internal_count=225204 142894 129270 82310 73664 8646 13624
is_linear=0
shrinkage=0.0448468


Tree=24
num_leaves=8
num_cat=1
split_feature=40 182 182 182 38 150 40
split_gain=2819.68 1952.24 2229.44 996.836 575.027 521.26 447.028
threshold=0.65855848045286813 10.746441549945187 21.463504360703066 9.4251269031361158 0 24.369318181818183 0.72465045696855246
decision_type=10 10 10 8 9 10 10
left_child=1 3 -3 -1 6 -6 -2
right_child=4 2 -4 -5 5 -7 -8
leaf_value=0.024435422487605531 0.024311306868492605 0.039738031035408281 0.023049842153448623 -0.011767118439049179 -0.0050403246461080825 0.030224126163506025 0.0028024773368757003
leaf_weight=3200.007835149765 6420.2074092328548 43923.328987285495 25526.819925934076 2918.3967155665159 5510.8171198070049 990.55394577980042 2806.4021789431572
leaf_count=7104 20857 84076 64447 10270 24102 3327 11026
internal_value=0.0278716 0.0314679 0.0336077 0.00715239 0.0105808 0.000331424 0.017767
internal_weight=91296.5 75568.6 69450.1 6118.4 15728 6501.37 9226.61
internal_count=225209 165897 148523 17374 59312 27429 31883
cat_boundaries=0 2
cat_threshold=880476338 13143377
is_linear=0
shrinkage=0.0448468


Tree=25
num_leaves=8
num_cat=1
split_feature=40 41 26 41 158 41 40
split_gain=2696.94 1893.97 1437.95 600.634 387.691 260.694 229.994
threshold=0.34093862228804778 0.26575311909471833 0 0.37825236717528976 -264.49999999999994 0.12334537001096681 0.078707378021973612
decision_type=8 8 9 10 10 10 10
left_child=3 5 -3 6 -5 -2 -1
right_child=1 2 -4 4 -6 -7 -8
leaf_value=0.053624886308836973 0.048696151503311955 0.025774964036058619 0.010765937787948101 0.021102117192074953 0.037750308242647294 0.033566143955730182 0.040675545124786092
leaf_weight=3655.8891313523054 3325.0298015475273 24202.921825483441 27547.361647583544 5274.8028031587601 6204.1660452187061 8068.0565804839134 13274.15960226953
leaf_count=3487 4177 64526 96951 12115 11642 13743 17819
internal_value=0.0266177 0.0214478 0.0177964 0.0380993 0.0301215 0.0380094 0.0434922
internal_weight=91552.4 63143.4 51750.3 28409 11479 11393.1 16930
internal_count=224460 179397 161477 45063 23757 17920 21306
cat_boundaries=0 1
cat_threshold=221974
is_linear=0
shrinkage=0.0448468


Tree=26
num_leaves=8
num_cat=1
split_feature=39 178 40 165 38 150 67
split_gain=2600.46 2173.32 1887.21 371.725 341.294 282.893 105.542
threshold=0.6702401878917662 0.55278637770897843 0.25777745582296024 340289.28000000009 0 18.414285714285715 0.006150000000000001
decision_type=10 10 10 10 9 10 8
left_child=1 2 -1 -3 6 -6 -2
right_child=4 3 -4 -5 5 -7 -8
leaf_value=0.038010683045499635 0.045773099582457913 0.056884726532819035 0.020590134363283278 0.039634775617563282 -0.0034112336082933073 0.019950078757241686 -0.022309886642442274
leaf_weight=16054.08298419416 42.04884697496891 3660.3625560700893 57115.554641157389 8684.8272754400969 3390.1321442425251 1497.0533901304007 1535.2561852633953
leaf_count=24042 106 4874 154140 16460 13597 4785 6830
internal_value=0.0252858 0.0273591 0.024416 0.0447776 -0.0021223 0.00372528 -0.0201691
internal_weight=91979.3 85514.8 73169.6 12345.2 6464.49 4887.19 1577.31
internal_count=224834 199516 178182 21334 25318 18382 6936
cat_boundaries=0 2
cat_threshold=4113714773 18371208
is_linear=0
shrinkage=0.0448468


Tree=27
num_leaves=8
num_cat=3
split_feature=41 1 19 39 11 41 38
split_gain=2501.97 1788.94 1452.04 1250.7 497.08 286.199 220.536
threshold=0.33365234483727518 0 15.500000000000002 0.31124741408724893 1 0.13135864273369977 2
decision_type=8 9 8 8 9 10 9
left_child=4 3 -3 -2 5 -1 -6
right_child=1 2 -4 -5 6 -7 -8
leaf_value=0.050287155897665976 0.038597498713684467 0.014351565868601644 0.036336623782125585 0.011173410249288094 0.029762764918621253 0.036827432973573049 0.0095238144005799896
leaf_weight=4262.0217132717371 3672.3809730112553 9386.7077646553516 17106.222897142172 37673.767082542181 4705.4478260576725 13962.270380333066 1478.508198723197
leaf_count=4479 7041 26773 36735 117537 8079 21151 3214
internal_value=0.0238896 0.0194534 0.0285552 0.013616 0.0362088 0.0399712 0.0249762
internal_weight=92247.3 67839.1 26492.9 41346.1 24408.2 18224.3 6183.96
internal_count=225009 188086 63508 124578 36923 25630 11293
cat_boundaries=0 1 2 4
cat_threshold=1 24 2016411819 46699899
is_linear=0
shrinkage=0.0448468


Tree=28
num_leaves=8
num_cat=2
split_feature=41 41 159 11 15 11 164
split_gain=2640.15 1210.12 1020.86 1014.74 938.412 276.822 270.68
threshold=0.43384745792380691 0.23988384837774554 246.05845989304819 0 -16200.499999999998 1 15290.673311688313
decision_type=10 8 10 9 2 9 8
left_child=1 5 -3 6 -5 -1 -2
right_child=3 2 -4 4 -6 -7 -8
leaf_value=0.027243207411777031 0.0064311028612443052 0.019580524559529612 0.034521293062720337 0.0087000857047064839 0.02486657944531254 0.042771681185205648 -0.01065642906978705
leaf_weight=3158.7637148946524 3974.8727564811707 27058.738463148475 14015.872016355395 14152.07192261517 14820.190802499652 11897.8301256001 3499.4811791032553
leaf_count=5250 14532 59938 25549 49692 40301 14689 14962
internal_value=0.02258 0.0286844 0.0246848 0.013173 0.0169705 0.0395772 -0.00155326
internal_weight=92577.8 56131.2 41074.6 36446.6 28972.3 15056.6 7474.35
internal_count=224913 105426 85487 119487 89993 19939 29494
cat_boundaries=0 1 2
cat_threshold=2 2
is_linear=0
shrinkage=0.0448468


Tree=29
num_leaves=8
num_cat=1
split_feature=41 11 15 156 15 39 172
split_gain=2480.63 1797.13 1292.48 604.843 531.242 626.107 298.383
threshold=0.63720984947910253 0 -18132.499999999996 -7.4165183867141158 -14713.499999999998 0.29896936973607929 85342.530389610401
decision_type=10 9 2 10 2 10 10
left_child=1 2 -1 -3 6 -6 -2
right_child=4 3 -4 -5 5 -7 -8
leaf_value=0.018177508916415817 -0.0039544591994527473 0.0059123982214355697 0.032761220608448417 0.022712790223232963 0.026889296314112656 -0.0049604386555220804 0.026985717675834721
leaf_weight=17246.159548297524 8688.2509213164449 11164.270029895008 42500.526291966438 7047.2265664339066 3578.1397444009781 1889.1695934981108 670.64859618246555
leaf_count=42739 35817 31443 78311 16507 10058 7629 2056
internal_value=0.0215912 0.0247893 0.0285504 0.0124171 0.00476506 0.0158677 -0.00171304
internal_weight=92784.4 77958.2 59746.7 18211.5 14826.2 5467.31 9358.9
internal_count=224560 169000 121050 47950 55560 17687 37873
cat_boundaries=0 1
cat_threshold=24
is_linear=0
shrinkage=0.0448468


Tree=30
num_leaves=8
num_cat=2
split_feature=40 41 38 150 26 121 41
split_gain=2419.33 1429.61 1308.23 786.852 607.365 362.644 295.587
threshold=0.6119015755816245 0.34496990492100627 0 19.514705882352946 1 -1078.4499999999998 0.16000423555253138
decision_type=8 8 9 10 9 8 10
left_child=1 6 -3 4 -2 -5 -1
right_child=3 2 -4 5 -6 -7 -8
leaf_value=0.04346099173390134 0.013463195299821967 0.027703936336536981 0.012757698220637416 0.0095182151081178393 -0.0023242898859255749 0.03190072489536154 0.03148134168006414
leaf_weight=6247.6849740296602 8721.0311690270901 25948.418997704983 21777.992675900459 2443.9738327562809 11139.21900678426 3681.8789250552654 13157.695248305798
leaf_count=6763 26286 52803 57627 8746 43461 9570 19701
internal_value=0.020581 0.0250793 0.0208966 0.00895334 0.00460955 0.0230034 0.0353534
internal_weight=93117.9 67131.8 47726.4 25986.1 19860.3 6125.85 19405.4
internal_count=224957 136894 110430 88063 69747 18316 26464
cat_boundaries=0 2 3
cat_threshold=557105378 14171480 250642
is_linear=0
shrinkage=0.0448468


Tree=31
num_leaves=8
num_cat=2
split_feature=40 41 11 150 40 38 183
split_gain=2270.02 1726.41 1415.35 369.457 317.742 305.439 104.999
threshold=0.20261157917236691 0.3178136513186039 0 18.80740740740741 0.069159962952844614 1 0.17210879983674129
decision_type=8 8 9 10 10 9 2
left_child=4 3 -3 -2 6 -6 -1
right_child=1 2 -4 -5 5 -7 -8
leaf_value=0.048085569168980075 0.024446618165189685 -0.00081492566506913917 0.016332799586630323 0.038500523432362529 0.035865252619487489 0.017957821842965346 0.029941593161784383
leaf_weight=4089.0167411267757 13064.642067044973 12131.511354975402 47771.537741824985 5381.6431907266378 7240.527357801795 2768.0662667900324 841.14512975513935
leaf_count=4313 22027 43455 131278 7525 9751 5486 1225
internal_value=0.0196195 0.0165603 0.0128609 0.0285615 0.0356468 0.0309882 0.0450436
internal_weight=93288.1 78349.3 59903 18446.3 14938.8 10008.6 4930.16
internal_count=225060 204285 174733 29552 20775 15237 5538
cat_boundaries=0 1 3
cat_threshold=2 1483755706 15248722
is_linear=0
shrinkage=0.0448468


Tree=32
num_leaves=8
num_cat=0
split_feature=40 39 178 41 40 159 39
split_gain=2225.77 1363.15 1179.87 645.859 372.615 336.492 206.077
threshold=0.39445093892802624 0.23040902602753108 0.4469336670838549 0.47674953178598795 0.16014926986677194 480.40025773195879 0.15037451173191699
decision_type=10 8 10 10 8 10 10
left_child=3 6 -3 4 -1 -5 -2
right_child=1 2 -4 5 -6 -7 -8
leaf_value=0.039647414118502089 0.048636859035102446 0.0086733756571089598 0.027576451155036524 0.0135589444376069 0.027687203541327535 0.031951300222823401 0.028692364552061658
leaf_weight=8092.6569236367941 1884.3980097174644 47029.96714438498 7740.5052959769964 7745.1411502808332 15526.000496357679 2723.4076032042503 2514.101490020752
leaf_count=9088 2700 142818 17622 18750 23841 5226 4965
internal_value=0.0185473 0.0132831 0.011349 0.0276786 0.0317969 0.0183665 0.0373042
internal_weight=93256.2 59169 54770.5 34087.2 23618.7 10468.5 4398.5
internal_count=225010 168105 160440 56905 32929 23976 7665
is_linear=0
shrinkage=0.0448468


Tree=33
num_leaves=8
num_cat=1
split_feature=40 154 159 121 38 16 40
split_gain=2105.98 1635.99 1150.97 804.658 306.393 220.123 170.42
threshold=0.2535371388973276 1.0000000180025095e-35 412.8557404580153 -909.95454545454538 0 -2442.4999999999995 0.069159962952844614
decision_type=8 10 10 8 9 2 10
left_child=4 2 -2 -3 5 -1 -6
right_child=1 3 -4 -5 6 -7 -8
leaf_value=0.023014879571326374 0.0051930031003863336 0.014595375339975052 0.021310156462087188 0.030001492626568801 0.036065727730232928 0.038030487612569046 0.018127557542424573
leaf_weight=2504.7454469949007 34827.625432483852 12438.644797645509 11988.511810481548 15240.351183883846 1434.8977322876453 10470.426962986588 4460.7757029533386
leaf_count=4149 105323 33919 28144 29698 1976 12888 8775
internal_value=0.0178346 0.0144401 0.00932435 0.0230858 0.0312218 0.0351227 0.0224991
internal_weight=93366 74495.1 46816.1 27679 18870.8 12975.2 5895.67
internal_count=224872 197084 133467 63617 27788 17037 10751
cat_boundaries=0 2
cat_threshold=537938682 13161810
is_linear=0
shrinkage=0.0448468


Tree=34
num_leaves=8
num_cat=1
split_feature=121 95 182 16 38 168 41
split_gain=1997.54 1318.92 1256.16 818.631 861.629 526.212 381.766
threshold=-1072.0741758241757 1.0000000180025095e-35 21.463504360703066 -2413.4999999999995 0 0.24778483494079828 0.6569710866047539
decision_type=8 2 8 2 9 10 8
left_child=3 5 -3 6 -5 -2 -1
right_child=1 2 -4 4 -6 -7 -8
leaf_value=0.0040235427503077714 0.0080388128922056334 0.030729431447208057 0.014990067884665064 -0.00049069345364633236 0.019094114194950527 0.038713103065078136 -0.013746907051750929
leaf_weight=6875.8035673499107 14384.580774560571 31053.03061875701 15259.591470897198 6546.5152402222157 14524.903403267264 1219.327942058444 3752.006078928709
leaf_count=19711 36704 56189 36663 22461 36351 2020 14817
internal_value=0.0170586 0.0217468 0.0255479 0.00789574 0.013014 0.0104537 -0.00224233
internal_weight=93615.8 61916.5 46312.6 31699.2 21071.4 15603.9 10627.8
internal_count=224916 131576 92852 93340 58812 38724 34528
cat_boundaries=0 2
cat_threshold=2819200772 50615177
is_linear=0
shrinkage=0.0448468


Tree=35
num_leaves=8
num_cat=1
split_feature=41 39 15 150 40 41 38
split_gain=2081.22 1615.82 1659.2 547.073 314.977 218.167 136.751
threshold=0.28151900404279145 0.42259178838259598 -17796.499999999996 17.781746031746035 0.66695024312404028 0.14599244001433323 0
decision_type=8 10 2 10 10 10 9
left_child=4 2 -2 -3 5 -1 -6
right_child=1 3 -4 -5 6 -7 -8
leaf_value=0.038667294047085729 0.0052457582990869554 -0.005427046303703365 0.021377046620339842 0.012810218718504383 -0.010312330601353401 0.027757774039162707 0.018809672240412391
leaf_weight=5968.8955237418413 18907.828702822328 11039.188716106117 40014.79808922112 4718.4060831815004 373.15848903357983 10339.771184131503 2045.9147594422102
leaf_count=6703 55839 39818 87597 14307 969 15120 3988
internal_value=0.0161487 0.0127923 0.0162034 2.86012e-05 0.0295204 0.0317673 0.0142938
internal_weight=93408 74680.2 58922.6 15757.6 18727.7 16308.7 2419.07
internal_count=224341 197561 143436 54125 26780 21823 4957
cat_boundaries=0 2
cat_threshold=2233534996 27312712
is_linear=0
shrinkage=0.0448468


Tree=36
num_leaves=8
num_cat=2
split_feature=182 182 0 182 40 1 165
split_gain=2102.31 1874.37 2846.13 1002.61 962.522 208.446 146.385
threshold=10.746441549945187 21.463504360703066 0 9.4251269031361158 0.2535371388973276 1 107711.10000000002
decision_type=10 10 1 8 8 9 10
left_child=3 2 -2 5 -3 -1 -5
right_child=1 4 -4 6 -6 -7 -8
leaf_value=-0.0023913392488846726 0.027267231764881571 0.025624476575017152 -0.002491088594197546 -0.005809641900317168 0.0058360541650007052 0.018777529052951346 -0.026932887165390624
leaf_weight=1613.0722205638885 44887.036625735462 6031.5244100242853 7542.2522409632802 859.50915184617043 27515.331125356257 2191.3466121256351 3113.1358728259802
leaf_count=4389 88618 9824 21399 2820 80966 4581 11885
internal_value=0.015666 0.0176861 0.0229843 -0.0066488 0.00940031 0.00977925 -0.0224036
internal_weight=93753.2 85976.1 52429.3 7777.06 33546.9 3804.42 3972.65
internal_count=224482 200807 110017 23675 90790 8970 14705
cat_boundaries=0 1 2
cat_threshold=1 1
is_linear=0
shrinkage=0.0448468


Tree=37
num_leaves=8
num_cat=2
split_feature=39 15 19 1 39 150 38
split_gain=1897.76 1660.9 1103.03 652.412 580.174 525.005 242.832
threshold=0.42259178838259598 -18749.499999999996 11.500000000000002 0 0.69494041054371813 16.679487179487186 1
decision_type=10 2 8 9 10 10 9
left_child=1 3 -3 -1 5 -2 -6
right_child=4 2 -4 -5 6 -7 -8
leaf_value=0.018871561898712402 0.00099692737422848012 0.008716775098858499 0.024866281895908095 0.00083306004749810045 -0.022156057523370055 0.019673865601559367 -0.0028000134526928473
leaf_weight=5835.2624921053648 9281.1837569773197 10527.302940025926 44975.348750695586 13080.231486096978 2063.6807702481747 4498.3671354651451 3574.9652466252446
leaf_count=13687 28335 25204 86423 38967 8495 11003 13158
internal_value=0.0146364 0.0178943 0.0218062 0.00640707 0.00214363 0.0071069 -0.00996089
internal_weight=93836.3 74418.1 55502.7 18915.5 19418.2 13779.6 5638.65
internal_count=225272 164281 111627 52654 60991 39338 21653
cat_boundaries=0 1 3
cat_threshold=2 1695761972 803465
is_linear=0
shrinkage=0.0448468


Tree=38
num_leaves=8
num_cat=1
split_feature=40 182 182 182 40 38 81
split_gain=2002.36 1379.33 1316.83 575.138 378.172 275.008 56.5692
threshold=0.26822675651948152 10.746441549945187 21.463504360703066 9.4669151571278505 0.069159962952844614 0 0.053950000000000005
decision_type=8 10 10 8 10 9 10
left_child=4 3 -3 -2 6 -6 -1
right_child=1 2 -4 -5 5 -7 -8
leaf_value=0.04018848658994266 0.0041076008561672346 0.017830215341916575 0.004997122705219007 -0.023004536417717658 0.027884703658563947 0.015725017195757859 0.027189400740819217
leaf_weight=3810.8717759251595 3164.6971120685339 39875.206260830164 27006.566615961492 3111.685291223228 9915.1698297411203 6316.5575927644968 948.61578576266766
leaf_count=4216 8301 93043 79644 12164 14229 12209 1308
internal_value=0.0142707 0.0107635 0.0126507 -0.00932235 0.0264834 0.0231924 0.0376501
internal_weight=94149.4 73158.2 66881.8 6276.38 20991.2 16231.7 4759.49
internal_count=225114 193152 172687 20465 31962 26438 5524
cat_boundaries=0 2
cat_threshold=538201320 13382994
is_linear=0
shrinkage=0.0448468


Tree=39
num_leaves=8
num_cat=1
split_feature=41 40 39 159 178 38 134
split_gain=1841.89 1261.74 1075.57 619.727 389.163 351.819 258.626
threshold=0.57179952324457861 0.7051774421261251 0.42259178838259598 374.34426757453076 0.58380149812734095 0 476.50000000000006
decision_type=10 10 10 10 10 9 10
left_child=1 2 -1 4 -2 -5 -3
right_child=3 6 -4 5 -6 -7 -8
leaf_value=0.021286557379564666 -0.0045983943358020541 -0.015757573142107639 0.0066204605430132723 0.041587105190274545 0.019131573686651058 0.0099581748462298746 0.0039563420022690112
leaf_weight=53112.906244456768 15080.95739338547 2158.8008065372705 12442.7747169137 813.42835839092731 1525.3718077987432 5261.4207144826651 3491.9106459468603
leaf_count=96125 57309 7830 31891 1715 4280 15599 10516
internal_value=0.0132072 0.0167524 0.0185053 0.00207114 -0.00240711 0.0143248 -0.0035612
internal_weight=93887.6 71206.4 65555.7 22681.2 16606.3 6074.85 5650.71
internal_count=225265 146362 128016 78903 61589 17314 18346
cat_boundaries=0 2
cat_threshold=17903752 4211016
is_linear=0
shrinkage=0.0448468


Tree=40
num_leaves=8
num_cat=4
split_feature=41 11 15 182 0 38 1
split_gain=1754.64 1057.52 819.245 638.834 692.642 502.18 217.331
threshold=0.50197671872363325 0 -19339.499999999996 10.746441549945187 1 2 3
decision_type=10 9 2 10 1 9 9
left_child=1 5 -3 6 -5 -1 -2
right_child=3 2 -4 4 -6 -7 -8
leaf_value=-0.010470881471792381 -0.026209030507856525 0.0085574140595594088 0.02266601455984699 0.0081763293547261143 -0.01703699478777345 0.010356774122521407 -0.0015160651243757391
leaf_weight=3088.2430403828621 1722.1142057999969 10437.95486907661 40678.482442602515 25112.454429812729 2393.9941702485085 9293.6953591704369 1244.5840126797557
leaf_count=8758 7629 23913 70411 79802 9231 21441 4169
internal_value=0.0126908 0.0169364 0.0197844 0.00383911 0.00597527 0.00514652 -0.0159069
internal_weight=93971.5 63498.4 51116.4 30473.1 27506.4 12381.9 2966.7
internal_count=225354 124523 94324 100831 89033 30199 11798
cat_boundaries=0 1 2 4 5
cat_threshold=2 1 3439533652 19950212 1
is_linear=0
shrinkage=0.0448468


Tree=41
num_leaves=8
num_cat=0
split_feature=40 178 165 157 148 170 165
split_gain=1741.76 1338.6 1423.35 470.916 315.044 257.992 227.586
threshold=0.65582424677266327 0.4469336670838549 124359.03000000001 -1.0000000180025095e-35 -1363.4999999999998 16.205505279034693 88493.422500000015
decision_type=10 10 8 10 10 8 8
left_child=1 2 -1 6 -5 -3 -2
right_child=3 5 -4 4 -6 -7 -8
leaf_value=0.022715730617290372 0.0042554685879732396 0.025065571596508074 0.0081434785268363948 -0.0011704930031235774 0.013935914069333921 0.040578544387152846 -0.016791622535668443
leaf_weight=19170.100365296006 1362.8747524470091 8460.8564616292715 45587.598188742995 7696.7556561529636 4327.8425906822085 2968.066645860672 4147.0697228759527
leaf_count=37184 4832 14631 108008 26467 12329 4226 17485
internal_value=0.0120295 0.0149624 0.0124603 -0.0007079 0.00426007 0.0291188 -0.0115654
internal_weight=93721.2 76186.6 64757.7 17534.5 12024.6 11428.9 5509.94
internal_count=225162 164049 145192 61113 38796 18857 22317
is_linear=0
shrinkage=0.0448468


Tree=42
num_leaves=8
num_cat=2
split_feature=40 11 15 183 40 38 6
split_gain=1729.94 1413.85 1144.29 445.252 184.297 177.991 80.7284
threshold=0.18397173769750683 0 -17351.499999999996 0.14010449465881583 0.069159962952844614 1 216387.00000000003
decision_type=8 9 2 2 10 9 2
left_child=4 3 -3 -2 6 -6 -1
right_child=1 2 -4 -5 5 -7 -8
leaf_value=0.018522611669852123 0.0031685518355437747 0.0042355329918839918 0.016744019316357179 -0.012046123604975516 0.027677201324116361 0.013317959353818791 0.036733953307667211
leaf_weight=606.79879939556122 10693.75920189172 22840.350041635334 41477.211124919355 6049.7318178936839 5450.899555310607 2724.1036550700665 3955.0629939436913
leaf_count=913 31175 65706 89214 20785 7364 5114 4528
internal_value=0.011699 0.00928156 0.0123025 -0.00232224 0.0270662 0.0229666 0.0343576
internal_weight=93797.9 81061.1 64317.6 16743.5 12736.9 8175 4561.86
internal_count=224799 206880 154920 51960 17919 12478 5441
cat_boundaries=0 1 3
cat_threshold=2 486803186 15238490
is_linear=0
shrinkage=0.0448468


Tree=43
num_leaves=8
num_cat=3
split_feature=41 1 182 19 41 38 38
split_gain=1583.1 1406.84 1239.23 1232.97 208.014 179.912 101.682
threshold=0.24518380290995226 0 10.265329860457696 12.500000000000002 0.14599244001433323 1 2
decision_type=8 9 10 8 10 9 9
left_child=4 3 -3 -2 6 -6 -1
right_child=1 2 -4 -5 5 -7 -8
leaf_value=0.034016454358731747 0.0023648314386882641 -0.022191071189634468 0.0060798856005236778 0.022111187100062442 0.024212373930551121 0.0088690468792793197 0.019507511425605799
leaf_weight=5108.8079411238432 8980.6890195384622 3344.1496206671 45119.297077514231 21911.897599518299 5837.944046035409 2184.9895812571049 1413.6190958619118
leaf_count=6021 24439 12092 122460 44959 8540 4006 2111
internal_value=0.0113923 0.0088961 0.00412482 0.0163757 0.0249963 0.0200967 0.0309873
internal_weight=93901.4 79356 48463.4 30892.6 14545.4 8022.93 6522.43
internal_count=224628 203950 134552 69398 20678 12546 8132
cat_boundaries=0 1 3 5
cat_threshold=2 1356429498 6849873 1745904299 34129226
is_linear=0
shrinkage=0.0448468


Tree=44
num_leaves=8
num_cat=1
split_feature=178 165 150 157 11 148 170
split_gain=1645.99 1663.83 1553.6 794.494 324.773 246.651 138.342
threshold=0.68790584415584421 124359.03000000001 22.806250000000002 1.5000000000000002 0 -1030.4999999999998 16.205505279034693
decision_type=10 8 10 8 9 10 10
left_child=1 3 -3 -1 5 -2 -6
right_child=4 2 -4 -5 6 -7 -8
leaf_value=0.013074300539388066 0.023575331969078756 0.00091891479867693324 0.018813098135087147 0.030855244600828707 0.0075977894810440065 0.038246754151712935 0.033117491023983141
leaf_weight=15577.14210690558 5180.1469796746969 46620.120979748666 12342.738112218678 7517.4667317867279 2242.5658632665873 4315.0150652080774 531.53275188803673
leaf_count=36430 9589 126453 27673 13078 5253 5968 971
internal_value=0.0109616 0.00866775 0.00466783 0.018872 0.0262845 0.030238 0.0125298
internal_weight=94326.7 82057.5 58962.9 23094.6 12269.3 9495.16 2774.1
internal_count=225415 203634 154126 49508 21781 15557 6224
cat_boundaries=0 1
cat_threshold=24
is_linear=0
shrinkage=0.0448468


Tree=45
num_leaves=8
num_cat=1
split_feature=40 121 157 154 38 39 150
split_gain=1630.14 1161.44 748.185 640.94 403.624 333.68 299.67
threshold=0.65582424677266327 -737.96666666666658 3.5000000000000004 1.0000000180025095e-35 0 0.57875473538267719 25.345238095238098
decision_type=8 8 10 10 9 10 10
left_child=1 2 -1 -3 5 -2 -6
right_child=4 3 -4 -5 6 -7 -8
leaf_value=0.001890961552414701 0.006601442493143676 0.014213007788823829 0.014369400041490746 0.026419980676360963 -0.014847055417045054 -0.014046658542753068 0.012187016881350673
leaf_weight=20915.152634441853 9439.8485617637634 23364.810998648405 18001.792159825563 13831.788394451141 5569.1011494398117 1882.1072266772389 959.64205260574818
leaf_count=56568 27819 45718 39393 21766 22798 8053 2939
internal_value=0.0102289 0.0130895 0.00766708 0.018758 -0.00196244 0.00315177 -0.0108334
internal_weight=93964.2 76113.5 38916.9 37196.6 17850.7 11322 6528.74
internal_count=225054 163445 95961 67484 61609 35872 25737
cat_boundaries=0 2
cat_threshold=283722931 13405523
is_linear=0
shrinkage=0.0448468


Tree=46
num_leaves=8
num_cat=1
split_feature=40 154 165 148 40 38 16
split_gain=1579.35 1276.49 1195.73 486.688 326.368 310.05 62.5177
threshold=0.25777745582296024 1.5000000000000002 76348.327500000014 -1193.4999999999998 0.069159962952844614 0 -5527.4999999999991
decision_type=8 10 8 10 10 9 2
left_child=4 2 -2 -3 6 -6 -1
right_child=1 3 -4 -5 5 -7 -8
leaf_value=-3.3211476377931959e-05 0.018531309481256447 0.012338275078382468 0.0011685163170546639 0.028756114277391553 0.023474809467816243 0.0097502701007872988 0.03288326078815617
leaf_weight=111.93385015428066 9496.6612601429224 10085.730261616409 49860.425701223314 5720.9467513486743 8631.1788899302483 5523.3576505333185 4425.0848831236362
leaf_count=225 21786 23525 140621 10134 12419 10804 5264
internal_value=0.00987281 0.00696866 0.00394957 0.0182942 0.0215405 0.0181557 0.0320464
internal_weight=93855.3 75163.8 59357.1 15806.7 18691.6 14154.5 4537.02
internal_count=224778 196066 162407 33659 28712 23223 5489
cat_boundaries=0 2
cat_threshold=16782584 13116754
is_linear=0
shrinkage=0.0448468


Tree=47
num_leaves=8
num_cat=0
split_feature=178 165 150 157 150 165 39
split_gain=1506.39 1595.42 1434.81 579.026 274.098 451.437 80.3252
threshold=0.68790584415584421 106002.54000000002 19.023809523809529 1.5000000000000002 17.781746031746035 349665.7275000001 0.73520805349031793
decision_type=10 8 10 8 10 8 10
left_child=1 3 -3 -1 5 -2 -6
right_child=4 2 -4 -5 6 -7 -8
leaf_value=0.013454151113592742 0.033822549234501217 -0.00016890869323804824 0.014978316966436662 0.030048433895852562 0.035877516687220876 0.012053357129969194 0.0016598495457900522
leaf_weight=13244.108715668321 3011.9907468408346 44759.433855809271 17480.412225112319 6254.1433041989803 3650.1295249909163 5349.3974307104945 151.26281882822514
leaf_count=30364 4377 121665 40019 10590 5444 11323 435
internal_value=0.00978814 0.00759409 0.00408419 0.0187885 0.0245152 0.019923 0.03455
internal_weight=93900.9 81738.1 62239.8 19498.3 12162.8 8361.39 3801.39
internal_count=224217 202638 161684 40954 21579 15700 5879
is_linear=0
shrinkage=0.0448468


Tree=48
num_leaves=8
num_cat=1
split_feature=16 38 40 178 170 41 150
split_gain=1496.08 1279.07 843.794 483.851 469.899 454.433 132.903
threshold=-3097.4999999999995 0 0.71905256719745669 0.25121359223300976 14.680336134453784 0.32726918529310883 15.026315789473687
decision_type=2 9 10 10 10 8 8
left_child=3 4 -3 5 -2 -1 -5
right_child=1 2 -4 6 -6 -7 -8
leaf_value=0.0091610032240340249 -0.0010014416029776034 0.016422180283366231 -0.0076584094849231144 0.0037689187182609212 0.014958194082389785 -0.011135865396320358 0.023243842874171999
leaf_weight=2776.3679733872414 17711.812913551927 51820.565671756864 3092.475206002593 1468.5499749258161 4685.6028221845627 10884.786471769214 1384.7234953790903
leaf_count=5157 50740 104398 10848 3661 11354 36213 2797
internal_value=0.00876003 0.0113776 0.0150607 -0.00348664 0.00233347 -0.00700077 0.0132826
internal_weight=93824.9 77310.5 54913 16514.4 22397.4 13661.2 2853.27
internal_count=225168 177340 115246 47828 62094 41370 6458
cat_boundaries=0 2
cat_threshold=2617939724 51858084
is_linear=0
shrinkage=0.0448468


Tree=49
num_leaves=8
num_cat=2
split_feature=41 1 182 11 40 8 40
split_gain=1440.1 1223.92 1022.98 670.272 230.984 206.934 75.5253
threshold=0.24518380290995226 0 10.265329860457696 1 0.46567737488386479 675191.25000000012 0.078707378021973612
decision_type=8 9 10 9 8 10 10
left_child=4 3 -3 -2 6 -6 -1
right_child=1 2 -4 -5 5 -7 -8
leaf_value=0.038519911891306921 0.016452690081293915 -0.022299716615871094 0.0033574906458333146 0.00028642976259633893 0.019698333019940981 0.00076801462051133353 0.025318618694273709
leaf_weight=1101.5648817121983 24241.50381962955 3352.2163866013288 45240.749634705484 6581.0701101869345 5899.5865070670843 1462.2917716801167 5745.5676228404045
leaf_count=1010 50675 12093 122655 18662 9307 3026 7299
internal_value=0.0083758 0.00602037 0.00158323 0.0130107 0.0215263 0.0159567 0.0274832
internal_weight=93624.6 79415.5 48593 30822.6 14209 7361.88 6847.13
internal_count=224727 204085 134748 69337 20642 12333 8309
cat_boundaries=0 1 2
cat_threshold=2 24
is_linear=0
shrinkage=0.0448468


Tree=50
num_leaves=8
num_cat=1
split_feature=95 8 1 40 159 130 170
split_gain=1357.37 1268.15 1069.78 546.331 440.278 357.63 155.524
threshold=1.0000000180025095e-35 675191.25000000012 0 0.69025979777882818 488.64342615769721 91598.66480769233 15.251506024096388
decision_type=2 8 9 10 10 10 10
left_child=3 2 -2 4 -1 -3 -5
right_child=1 5 -4 6 -6 -7 -8
leaf_value=-0.002153086155322973 0.0097711712512258721 -0.0048291287066470181 0.022872999860067345 -0.022329889470022866 0.01282868844075147 0.0089133380316944455 0.0044523959408755932
leaf_weight=15486.698947280645 33728.956056527793 10113.860822275281 20004.654148489237 2741.6109536066651 5285.6711934655905 6101.9605473354459 508.54016551375389
leaf_count=41368 78700 29777 36190 11249 11122 15401 1696
internal_value=0.00817697 0.0113356 0.0146526 -0.00101586 0.0016555 0.000336002 -0.0181034
internal_weight=93972 69949.4 53733.6 24022.5 20772.4 16215.8 3250.15
internal_count=225503 160068 114890 65435 52490 45178 12945
cat_boundaries=0 1
cat_threshold=1
is_linear=0
shrinkage=0.0448468


Tree=51
num_leaves=8
num_cat=0
split_feature=40 157 148 158 39 150 157
split_gain=1447.92 876.603 987.372 669.772 536.446 479.516 362.46
threshold=0.48809996604069344 1.5000000000000002 -1018.4999999999999 -234.49999999999997 0.19646957916150928 17.781746031746035 2.5000000000000004
decision_type=8 10 10 10 8 8 8
left_child=3 4 -3 5 -2 -1 -5
right_child=1 2 -4 6 -6 -7 -8
leaf_value=0.002118846657515805 0.025644746427234511 0.0037900184898848502 0.024880975161582157 0.014538474599778839 -0.0046971963549144163 0.01581110084394997 0.026004824882077372
leaf_weight=11776.785672187805 1227.8908894509077 19178.783184483647 5822.8049462884665 13776.149824813008 23575.744394920766 9163.3895606398582 9403.6739360541105
leaf_count=25291 2201 52340 11747 24978 77455 16904 14072
internal_value=0.00802772 0.00278365 0.00871028 0.013944 -0.00318608 0.0081182 0.0191993
internal_weight=93925.2 49805.2 25001.6 44120 24803.6 20940.2 23179.8
internal_count=224988 143743 64087 81245 79656 42195 39050
is_linear=0
shrinkage=0.0448468


Tree=52
num_leaves=8
num_cat=0
split_feature=40 7 8 178 178 41 56
split_gain=1383.35 1277.08 1650.66 568.024 223.89 187.373 106.137
threshold=0.69025979777882818 16413.750000000004 450117.00000000006 0.86899313501144182 1.8010416666666669 0.23466284194682538 0.14235000000000003
decision_type=10 10 8 10 10 8 10
left_child=1 3 -3 -1 5 -2 -6
right_child=4 2 -4 -5 6 -7 -8
leaf_value=-0.0029036702413413576 0.0084596267294604725 0.020932705259785911 0.0063525166769622058 0.021441640738293449 0.022216748757355183 -0.01106884347507533 -0.023920639144228199
leaf_weight=17466.833463184536 1098.3997933119535 28282.412279076874 34948.945812001824 2161.9372564852238 689.67522163689137 9094.83971580863 111.10333436727524
leaf_count=43916 2202 52387 84981 3623 1635 35612 405
internal_value=0.00779117 0.00977499 0.0128769 -0.000212045 -0.00714788 -0.00895033 0.0155736
internal_weight=93854.1 82860.1 63231.4 19628.8 10994 10193.2 800.779
internal_count=224761 184907 137368 47539 39854 37814 2040
is_linear=0
shrinkage=0.0448468


Tree=53
num_leaves=8
num_cat=2
split_feature=40 11 130 38 40 178 6
split_gain=1323.92 1091.28 818.839 436.84 405.03 307.497 81.9828
threshold=0.30739200574731468 0 60340.05000000001 1 0.069159962952844614 0.77095883534136556 90504.000000000015
decision_type=8 9 8 9 10 10 2
left_child=4 2 -2 -3 6 -6 -1
right_child=1 3 -4 -5 5 -7 -8
leaf_value=-0.030100576766023807 0.00057952202519433193 0.00055439613701055998 0.011928203610031499 -0.013631665350636684 0.011022197572022371 0.027867343528166683 0.029025593164055515
leaf_weight=42.320964962244034 22467.896210491657 9623.0512808635831 29742.254118561745 7958.1564307138324 16561.555266559124 2523.2449048608541 4353.4682943969965
leaf_count=111 63558 27208 67683 27530 30058 3284 5375
internal_value=0.00689325 0.00379144 0.0070458 -0.00586629 0.0161053 0.0132614 0.0283998
internal_weight=93271.9 69791.4 52210.2 17581.2 23480.6 19084.8 4395.79
internal_count=224807 185979 131241 54738 38828 33342 5486
cat_boundaries=0 1 3
cat_threshold=24 951107754 13743417
is_linear=0
shrinkage=0.0448468


Tree=54
num_leaves=8
num_cat=1
split_feature=41 16 38 157 49 41 134
split_gain=1389.64 1193.03 874.218 567.89 354.083 256.354 92.986
threshold=0.31469441606860521 -2413.4999999999995 0 1.0000000180025095e-35 0.18895000000000003 0.16000423555253138 985.50000000000011
decision_type=8 2 9 10 10 10 8
left_child=4 3 -3 -2 5 -1 -6
right_child=1 2 -4 -5 6 -7 -8
leaf_value=0.026907119978792551 -0.014861541513826041 -0.0014842088819018119 0.011033210896283537 0.00088817966254809756 -0.0079721129662133402 0.015542479861241607 0.008446899974259266
leaf_weight=6213.9707500338554 7966.0299578383565 15903.174566842616 37993.016909331083 10871.715568318963 997.65747854113579 11530.638726487756 2221.4581605195999
leaf_count=7912 27763 48243 86428 29741 2146 18898 4066
internal_value=0.00687775 0.00394303 0.00733949 -0.0057678 0.0170513 0.0195346 0.00331837
internal_weight=93697.7 72733.9 53896.2 18837.7 20963.7 17744.6 3219.12
internal_count=225197 192175 134671 57504 33022 26810 6212
cat_boundaries=0 2
cat_threshold=2348979204 52941477
is_linear=0
shrinkage=0.0448468


Tree=55
num_leaves=8
num_cat=1
split_feature=170 165 178 7 39 133 38
split_gain=1282.78 1511.11 980.009 759.728 320.303 240.251 94.7959
threshold=17.648398398398403 188542.55250000002 0.26944684528954194 16503.750000000004 0.60300265417837651 -300.72115384615375 0
decision_type=10 8 10 10 10 8 9
left_child=1 3 -3 -1 5 -2 -6
right_child=4 2 -4 -5 6 -7 -8
leaf_value=0.00088637374883047276 0.011702601251896287 -0.0035929523123005378 0.011671916368062226 0.016244486209466325 0.01354549727206677 0.028201827201183267 -0.010169619472345038
leaf_weight=8871.9907674118876 2418.8227709680796 38703.385026477277 10819.205698087811 24173.439749255776 604.5393246114254 7069.2829797416925 733.8871783092618
leaf_count=21551 5979 107025 22522 51412 1677 12319 2371
internal_value=0.00660455 0.0046989 -0.000254936 0.0121254 0.0211192 0.0240154 0.000490252
internal_weight=93394.6 82568 49522.6 33045.4 10826.5 9488.11 1338.43
internal_count=224856 202510 129547 72963 22346 18298 4048
cat_boundaries=0 2
cat_threshold=137953417 35956766
is_linear=0
shrinkage=0.0448468


Tree=56
num_leaves=8
num_cat=1
split_feature=182 182 0 182 170 159 170
split_gain=1402.96 1307.87 2104.43 637.155 500.634 190.927 186.514
threshold=10.746441549945187 21.463504360703066 0 9.4251269031361158 18.003246753246756 1086.8690885167468 15.903001792114697
decision_type=10 10 1 8 10 8 8
left_child=3 2 -2 5 -3 -1 -5
right_child=1 4 -4 6 -6 -7 -8
leaf_value=-0.00538866388426617 0.015751383698870587 -0.0014540892712507831 -0.0099181597488698665 -0.028428381050966997 0.014825598277672672 0.017155074044036472 0.0012981536797959155
leaf_weight=2715.4734672009945 44206.281441368163 29255.593807689846 7506.2766061201692 3510.720708578825 4360.8341447040439 1040.963939294219 473.94703134149313
leaf_count=6917 88901 80982 21419 13361 10076 2043 1417
internal_value=0.00588679 0.0075462 0.0120226 -0.0123834 0.000656015 0.00084073 -0.0248661
internal_weight=93070.1 85329 51712.6 7741.11 33616.4 3756.44 3984.67
internal_count=225116 201378 110320 23738 91058 8960 14778
cat_boundaries=0 1
cat_threshold=1
is_linear=0
shrinkage=0.0448468


Tree=57
num_leaves=8
num_cat=2
split_feature=39 41 159 150 41 38 38
split_gain=1251.52 1088.89 1091.3 247.552 179.351 175.406 161.005
threshold=0.66507883692767666 0.26575311909471833 515.24984509466447 18.414285714285715 0.14599244001433323 0 1
decision_type=10 8 10 10 10 9 9
left_child=1 4 -3 5 -1 -2 -5
right_child=3 2 -4 6 -6 -7 -8
leaf_value=0.024534776160153784 -0.040246265180475013 0.0016577842831629044 0.014427276203067626 0.013044073537907666 0.014327164419376441 -0.014521995555526603 -0.011334638273432052
leaf_weight=5720.3078564703465 617.07739375531673 52862.89934360981 18067.499161273241 1028.2445169016719 9115.0424734354019 4315.0236961841583 1126.1478855982423
leaf_count=7423 2797 138725 37809 2886 14526 16492 3740
internal_value=0.00572908 0.00722668 0.00491279 -0.0123727 0.0182771 -0.0179086 0.000257911
internal_weight=92852.2 85765.7 70930.4 7086.49 14835.4 4932.1 2154.39
internal_count=224398 198483 176534 25915 21949 19289 6626
cat_boundaries=0 2 4
cat_threshold=1700938772 811592 138936462 44339262
is_linear=0
shrinkage=0.0448468


Tree=58
num_leaves=8
num_cat=3
split_feature=154 16 38 0 135 38 81
split_gain=1265.75 1101.4 929.443 425.921 421.744 278.203 149.463
threshold=1.5000000000000002 -2442.4999999999995 0 1 4.5000000000000009 2 0.074450000000000002
decision_type=10 2 9 1 8 9 10
left_child=1 3 -3 -1 5 -2 -6
right_child=4 2 -4 -5 6 -7 -8
leaf_value=-0.0048464462063322923 -0.0012896710361896832 -0.0027539020089922422 0.0098440521399067154 -0.031412804876480946 0.028725511219814981 0.014393970499141146 0.011034117113047364
leaf_weight=16960.249217577279 2864.8695363253355 17037.719141438603 38035.268351554871 1305.6923117414117 4971.9310404956341 10859.644052013755 1228.6902434378862
leaf_count=49101 7734 49165 82632 4880 7626 21649 2478
internal_value=0.00550538 0.0027798 0.00594595 -0.00675908 0.0155287 0.0111219 0.0252491
internal_weight=93264.1 73338.9 55073 18265.9 19925.1 13724.5 6200.62
internal_count=225265 185778 131797 53981 39487 29383 10104
cat_boundaries=0 2 3 5
cat_threshold=2353706508 51674020 1 3038904644 33579525
is_linear=0
shrinkage=0.0448468


Tree=59
num_leaves=8
num_cat=1
split_feature=39 182 182 182 15 39 38
split_gain=1238.56 1139.44 1075.4 543.212 262.476 168.03 156.181
threshold=0.27043815737031385 10.746441549945187 12.73565285105564 9.4669151571278505 -10230.499999999998 0.15037451173191699 0
decision_type=8 10 10 8 2 10 9
left_child=4 3 -3 -2 5 -1 -6
right_child=1 2 -4 -5 6 -7 -8
leaf_value=0.036586801585377852 -0.0013435384019065565 0.023523696192226454 0.0034386754196809315 -0.026589991055478827 0.019816844870135492 0.020655382294326865 0
leaf_weight=1897.7047838419676 3412.0094700604677 5803.2572890371084 70306.150726564229 3461.748804807663 1520.981095790863 4837.8138726651669 1678.3789135217667
leaf_count=2414 8542 10100 176444 13455 2408 8258 3370
internal_value=0.00518612 0.00339233 0.00497296 -0.014084 0.0201491 0.0251826 0.00949552
internal_weight=92918 82983.2 76109.4 6873.76 9934.88 6735.52 3199.36
internal_count=224991 208541 186544 21997 16450 10672 5778
cat_boundaries=0 2
cat_threshold=1346398290 46663506
is_linear=0
shrinkage=0.0448468


Tree=60
num_leaves=8
num_cat=0
split_feature=159 41 165 148 150 168 40
split_gain=1143.85 1034.02 973.19 694.925 371.939 305.788 142.999
threshold=497.11314923619278 0.21215353482979957 98935.987500000017 -1089.4999999999998 23.171568627450984 0.39886363636363642 0.65582424677266327
decision_type=10 8 8 10 10 10 8
left_child=1 6 -3 4 -2 -5 -1
right_child=3 2 -4 5 -6 -7 -8
leaf_value=0.020807336958541596 0.0052275154917390933 0.011133148075859873 -0.002555391648952042 0.020641165964419741 0.022809323655075424 0.04532197240151243 0.0030545838053217945
leaf_weight=6302.0606523156166 13811.855212286115 13383.956239722669 47512.102597214282 7069.9495141804218 2939.9786780327559 1191.7041060179472 1087.3156408667564
leaf_count=8643 31606 30707 132800 12406 5426 1390 2196
internal_value=0.00538453 0.00237672 0.00045182 0.0135892 0.00832537 0.024238 0.0182142
internal_weight=93298.9 68285.4 60896.1 25013.5 16751.8 8261.65 7389.38
internal_count=225174 174346 163507 50828 37032 13796 10839
is_linear=0
shrinkage=0.0448468


Tree=61
num_leaves=8
num_cat=1
split_feature=40 39 11 40 15 178 183
split_gain=1172.66 1014.42 927.123 251.598 198.082 172.765 60.2967
threshold=0.22364254627591948 0.24768607424338077 0 0.057817459739811505 -10610.499999999998 0.88284313725490204 0.22594009534925724
decision_type=8 8 9 10 2 10 2
left_child=3 4 -3 6 -2 -5 -1
right_child=1 2 -4 5 -6 -7 -8
leaf_value=0.028808254484376242 0.025593102814575833 0.0040564681228599823 -0.0078306542145149052 0.010910452597971928 0.0098728910028596708 0.027221156957909411 0.0096531031468642444
leaf_weight=3222.5538204759359 4053.2243461608887 53910.864091388881 17454.203584738076 9821.961569622159 2739.3328755348921 1520.8982727825642 395.84771670401096
leaf_count=3904 6541 135564 54610 16970 5092 1897 651
internal_value=0.00492936 0.00272524 0.0011467 0.0164317 0.0192812 0.0131176 0.0267593
internal_weight=93118.9 78157.6 71365.1 14961.3 6792.56 11342.9 3618.4
internal_count=225229 201807 190174 23422 11633 18867 4555
cat_boundaries=0 1
cat_threshold=24
is_linear=0
shrinkage=0.0448468


Tree=62
num_leaves=8
num_cat=1
split_feature=39 38 19 170 170 165 154
split_gain=1213.82 928.089 697.907 518.816 518.776 361.462 168.148
threshold=0.44116898545195427 0 11.500000000000002 18.003246753246756 12.002717391304349 104141.54250000003 1.5000000000000002
decision_type=10 9 8 10 10 8 10
left_child=1 2 -1 -3 5 -2 -6
right_child=4 3 -4 -5 6 -7 -8
leaf_value=-0.00011418261334115944 0.0031616458478415906 -0.0015803051440717916 0.013813134674977098 0.016621358781585577 0.0013700301664595564 -0.014115681111422688 0.019393521585315415
leaf_weight=8949.3513265401125 3158.4672951698303 24334.312819130719 37441.300620555878 3612.5429849475622 3488.9375074878335 10464.821994967759 1489.6585774570704
leaf_count=21330 8928 64548 73002 7793 10264 36000 3231
internal_value=0.00466923 0.00723363 0.0111217 0.000770397 -0.00557177 -0.0101018 0.00679879
internal_weight=92939.4 74337.5 46390.7 27946.9 18601.9 13623.3 4978.6
internal_count=225096 166673 94332 72341 58423 44928 13495
cat_boundaries=0 2
cat_threshold=540376306 13272401
is_linear=0
shrinkage=0.0448468


Tree=63
num_leaves=8
num_cat=2
split_feature=39 19 1 159 15 182 38
split_gain=1064.91 1082.14 1162.33 360.724 131.477 68.309 66.516
threshold=0.19232159378939623 9.5000000000000018 0 1307.6941911764709 -9873.4999999999982 10.845397611218624 1
decision_type=8 8 9 10 2 10 9
left_child=4 3 -3 -2 5 -1 -6
right_child=1 2 -4 -5 6 -7 -8
leaf_value=0.0075017458940011411 -0.011541751268431629 0.013472101328305806 0.0016238952240294308 0.0086635167052215717 0.018543940707868477 0.030742389647182941 -0.0025409149985966308
leaf_weight=293.07884991168976 11078.750471964478 25169.032889321446 49284.766986966133 2106.325026601553 1133.3600787818432 3412.0753487944603 398.05385878682137
leaf_count=562 33084 51656 127548 4674 1746 4661 809
internal_value=0.0047093 0.00353323 0.0056313 -0.0083033 0.0243499 0.0289466 0.0131007
internal_weight=92875.4 87638.9 74453.8 13185.1 5236.57 3705.15 1531.41
internal_count=224740 216962 179204 37758 7778 5223 2555
cat_boundaries=0 1 3
cat_threshold=2 1426085944 13110272
is_linear=0
shrinkage=0.0448468


Tree=64
num_leaves=8
num_cat=0
split_feature=158 150 39 168 154 121 126
split_gain=1134.83 947.194 636.111 632.189 572.764 255.95 222.886
threshold=-175.49999999999997 18.80740740740741 0.25784176210723891 0.22749774977497753 1.0000000180025095e-35 -1441.9583333333333 304573.50000000006
decision_type=10 10 8 8 8 8 10
left_child=1 2 -1 4 -2 -3 -5
right_child=3 5 -4 6 -6 -7 -8
leaf_value=0.013468236178210654 0.0044671662054800625 -0.0026923675020137784 -0.0052257515666030213 0.037164724441103546 0.017431672464637515 0.012132379570521027 0.01682072533391293
leaf_weight=4074.135829731822 22666.545946277678 2819.9995276927948 35547.631806321442 2089.258764244616 9846.6613490134478 13438.52434168756 2337.802656210959
leaf_count=7316 55317 8211 99043 2850 18852 28867 4470
internal_value=0.00447288 0.000438771 -0.00329929 0.0105714 0.00839892 0.0095539 0.0264758
internal_weight=92820.6 55880.3 39621.8 36940.3 32513.2 16258.5 4427.06
internal_count=224926 143437 106359 81489 74169 37078 7320
is_linear=0
shrinkage=0.0448468


Tree=65
num_leaves=8
num_cat=0
split_feature=40 150 165 165 170 178 7
split_gain=1068.26 857.022 874.352 336.51 298.914 293.986 168.62
threshold=0.31222210759804414 17.781746031746035 204917.76000000004 126301.455 12.50182481751825 2.0113636363636371 13007.250000000002
decision_type=10 10 8 8 10 10 10
left_child=3 2 -2 6 -5 -3 -1
right_child=1 5 -4 4 -6 -7 -8
leaf_value=0.0050228447190150717 0.0047690621687083183 0.0075060718433139348 -0.0073451616763189871 0.0049587562956196346 0.018324773371226215 0.028919752928296173 0.023666603695328074
leaf_weight=1193.88154104352 21470.97796240449 18962.184092231095 27088.83129093796 11792.567374452949 4729.8616504967213 1385.1554339379072 5851.7254549413919
leaf_count=2205 54493 46839 80639 22293 7469 2257 8280
internal_value=0.00407027 0.00124917 -0.00198646 0.0123117 0.008796 0.00897558 0.0205291
internal_weight=92475.2 68907.1 48559.8 23568 16522.4 20347.3 7045.61
internal_count=224475 184228 135132 40247 29762 49096 10485
is_linear=0
shrinkage=0.0448468


Tree=66
num_leaves=8
num_cat=1
split_feature=130 11 126 7 41 168 135
split_gain=1003.36 682.423 641.464 616.86 558.461 241.663 220.168
threshold=61165.040625000009 0 129864.87000000001 16503.750000000004 0.7039548641001806 0.20530382859149984 3.5000000000000004
decision_type=8 9 10 10 8 10 10
left_child=2 6 5 -3 -4 -1 -2
right_child=1 3 4 -5 -6 -7 -8
leaf_value=0.0076306424493556482 -0.0053876801148275213 0.00077462882022152348 -0.00090981381958002633 0.013717733460529319 -0.015255397991405548 0.033947966468477635 0.0088302919938114434
leaf_weight=6888.5682488009334 8309.7279343307018 9604.0162179395556 24538.701969973743 32646.564038291574 7022.3305588141084 781.96135833859444 2966.1838112026453
leaf_count=15985 24261 21884 63605 66131 24779 1162 7006
internal_value=0.00416834 0.00816154 -0.00127724 0.0107762 -0.0041071 0.0103469 -0.00163381
internal_weight=92758.1 53526.5 39231.6 42250.6 31561 7670.53 11275.9
internal_count=224813 119282 105531 88015 88384 17147 31267
cat_boundaries=0 1
cat_threshold=2
is_linear=0
shrinkage=0.0448468


Tree=67
num_leaves=8
num_cat=0
split_feature=178 165 170 7 165 170 172
split_gain=1091.18 1026.47 1033.85 540.654 345.317 330.807 141.323
threshold=0.64031250000000017 118702.12500000001 13.045875420875422 14006.250000000002 340289.28000000009 7.6769449715370035 21446.440342105267
decision_type=10 8 10 10 8 10 10
left_child=1 3 -3 -1 6 -6 -2
right_child=4 2 -4 -5 5 -7 -8
leaf_value=-0.0031342162059308683 0.00089544145078658489 -0.0043304901146594913 0.0093918151650565634 0.014184209970884504 -0.00031828900612433062 0.01803946593671106 0.031667972889477917
leaf_weight=4592.7595710754395 341.45328786969185 44505.3532114923 14679.366842761636 17002.922957323492 2980.5676708295941 5771.3147551864386 3078.6045265495777
leaf_count=11310 750 121943 34035 35557 6854 10576 4233
internal_value=0.00401574 0.00212751 -0.000924583 0.0104958 0.0165322 0.0117773 0.0286348
internal_weight=92952.3 80780.4 59184.7 21595.7 12171.9 8751.88 3420.06
internal_count=225258 202845 155978 46867 22413 17430 4983
is_linear=0
shrinkage=0.0448468


Tree=68
num_leaves=8
num_cat=2
split_feature=154 19 1 133 38 158 123
split_gain=1047.93 895.994 1036.6 398.086 271.146 256.956 245.103
threshold=1.5000000000000002 11.500000000000002 0 -222.64583333333329 1 -383.49999999999994 -223.49999999999997
decision_type=10 8 9 8 9 8 8
left_child=1 4 -3 5 -1 -2 -5
right_child=3 2 -4 6 -6 -7 -8
leaf_value=-0.0062234734799457136 -0.0072026473263513491 -0.00066512146327934725 0.011700909029797927 0.0084401541994674461 -0.022796482030878005 0.011498486873185474 0.021362271851278744
leaf_weight=10384.866407498717 2615.9953212961555 39486.30383554101 20806.034652322531 4400.2383065372705 2463.8053464666009 3373.115824200213 9247.3517523258924
leaf_count=29197 7247 105502 43173 9409 8258 7338 15230
internal_value=0.00377964 0.00130796 0.00360085 0.0129776 -0.0094399 0.00331135 0.0172086
internal_weight=92777.7 73141 60292.3 19636.7 12848.7 5989.11 13647.6
internal_count=225354 186130 148675 39224 37455 14585 24639
cat_boundaries=0 1 3
cat_threshold=1 1625441778 64521558
is_linear=0
shrinkage=0.0448468


Tree=69
num_leaves=8
num_cat=1
split_feature=39 38 16 157 157 39 41
split_gain=1045.29 955.023 786.321 401.641 369.349 244.654 209.035
threshold=0.41408830859588297 0 -1921.4999999999998 2.5000000000000004 1.0000000180025095e-35 0.70091770255734709 0.22952115678204388
decision_type=10 9 2 10 10 10 8
left_child=1 3 -3 -1 6 -6 -2
right_child=4 2 -4 -5 5 -7 -8
leaf_value=-0.0064176570659536143 0.0075005064230750807 0.0015591462395989038 0.013769825736765473 0.0051180252254052162 0.0037984234608370404 -0.011090324029151409 -0.014772698618280768
leaf_weight=13250.06359026581 940.2237561494112 15834.115522682667 32271.6016369313 11188.452892825007 8403.9666479602456 3011.1218704283237 7829.4496531486511
leaf_count=38368 1744 37968 60357 26150 21240 10341 28963
internal_value=0.00357284 0.00608514 0.00975156 -0.00113121 -0.00545002 -0.000121657 -0.0123689
internal_weight=92729 72544.2 48105.7 24438.5 20184.8 11415.1 8769.67
internal_count=225131 162843 98325 64518 62288 31581 30707
cat_boundaries=0 2
cat_threshold=3452610308 53961350
is_linear=0
shrinkage=0.0448468


Tree=70
num_leaves=8
num_cat=2
split_feature=41 19 1 159 0 158 5
split_gain=1026.52 967.436 1002.59 328.173 147.468 122.348 111.954
threshold=0.19350502769441602 9.5000000000000018 0 966.05096043577998 1 -123.49999999999999 252450.00000000003
decision_type=8 8 9 10 1 8 2
left_child=4 3 -3 -2 5 -1 -6
right_child=1 2 -4 -5 6 -7 -8
leaf_value=0.014673826147437917 -0.013474143688669954 0.010955667253720006 -0.00023237723738880515 0.0052183047775518736 0.0015823516030061123 0.025788670977611079 -0.073853064378473443
leaf_weight=5316.5306431353092 9966.4841251000762 24813.037179782987 45853.257060140371 2317.9194343239069 604.13127461075783 3305.1380580365658 37.684344381093979
leaf_count=8011 30985 51823 122744 5449 1096 4246 141
internal_value=0.00325747 0.00167427 0.00369488 -0.00993705 0.0174142 0.0189594 -0.00315017
internal_weight=92214.2 82950.7 70666.3 12284.4 9263.48 8621.67 641.816
internal_count=224495 211001 174567 36434 13494 12257 1237
cat_boundaries=0 1 2
cat_threshold=2 1
is_linear=0
shrinkage=0.0448468


Tree=71
num_leaves=8
num_cat=0
split_feature=49 93 157 95 130 39 173
split_gain=986.584 702.211 511.657 469.424 445.86 345.432 257.539
threshold=0.15040000000000001 -1047.4999999999998 1.0000000180025095e-35 1.0000000180025095e-35 41611.05000000001 0.24768607424338077 130927.32000000002
decision_type=10 10 10 2 10 8 10
left_child=1 4 -3 6 -1 -5 -2
right_child=3 2 -4 5 -6 -7 -8
leaf_value=-0.0066179041839572704 -0.014365522808837848 0.0051236761810046962 0.015438268108599065 0.017677854285326571 0.0065672697563223309 -0.0014027751818125674 0.0093992617792222847
leaf_weight=10359.525590628386 8110.2365140914917 19777.712032452226 19024.072500869632 2087.5229896456003 10264.016816854477 21698.742022633553 1024.7988848462701
leaf_count=29342 25447 46379 35648 3431 24400 57909 2419
internal_value=0.00318057 0.00663118 0.010185 -0.00304455 -5.02236e-05 0.000269921 -0.0116835
internal_weight=92346.6 59425.3 38801.8 32921.3 20623.5 23786.3 9135.04
internal_count=224975 135769 82027 89206 53742 61340 27866
is_linear=0
shrinkage=0.0448468


Tree=72
num_leaves=8
num_cat=1
split_feature=182 0 182 182 39 127 170
split_gain=1048.59 939.537 1452.4 434.237 241.837 156.029 133.17
threshold=10.265329860457696 0 21.463504360703066 9.4251269031361158 0.28015992626958958 450000.75000000006 14.503333333333336
decision_type=10 1 10 8 10 10 8
left_child=3 2 -2 5 -3 -1 -5
right_child=1 4 -4 6 -6 -7 -8
leaf_value=0.00048559715785043779 0.011282926304062123 -0.0052332286082682738 -0.0010680249518049444 -0.02844157695504336 -0.022707587713604958 -0.02721482060582469 0.00044947053505415906
leaf_weight=3249.7477231249213 44309.537100784481 5136.3732626140118 33691.049649655819 2955.7713247314095 2324.1544624269009 462.15535803884268 350.89049532264471
leaf_count=7535 91480 13202 91076 11357 8089 1447 1097
internal_value=0.00312184 0.00449157 0.0059469 -0.0135323 -0.0107029 -0.00296081 -0.0253443
internal_weight=92479.7 85461.1 78000.6 7018.56 7460.53 3711.9 3306.66
internal_count=225283 203847 182556 21436 21291 8982 12454
cat_boundaries=0 1
cat_threshold=1
is_linear=0
shrinkage=0.0448468


Tree=73
num_leaves=8
num_cat=0
split_feature=16 7 8 170 164 170 161
split_gain=918.549 723.744 946.19 491.874 323.364 321.316 260.162
threshold=-2413.4999999999995 16503.750000000004 450117.00000000006 12.50182481751825 7124.2458333333343 21.446360153256709 10832.962500000001
decision_type=2 10 8 10 8 8 8
left_child=3 5 -3 4 -1 -2 -5
right_child=1 2 -4 6 -6 -7 -8
leaf_value=0.0010913595905450127 -0.0048754619115604549 0.014952502442080344 0.0027526694404828508 -0.0013957543782078454 -0.012206125098390471 0.012373185961500584 0.017924155179334655
leaf_weight=5176.8966128081083 14665.428691282868 23450.165673054755 28177.405991971493 3286.169207893312 12563.72540063411 2542.7649009525776 2426.6088556274772
leaf_count=13279 37021 45608 70990 8932 38819 5546 4853
internal_value=0.00302968 0.00564194 0.00829712 -0.00463196 -0.00831995 -0.00231742 0.00679809
internal_weight=92289.2 68835.8 51627.6 23453.4 17740.6 17208.2 5712.78
internal_count=225048 159165 116598 65883 52098 42567 13785
is_linear=0
shrinkage=0.0448468


Tree=74
num_leaves=8
num_cat=0
split_feature=168 158 172 170 148 170 157
split_gain=968.654 885.457 689.565 542.685 393.463 193.266 117.218
threshold=0.045663052543786498 -264.49999999999994 32647.093125000003 12.50182481751825 -1208.4999999999998 11.239834710743803 16.500000000000004
decision_type=10 10 10 10 8 10 10
left_child=1 3 -3 -1 5 -2 -6
right_child=4 2 -4 -5 6 -7 -8
leaf_value=-0.0079770002080866969 0.0054915035343871049 0.0031196730936247502 0.020663487621267129 0.0040787213449671351 0.020826130851154666 0.019632643173061227 0.038938658786298291
leaf_weight=24956.683124490082 6560.0346361100674 39086.922529488802 5093.9984810426831 10723.799253240228 1860.542772218585 2784.0934344083071 1248.2084853053093
leaf_count=71015 14697 94935 8638 26046 3183 5281 1543
internal_value=0.00271823 0.000902306 0.00514697 -0.00435034 0.0143501 0.00972469 0.0281815
internal_weight=92314.3 79861.4 44180.9 35680.5 12452.9 9344.13 3108.75
internal_count=225338 200634 103573 97061 24704 19978 4726
is_linear=0
shrinkage=0.0448468


Tree=75
num_leaves=8
num_cat=0
split_feature=182 182 19 182 182 128 143
split_gain=946.809 947.522 795.022 395.255 332.927 201.581 193.486
threshold=10.746441549945187 12.73565285105564 9.5000000000000018 9.4251269031361158 12.548545869617714 310509.00000000006 48102.750000000007
decision_type=10 10 8 8 10 10 10
left_child=3 4 -3 5 -2 -1 -5
right_child=1 2 -4 6 -6 -7 -8
leaf_value=0.0060157844156895329 0.0067475420275774876 -0.008081230369666903 0.0046763351141009572 0.0061263392476214595 0.027374409926241992 -0.0155861233532094 -0.025611231810233108
leaf_weight=2394.9170254841447 2458.1917127743363 11525.768602713943 66228.994682744145 425.85757187008858 4474.3174686357379 1355.3886763304472 3511.6462781727314
leaf_count=5178 4977 32938 156814 1234 6824 3784 13547
internal_value=0.00283301 0.00420217 0.0027834 -0.012228 0.0200862 -0.00176973 -0.0221462
internal_weight=92375.1 84687.3 77754.8 7687.81 6932.51 3750.31 3937.5
internal_count=225296 201553 189752 23743 11801 8962 14781
is_linear=0
shrinkage=0.0448468


Tree=76
num_leaves=8
num_cat=0
split_feature=16 95 182 154 121 158 178
split_gain=925.615 723.208 572.342 350.252 264.984 248.824 222.532
threshold=-2442.4999999999995 1.0000000180025095e-35 10.265329860457696 1.0000000180025095e-35 -1061.3095238095236 -48.499999999999993 1.770979020979021
decision_type=2 2 10 10 8 10 10
left_child=3 5 -3 6 -5 -2 -1
right_child=1 2 -4 4 -6 -7 -8
leaf_value=-0.011106650950748639 -0.0040878302007415759 -0.0082531745703222931 0.0092988534370324581 -0.0069726182818343968 0.0088266032483678147 0.012419097336168691 0.012848853486686112
leaf_weight=13472.590239681304 17391.935115277767 4059.9421995207667 45543.677395828068 3869.5210520103574 4744.2859064117074 2046.5482390522957 819.72421000897884
leaf_count=42153 47023 11385 97260 11112 9935 4433 1727
internal_value=0.0023931 0.00498567 0.0078593 -0.00541563 0.00171583 -0.00234149 -0.00972098
internal_weight=91948.2 69042.1 49603.6 22906.1 8613.81 19438.5 14292.3
internal_count=225028 160101 108645 64927 21047 51456 43880
is_linear=0
shrinkage=0.0448468


Tree=77
num_leaves=8
num_cat=1
split_feature=40 130 127 154 38 72 6
split_gain=874.661 765.638 552.275 543.826 86.4369 80.3249 67.5652
threshold=0.13817671343907631 67286.493750000009 48707.07 1.0000000180025095e-35 0 0.97835000000000016 202632.75000000003
decision_type=10 8 8 10 9 10 2
left_child=4 2 -2 -3 6 -6 -1
right_child=1 3 -4 -5 5 -7 -8
leaf_value=0.0068758453212895585 0.0096920856780970677 0.001130519418295917 -0.0059648179821968706 0.011117042083583764 0.01206385229066627 -0.01245626318775688 0.02062922815251975
leaf_weight=860.31631681323051 5273.8784655034542 29193.545749098063 31839.070002548397 17592.093188636005 1294.89982663095 330.54704459011555 5638.6595601290464
leaf_count=1486 11993 73197 91621 36021 2052 702 8003
internal_value=0.00243469 0.00107224 -0.00373589 0.00488879 0.0164817 0.00694314 0.0188035
internal_weight=92023 83898.6 37112.9 46785.6 8124.42 1625.45 6498.98
internal_count=225075 212832 103614 109218 12243 2754 9489
cat_boundaries=0 2
cat_threshold=1763723004 38315098
is_linear=0
shrinkage=0.0448468


Tree=78
num_leaves=8
num_cat=0
split_feature=168 41 86 148 181 133 120
split_gain=874.763 852.249 709.335 311.343 166.764 154.941 80.328
threshold=0.2184390997778422 0.22320604107274528 0.026750000000000006 -1166.4999999999998 0.15328102564102566 -379.41428571428565 2.5000000000000004
decision_type=10 8 10 10 10 8 10
left_child=1 5 -3 4 -2 -1 -5
right_child=3 2 -4 6 -6 -7 -8
leaf_value=0 0.0019933825889424388 0.0028144036557976064 -0.006199721436544979 0.038859336964824874 0.017657455181984329 0.015571995665824956 0.020206945640783593
leaf_weight=1528.4908623173833 2336.4291134998202 45425.667532756925 28608.179773405194 1256.1251388788223 3356.7601085752249 8558.5505574345589 819.41784309595823
leaf_count=2837 5265 111319 83353 1513 6458 12772 1358
internal_value=0.00232918 0.000997568 -0.000667435 0.0167242 0.0112561 0.0132242 0.0316108
internal_weight=91889.6 84120.9 74033.8 7768.73 5693.19 10087 2075.54
internal_count=224875 210281 194672 14594 11723 15609 2871
is_linear=0
shrinkage=0.0448468


Tree=79
num_leaves=8
num_cat=0
split_feature=182 182 95 182 182 126 157
split_gain=914.528 935.679 751.96 404.23 313.933 164.28 160.328
threshold=10.845397611218624 12.73565285105564 1.0000000180025095e-35 9.3195289155127643 12.548545869617714 431722.21500000003 8.5000000000000018
decision_type=10 10 2 8 10 10 8
left_child=3 4 -3 5 -2 -1 -5
right_child=1 2 -4 6 -6 -7 -8
leaf_value=0.0089352891788504387 0.0053963771956422948 -0.0051293120374164393 0.0048558315665126568 -0.026117124073767248 0.026636759089649704 -0.011772426884875951 -0.0080944946060054184
leaf_weight=1800.2340224981308 2070.4857626631856 20685.085608653724 56771.949160955846 3299.5499960929155 4431.1368834674358 1339.9608965963125 1457.1178622245789
leaf_count=3698 4170 57065 132578 12546 6756 3614 4532
internal_value=0.0021879 0.00356154 0.00218763 -0.0123955 0.0198988 5.79624e-05 -0.0206334
internal_weight=91855.5 83958.7 77457 7896.86 6501.62 3140.19 4756.67
internal_count=224959 200569 189643 24390 10926 7312 17078
is_linear=0
shrinkage=0.0448468


Tree=80
num_leaves=8
num_cat=0
split_feature=130 39 126 7 41 39 156
split_gain=895.682 605.514 574.375 526.722 375.34 256.144 183.88
threshold=41611.05000000001 0.56861046756726441 152771.49000000002 16503.750000000004 0.7039548641001806 0.30533897825675443 -5.4280261723009806
decision_type=8 10 10 10 8 10 10
left_child=2 3 5 -2 -4 -1 -3
right_child=1 6 4 -5 -6 -7 -8
leaf_value=0.011092712138375184 -0.00068840877309841813 -0.010491771080271406 -0.0035850512090276994 0.010056447023743658 -0.016374790898324415 -0.0078730016940971852 0.0051380448173318641
leaf_weight=6448.0562352314591 11892.016735002398 5353.7888133972883 18748.483671963215 39869.200028650463 6135.8522894605994 1829.9515051022172 2095.6294820606709
leaf_count=13668 27182 18152 50441 82602 22132 5539 5601
internal_value=0.00255884 0.00586429 -0.00333947 0.00758576 -0.00674573 0.00688411 -0.00607887
internal_weight=92373 59210.6 33162.3 51761.2 24884.3 8278.01 7449.42
internal_count=225317 133537 91780 109784 72573 19207 23753
is_linear=0
shrinkage=0.0448468


Tree=81
num_leaves=8
num_cat=1
split_feature=26 135 158 181 150 159 150
split_gain=826.614 554.055 480.046 466.425 345.025 287.452 204.258
threshold=0 4.5000000000000009 -246.49999999999997 0.2166309523809524 19.783625730994157 999.52358108108126 26.038461538461544
decision_type=9 10 10 10 10 10 8
left_child=2 3 4 -2 -1 -4 -3
right_child=1 6 5 -5 -6 -7 -8
leaf_value=-0.0018331539366691486 -0.0069407471573161893 0.00631443339444452 0.0084782548125130232 0.0032265584589771649 0.011603905670028326 0.021142888173252956 0.026302554911968798
leaf_weight=15430.491036497056 28941.798268169165 4083.3451594635844 18972.304945811629 13197.741998150945 5109.7319198697805 4474.296986952424 1383.7763325870037
leaf_count=36934 84220 9274 38722 35762 10138 7236 2341
internal_value=0.00208519 -0.00200826 0.00651687 -0.00375368 0.00150571 0.0109036 0.0114123
internal_weight=91593.5 47606.7 43986.8 42139.5 20540.2 23446.6 5467.12
internal_count=224627 131597 93030 119982 47072 45958 11615
cat_boundaries=0 1
cat_threshold=221974
is_linear=0
shrinkage=0.0448468


Tree=82
num_leaves=8
num_cat=0
split_feature=178 165 150 7 172 165 150
split_gain=823.051 992.752 856.969 600.133 296.003 238.317 106.422
threshold=0.4469336670838549 201935.27250000005 23.171568627450984 14550.750000000002 31426.390025201614 664372.84500000009 19.783625730994157
decision_type=10 8 10 10 10 8 10
left_child=1 3 -3 -1 6 -6 -2
right_child=4 2 -4 -5 5 -7 -8
leaf_value=-0.0052751282524053271 -0.010969712269040682 -0.0072701192080501451 0.0075606369106120484 0.009379048814210169 0.022234433489052508 0.009222315399003209 0.016696685592093485
leaf_weight=7139.2866896316409 1323.7876840010285 35100.712348677218 10077.020715333521 26227.614672675729 5131.212624438107 6436.6027826815844 347.45352712273598
leaf_count=18298 3376 99911 23146 58160 8195 13279 632
internal_value=0.00211753 0.000372194 -0.00395909 0.00623983 0.0124599 0.0150106 -0.00511925
internal_weight=91783.7 78544.6 45177.7 33366.9 13239.1 11567.8 1671.24
internal_count=224997 199515 123057 76458 25482 21474 4008
is_linear=0
shrinkage=0.0448468


Tree=83
num_leaves=8
num_cat=1
split_feature=40 159 148 154 40 38 66
split_gain=898.369 780.627 631.031 557.356 99.4552 91.92 23.2531
threshold=0.13817671343907631 157.39511183597389 -1257.4999999999998 1.0000000180025095e-35 0.023711236871581002 0 0.035350000000000006
decision_type=10 10 10 10 8 9 8
left_child=4 3 -3 -2 6 -6 -1
right_child=1 2 -4 -5 5 -7 -8
leaf_value=-0.003231802907408782 -0.0061597574281234586 0.0012677367325587535 0.01492687298110129 0.0036113656318736915 -0.0029560461703455033 0.015141088959969061 0.027299475649692376
leaf_weight=44.00843234360218 36089.522794321179 19397.628238275647 10490.569765992463 17382.093930698931 613.50337034463882 5983.4326995611191 1472.6449464559555
leaf_count=83 104970 46633 19485 41465 1195 9210 1783
internal_value=0.00165021 0.000261865 0.00606741 -0.00298124 0.0158918 0.0134581 0.0263304
internal_weight=91473.4 83359.8 29888.2 53471.6 8113.59 6596.94 1516.65
internal_count=224824 212553 66118 146435 12271 10405 1866
cat_boundaries=0 2
cat_threshold=2420144132 18891268
is_linear=0
shrinkage=0.0448468


Tree=84
num_leaves=8
num_cat=1
split_feature=40 130 178 154 0 154 29
split_gain=864.388 712.588 470.921 451.887 270.795 227.303 98.1504
threshold=0.66398554250013719 57103.520625000012 0.4171245421245422 1.0000000180025095e-35 0 1.0000000180025095e-35 1.5000000000000002
decision_type=8 8 10 8 1 10 2
left_child=1 2 -1 -3 5 -2 -6
right_child=4 3 -4 -5 6 -7 -8
leaf_value=-0.0037825029608912482 -0.010091593522399221 0.0034207339178674093 0.011924046504286884 0.012559711083496124 -0.047509152814864133 0.0014183926154495465 -0.019359372584426368
leaf_weight=26401.234314665198 9569.9808548241854 25257.010696582496 4486.087580524385 19184.043860383332 355.93467288464308 5368.3462782949209 945.23110493272543
leaf_count=68711 35076 55512 8573 35856 1764 15708 3823
internal_value=0.00170854 0.00373273 -0.00149612 0.00736927 -0.00767217 -0.00594834 -0.0272856
internal_weight=91567.9 75328.4 30887.3 44441.1 16239.5 14938.3 1301.17
internal_count=225023 168652 77284 91368 56371 50784 5587
cat_boundaries=0 1
cat_threshold=1
